,0,1,2,3,4,5,6,7,8,9,10,11,12,13,14,15,16,17,18,19,20,21,22,23,24,25,26,27,28,29,30,31,32,33,34,35,36,37,38,39,40,41,42,43,44,45,46,47,48,49,50,51,52,53,54,55,56,57,58,59,60,61,62,63,64,65,66,67,68,69,70,71,72,73,74,75,76,77,78,79,80,81,82,83,84,85,86,87,88,89,90,91,92,93,94,95,96,97,98,99,100,101,102,103,104,105,106,107,108,109,110,111,112,113,114,115,116,117,118,119,120,121,122,123,124,125,126,127,128,129,130,131,132,133,134,135,136,137,138,139,140,141,142,143,144,145,146,147,148,149,150,151,152,153,154,155,156,157,158,159,160,161,162,163,164,165,166,167,168,169,170,171,172,173,174,175,176,177,178,179,180,181,182,183,184,185,186,187,188,189,190,191,192,193,194,195,196,197,198,199,200,201,202,203,204,205,206,207,208,209,210,211,212,213,214,215,216,217,218,219,220,221,222,223,224,225,226,227,228,229,230,231,232,233,234,235,236,237,238,239,240,241,242,243,244,245,246,247,248,249,250,251,252,253,254,255,256,257,258,259,260,261,262,263,264,265,266,267,268,269,270,271,272,273,274,275,276,277,278,279,280,281,282,283,284,285,286,287,288,289,290,291,292,293,294,295,296,297,298,299,300,301,302,303,304,305,306,307,308,309,310,311,312,313,314,315,316,317,318,319,320,321,322,323,324,325,326,327,328,329,330,331,332,333,334,335,336,337,338,339,340,341,342,343,344,345,346,347,348,349,350,351,352,353,354,355,356,357,358,359,360,361,362,363,364,365,366,367,368,369,370,371,372,373,374,375,376,377,378,379,380,381,382,383,384,385,386,387,388,389,390,391,392,393,394,395,396,397,398,399,400,401,402,403,404,405,406,407,408,409,410,411,412,413,414,415,416,417,418,419,420,421,422,423,424,425,426,427,428,429,430,431,432,433,434,435,436,437,438,439,440,441,442,443,444,445,446,447,448,449,450,451,452,453,454,455,456,457,458,459,460,461,462,463,464,465,466,467,468,469,470,471,472,473,474,475,476,477,478,479,480,481,482,483,484,485,486,487,488,489,490,491,492,493,494,495,496,497,498,499,500,501,502,503,504,505,506,507,508,509,510,511,512,513,514,515,516,517,518,519,520,521,522,523,524,525,526,527,528,529,530,531,532,533,534,535,536,537,538,539,540,541,542,543,544,545,546,547,548,549,550,551,552,553,554,555,556,557,558,559,560,561,562,563,564,565,566,567,568,569,570,571,572,573,574,575,576,577,578,579,580,581,582,583,584,585,586,587,588,589,590,591,592,593,594,595,596,597,598,599,600,601,602,603,604,605,606,607,608,609,610,611,612,613,614,615,616,617,618,619,620,621,622,623,624,625,626,627,628,629,630,631,632,633,634,635,636,637,638,639,640,641,642,643,644,645,646,647,648,649,650,651,652,653,654,655,656,657,658,659,660,661,662,663,664,665,666,667,668,669,670,671,672,673,674,675,676,677,678,679,680,681,682,683,684,685,686,687,688,689,690,691,692,693,694,695,696,697,698,699,700,701,702,703,704,705,706,707,708,709,710,711,712,713,714,715,716,717,718,719,720,721,722,723,724,725,726,727,728,729,730,731,732,733,734,735,736,737,738,739,740,741,742,743,744,745,746,747,748,749,750,751,752,753,754,755,756,757,758,759,760,761,762,763,764,765,766,767,768,769,770,771,772,773,774,775,776,777,778,779,780,781,782,783
0,0.008708184,0.039973903,0.024688372,0.032895215,0.033623364,0.017943384,0.014869801,-0.007034814,-0.008290083,0.054957997,-0.002625751,0.01349195,0.042779718,-0.01237836,0.04623835,0.022722756,0.02122037,-0.007197025,0.049587984,-0.005219131,0.0068406104,0.03401987,0.0514619,-0.0017055405,0.036099724,0.03704658,0.034452483,0.043742087,0.009780374,0.03153673,0.04060666,0.034738608,0.047949154,0.023435107,-0.018436458,0.044561997,0.0016781242,-0.0011699244,0.02128942,0.070934944,-0.025387196,-0.00026357692,-0.010749454,-0.04600564,-0.031414628,0.022427417,-0.0046402975,0.010244034,0.016745778,-0.01781826,0.020988474,-0.016032567,-0.012087251,0.007777812,0.026692474,0.03750027,0.024594406,0.019566644,0.03061833,0.03988007,-0.005069609,0.026245171,-0.013576432,0.015805637,-0.005552646,0.12642084,0.104319915,0.023461659,0.101504244,-0.0059946603,0.023897534,-0.0010068666,-0.095378175,-0.09203124,-0.052735046,-0.10723633,-0.044664282,-0.034456063,0.014719774,-0.028091678,0.029893946,-0.01243275,-0.0070381034,0.031351402,0.050654236,0.04706865,0.007009732,0.033204652,-0.013206262,0.009190877,0.03771947,-0.047079723,-0.017350493,0.07567051,0.117071,0.10838027,0.060384925,-0.10546383,-0.01188764,-0.044903867,-0.076525435,-0.18322203,-0.19707122,-0.08926337,-0.08516813,0.067525476,0.032338127,-0.09214004,0.0065358165,-0.004757628,0.05192555,0.040168736,0.0002761961,0.011789593,-0.016449401,-0.01242869,-0.0054854136,0.021581266,-0.00058834365,-0.0095524555,0.035156395,0.13325673,0.03664218,-0.050843686,0.19171548,0.242338,0.02290796,-0.099937275,-0.07884979,-0.033833545,0.035577238,0.010648563,-0.06105781,0.07300606,0.18405958,0.028153546,-0.0090291435,0.032158576,-0.0136884535,0.019596819,-0.004659661,-0.0018599482,0.030911786,-0.009215108,-0.033915825,0.005153011,0.042779725,-0.011738452,0.07129968,0.0014496257,0.0071227457,0.10629458,0.1459573,0.046145625,0.07619895,0.028607527,0.011497443,0.02947964,0.16413753,0.04085418,0.02261197,0.029619511,0.108868845,0.25453788,0.20552498,0.09547668,0.055701338,0.06305258,-0.015747285,0.04639857,0.05186737,0.055249464,-0.026745088,-0.096681125,-0.16434304,-0.11593866,-0.018346136,-0.10273492,-0.15247452,-0.019967057,0.094461165,0.0110733975,-0.04461935,-0.14592564,-0.22070944,-0.099844,-0.025883943,-0.012894721,-0.051951207,0.019226689,0.0037907474,0.19366412,0.20088333,0.14089051,0.034670003,0.07019319,0.0064097443,0.0007304485,0.008678899,-0.010986831,-0.0051428783,-0.20834833,-0.12421068,-0.052308086,-0.12261762,-0.16380034,-0.14971551,0.09084287,0.06527008,-0.008435649,-0.058126114,-0.2635038,-0.13169079,-0.12628372,-0.10374959,-0.08660155,-0.068062045,-0.015318965,0.21009594,-0.0031835723,0.12844704,0.12385051,0.021599824,0.053365,0.027758718,0.035013307,0.044725034,0.021021586,-0.14819439,-0.25533667,-0.22447507,-0.28222907,-0.4013208,-0.18129174,-0.20896195,-0.039990634,0.101552166,0.020001188,-0.113269284,-0.0092272805,-0.08981633,-0.07910911,-0.078064315,-0.00052710867,-0.19296074,-0.09807753,0.014743311,-0.06595179,0.07435618,0.20263423,0.021179095,0.02085117,0.013088266,0.048281413,-0.0031128938,0.02938499,-0.18833455,-0.2671287,-0.33689106,-0.33128154,-0.41948646,-0.25756094,-0.26861724,-0.008597538,0.033254392,-0.0010081588,-0.06572173,-0.12030788,-0.21506308,-0.017655652,0.20368022,-0.020380134,0.015483098,0.007994692,-0.10423608,-0.19123834,0.005140839,0.040016033,-0.019405337,0.045359824,0.04957584,0.009805967,0.059272937,-0.0015823644,-0.23975736,-0.15357605,-0.21360005,-0.29746324,-0.3765739,-0.2012554,-0.12339976,-0.0008933592,0.049469028,0.002180895,-0.0261272,-0.15293488,-0.14197987,0.123500794,0.044027712,0.0028739965,-0.0072861095,0.035607122,-0.13098928,-0.2196348,-0.104452774,-0.02915466,0.019081363,0.03469517,0.0009183978,0.024342678,0.023614556,-0.052593842,-0.29954097,-0.21363257,-0.029193418,-0.050469976,-0.009178586,-0.051699612,0.13462472,0.0936379,0.15502921,0.1345284,0.032075424,-0.34677696,-0.11763689,0.09447975,-0.0999114,-0.04743914,-0.12693648,-0.11474344,-0.20333174,-0.18782425,-0.25139093,-0.03569428,-0.052668404,0.0031232173,-0.011447332,0.0329179,0.037078887,0.0065035694,-0.20148475,-0.12694278,-0.01757433,-0.042279582,0.07682468,-0.0015378358,0.17983207,0.127723,0.1587191,-0.05231194,-0.27114382,-0.40670776,-0.19036615,-0.23056969,-0.18388158,-0.18569171,-0.19148032,-0.38737625,-0.099874526,-0.25645167,-0.20138659,-0.0007580603,-0.041030288,0.0034889083,0.03760997,0.023814192,0.041599967,0.0017660492,-0.15023535,-0.09994437,0.097997844,0.11101749,0.08970608,0.06894275,0.07039889,0.033952184,-0.04389404,-0.14542148,-0.394768,-0.22167282,-0.20553666,-0.062064167,-0.1677969,-0.257404,-0.23509714,-0.21521248,0.022145376,-0.07451156,-0.076405965,0.010345549,0.005913745,0.043979555,0.053601455,0.04492054,0.012309755,0.12537885,0.033143543,0.06239645,-0.005970663,0.16050011,0.11454928,0.19336048,0.030562244,0.043029785,-0.014679988,-0.11421754,-0.10760501,-0.114082,0.10067868,0.009903261,-0.27948922,-0.23794064,-0.31719032,-0.16017465,0.050279047,0.021722427,0.07519055,0.1161619,0.022251103,0.025549607,0.054174867,0.0024532727,0.061594624,0.21070172,0.12195357,0.12557192,-0.045884863,0.041912314,0.11602467,0.21740727,0.09778728,0.16600662,0.11384641,0.055596214,0.031445134,0.10128977,0.20451392,0.16078985,-0.15902992,-0.17702657,-0.31514424,-0.26863664,0.11499226,0.13855086,0.18365829,0.28860965,0.09573561,-0.010679911,0.011116578,-0.0072738826,-0.019250516,0.13053587,0.032795124,0.2411778,0.12603357,0.102348246,0.090902746,0.18340902,0.09042212,0.06605056,0.07881525,0.12805404,0.16008796,0.31205234,0.24900603,0.2814696,0.1537672,0.0640832,0.042418707,0.15263425,0.08459566,0.06023584,0.08689761,0.2965365,0.088167734,0.04023575,0.03889103,-0.011700233,0.013341938,0.09022826,0.17382509,0.18000934,0.10339204,0.0908002,0.20224161,0.20923868,0.10094463,0.04816073,0.07013221,0.19585966,0.2637397,0.27667996,0.22114664,0.17302474,0.17675807,0.056257192,0.12048471,0.3125396,0.21144782,0.10229228,-0.036029793,0.23564005,0.11589421,0.03951438,0.019673554,0.049358238,-0.014862968,0.18932393,0.36520225,0.15971915,0.12837502,0.19751409,0.11199106,0.09640259,-0.051272877,-0.031126853,0.064572886,0.21705675,0.33377764,0.20670557,0.22799844,-0.009473388,0.15044923,0.1275869,0.2209617,0.22939898,0.121653005,0.051512487,0.10253661,0.05499207,0.07518278,0.035560444,-0.009244322,0.041243684,0.03143299,0.2221222,0.37720096,0.21861714,0.007870657,0.10783126,0.013846469,0.0058669243,-0.0793571,-0.008828873,-0.059233427,0.03615727,0.21190673,0.2988209,0.14639406,0.00574687,0.19934736,0.076991186,0.0016657815,0.12476281,0.23591895,0.19762108,0.11273295,0.012419877,0.05760675,0.03329574,0.036295358,0.048090655,-0.0015339444,0.081573635,0.19682212,0.10458515,0.05577434,0.08343397,0.13189843,0.02548024,-0.13570479,-0.08828593,-0.0884138,-0.22664253,-0.17467085,-0.12588207,0.15823382,0.06321639,0.1696057,-0.0025134725,-0.08643484,-0.009683526,0.09198389,0.028006613,0.046153225,0.0009084529,0.04787702,-0.013137887,0.025465155,-0.014830398,0.018487453,0.10957132,0.2002678,0.28481224,0.05106037,-0.01831548,0.13140123,-0.053078596,-0.14538436,-0.22704044,-0.21671733,-0.2499032,-0.27334988,-0.03569731,0.08003606,-0.047000863,-0.029974256,-0.038555,0.14489123,0.18420437,0.10920129,0.022603042,0.047555346,0.014282152,0.012135267,0.0374754,-0.00057881174,-0.015504801,0.058406044,0.012925701,0.047529034,0.1536716,0.041755978,0.005962129,-0.025977207,-0.14373212,-0.007208837,-0.053711876,-0.07255442,-0.12125783,-0.28245527,0.04455804,0.03945559,-0.1285651,-0.035530176,0.15149361,0.15414634,0.26610944,0.14486349,0.02506001,-0.036578216,-0.025115637,-0.024007468,0.017303657,0.012537797,0.03457671,0.040282022,-0.010303551,0.010716388,-0.058678996,0.052316602,0.01828486,-0.05845077,-0.13029447,0.07674484,0.17592262,-0.10785162,-0.2658099,-0.21981928,-0.029525887,-0.0020207237,-0.20210055,-0.05425401,-0.030543204,0.00022439445,0.20460574,0.08061654,-0.026114376,-0.024921793,-0.06843703,-0.02101631,0.05372378,0.049832772,0.028053926,0.050254326,-0.0032036295,-0.020075541,-0.09296444,-0.14805284,-0.07660392,-0.17480756,-0.113095805,-0.023527987,-0.030880645,-0.36269766,-0.21672451,-0.36534715,-0.15245122,0.021941515,-0.2705677,-0.14222752,0.016060041,0.017922193,0.02074871,0.017816717,0.012723197,0.018629383,0.026452875,0.0504575,0.038423948,0.0330395,-0.013336311,-0.01060026,0.01732995,0.04003954,0.008254707,-0.021717766,-0.050061066,-0.19660187,-0.35511264,-0.25117576,-0.1930235,-0.27587193,-0.25422254,-0.35086966,-0.043954693,-0.07584535,-0.26048118,-0.23381528,-0.2580231,-0.17585126,-0.089885265,-0.044896964,0.03674469,0.012363281,0.027130717,0.028826112,0.053808037,-0.015997497,-0.014477848,0.03559624,0.04741391,0.0063629462,0.06119632,0.044505946,-0.051211048,-0.07728716,-0.10933769,-0.12412522,-0.038552597,-0.021261642,-0.044598766,-0.034208138,0.0061783628,-0.038960755,-0.007561515,-0.103391215,-0.06645889,0.0008723897,-0.007828904,-0.019918667,0.04670998,0.051136594,-0.00038252847,0.018994039,0.027283246,0.03819853,-0.0009343651,-0.013557649,0.039870154,-0.0016865694,0.038836468,0.013511123,-0.042240407,-0.035629895,-0.00056208717,0.0036295257,-0.0127419755,0.028015306,0.017719645,-0.023986617,0.0014104998,-0.0004905668,0.012602122,0.032260794,-0.0119369095,-0.005680728,-0.022555241,0.027916133,0.04576647,-0.006501633,0.012802291,0.03156504,0.018797504
1,-0.037430868,-0.021406665,-0.0072134268,-0.019756064,-0.022103924,-0.042575575,-0.02916845,0.015955482,0.009464859,-0.03260796,-0.03659136,0.00045333762,-0.042239644,0.0053933207,-0.012815908,-0.029872332,0.024755739,0.024730753,0.016214844,0.0006206467,-0.023619253,0.016208366,0.023661852,-0.013138306,0.018322803,-0.028636593,-0.029054448,0.0064072525,0.023653582,-0.04190577,0.017898679,-0.003463615,0.0047318377,0.014293628,0.006895167,0.011689045,0.040560886,-0.005453955,0.018724507,-0.04186905,0.020451134,0.03500708,0.05308296,0.056763433,-0.021721315,-0.026508866,-0.03643936,0.047637787,-0.013378118,-0.013461954,-0.026944842,-0.039080374,-0.028572828,-0.037048068,-0.012115258,-0.00828527,-0.006334968,-0.010796168,-0.023644295,-0.038177513,-0.019347876,0.008071446,0.002177436,0.0017667436,0.029349132,0.02388841,0.0047842716,0.054521486,0.0759797,0.15634671,0.11398402,0.11975658,0.13920562,0.1616094,0.09800613,0.050951313,-0.027335744,-0.02739249,-0.0084606325,-0.03452135,-0.03508501,-0.029925674,-0.038900502,-0.020367343,0.025081236,0.01941958,-0.026370406,-0.014645576,-0.00865619,0.01989255,0.044281464,0.05585157,0.07446764,0.22420317,0.12589999,-0.108458534,-0.009976634,0.10073836,0.0706517,0.17696711,0.030265285,0.02194914,0.1743012,0.10233956,0.022294559,0.050183803,-0.06929824,-0.030009497,0.047700744,-0.0004653508,-0.038333826,-0.044310756,0.003357228,-0.038310006,0.0016082192,-0.018610144,-0.007629939,0.032904997,0.0797009,0.040159337,0.031472526,0.04725053,0.05625964,0.05615426,-0.17558722,-0.21052285,-0.0023863977,0.1299362,0.0028871521,-0.03607117,0.20120506,0.16997352,0.102328844,0.25331986,0.19794512,0.108823925,0.21984744,0.07336748,0.029216578,-0.001372133,-0.038867705,-0.01712517,-0.0045461035,-0.02648908,-0.05114744,-0.06184503,-0.09380113,-0.022193655,-0.0021858402,0.14734517,0.10652157,0.1960493,-0.05881276,0.007177295,-0.022220831,0.088666886,0.12207546,0.21591847,0.3033435,0.02635632,0.24796773,0.35791117,0.3886129,0.28221342,0.17321675,0.0273586,0.0071013914,-0.02871415,0.01279608,-0.032092646,0.012261656,-0.062692225,-0.031231273,-0.051265363,-0.09222834,0.103620425,0.10803206,0.1164897,0.2270145,0.21742654,0.1657212,0.14625688,0.19307867,0.31359404,0.41820225,0.44592562,0.43196818,0.14543106,0.19774969,0.14613406,0.06025379,0.11373651,0.07852342,0.017458968,0.029752329,0.023104697,0.011962438,-0.017033506,-0.022971883,-0.004872814,-0.06841742,-0.005825975,-0.010233524,0.07070346,0.22452012,0.26720333,0.18045959,-0.004481229,0.07077098,0.038457233,0.30262133,0.25351977,0.16580278,-0.0070730015,0.1497468,0.12876582,0.018792557,-0.25138706,-0.07900785,-0.2815535,-0.18303075,-0.02622575,-0.023719657,0.019561443,-0.0028386666,0.0065809633,-0.0042769695,0.02515119,-0.10630304,-0.023837501,-0.08941291,-0.01786272,0.22706078,0.11174505,0.0015736481,0.027381495,0.12007086,0.08818576,-0.018715324,-0.195451,-0.5693807,-0.4682469,-0.20459262,-0.16310525,-0.47207803,-0.4849332,-0.26158613,-0.26815706,-0.23047145,-0.09143733,0.008965062,-0.036666714,0.025118526,-0.03723578,-0.02862821,0.047291674,-0.06471312,0.0051233293,0.04227274,0.043188192,0.10497277,0.016837044,-0.08046916,-0.03910617,0.04875084,-0.101651564,-0.2490432,-0.40020907,-0.74207073,-0.5436321,-0.44501784,-0.49014682,-0.57279193,-0.5507693,-0.38736272,-0.32873696,-0.1310065,-0.0642561,-0.017761352,-0.023927536,-0.002919258,0.012182655,0.008874018,0.074268095,0.055628855,0.056135725,0.095522165,-0.03182218,0.060131613,-0.10175352,-0.09297098,-0.064883925,-0.07316052,-0.19447494,-0.27388346,-0.16311802,-0.23148935,-0.19146468,-0.028086085,-0.11243049,-0.21448457,-0.38759324,-0.43401137,-0.19604118,-0.12584434,-0.053669553,0.003260011,-0.026456937,0.006754369,-0.0019894142,-0.0030206847,0.111877434,0.052038316,0.05256715,0.18218707,-0.002555376,-0.15057667,-0.16252138,-0.15304305,-0.10944405,-0.054363504,-0.20181307,-0.105536066,0.11704014,0.14236581,0.22185937,0.25410867,0.047728356,-0.011110504,-0.18344311,-0.25978184,-0.08885147,-0.027827494,-0.11941363,0.018084286,-0.043169327,0.02602747,-0.029683549,-0.028239459,0.08784183,-0.023136286,-0.009666609,0.09292081,0.07860141,0.034376465,-0.14906377,-0.16317715,-0.07817811,-0.2208621,-0.38697034,0.0058784243,0.14322594,0.23959528,0.19893445,0.2397973,0.1368346,0.22151932,0.1610267,-0.012246261,0.092191175,-0.049677774,-0.09855927,0.016398031,-0.02685963,-0.015808161,0.012692254,0.00593335,0.08400671,-0.060103267,-0.03701553,-0.007825731,0.21003528,0.009213853,-0.08243281,-0.0047560236,-0.12164849,-0.23884127,-0.17998907,0.10547548,0.0024722987,0.11054678,0.15329593,0.16062742,0.20098254,0.30864227,0.14577307,0.10708253,0.10687869,0.019831674,-0.14514409,-0.03115405,0.010017398,0.015891861,-0.019373016,0.0260743,-0.008282438,-0.035469633,-0.26888058,0.045224447,0.11178341,0.053973693,-0.057904437,0.06223707,-0.04512977,-0.13455378,-0.22358707,-0.06331445,-0.022936795,0.02110111,-0.032612212,0.16104577,0.06450404,0.18157026,0.03858104,-0.019220093,0.09001745,0.09504448,-0.07267641,0.029858515,-0.03832554,-0.0060368516,0.013459489,-0.031736128,-0.04207134,-0.1166942,-0.14165361,-0.010795398,-0.11302287,-0.19694689,0.01353289,0.005577971,-0.048336994,-0.20255432,-0.2312378,-0.17326146,-0.03361407,0.06971068,0.026204953,0.096907794,-0.028160408,0.08054114,0.051919147,-0.116187446,-0.05961716,0.19727024,-0.042616647,-0.032781024,-0.038030304,-0.027992278,0.002777632,-0.004413208,0.051509608,-0.1022139,-0.11934724,-0.14630565,-0.26409268,-0.28834563,-0.04881965,-0.039857842,-0.025849842,-0.040859178,-0.059649132,0.016386058,0.00074572524,0.06828378,0.0675118,0.033151485,-0.029814648,0.053118058,0.12016365,0.0707767,0.013073,0.19605398,-0.06845862,-0.00850436,-0.04013786,0.026744612,-0.03624378,-0.023493925,0.052264936,-0.1316197,-0.085898235,0.0044081486,-0.17410927,3.0342533e-05,-0.011694732,-0.009277154,0.054956686,-0.054769326,-0.07211398,0.072336175,0.13045281,0.037811413,-0.052713074,-0.082533345,-0.09394719,0.08142678,0.029508796,0.043301273,0.03381991,0.076655485,0.024304485,-0.031817243,-0.0062287347,0.017604142,-0.030848172,-0.02244441,-0.046016082,-0.019812515,0.054892484,-0.090023845,-0.12698776,-0.07435007,-0.05161137,0.043033954,-0.05852017,-0.17680882,-0.09260338,0.17551132,0.10622361,0.09426378,-0.059104633,-0.16155589,-0.06349153,0.051949322,0.108694345,0.03337906,0.12119419,0.14749873,-0.012012485,-0.028756358,0.017177079,-0.036567733,0.009669186,0.00010648403,-0.06720808,-0.08887105,-0.067624785,-0.0662172,-0.0647064,0.021359669,0.028179003,-0.016355494,0.06861585,0.113211945,0.1215719,0.016890073,-0.010521226,0.037794597,-0.025948178,-0.1536704,-0.118610196,0.0665278,-0.019465951,0.022698369,0.08150695,0.14273345,-0.017853495,-0.028923793,-0.033806104,-0.020702638,0.002917219,0.0038698863,0.04274326,0.010132932,0.03717112,0.011205421,-0.0755296,0.04391292,0.07789625,-0.057900432,-0.08603176,-0.049981326,0.041912466,0.0072895484,0.14480633,0.09550168,0.04828875,-0.057659443,-0.017706515,-0.022928113,-0.08602999,0.069292,0.07709895,0.0795181,0.0636719,-0.012618525,-0.036094233,-0.029900815,0.018410496,0.0016846356,0.021441914,-0.0040049776,0.120684214,0.017455434,0.017743867,0.021394594,0.06732195,0.07068932,0.09892332,0.1996204,0.028864484,-0.0063112816,0.087590866,0.08582392,0.039553992,-0.036607854,-0.10692916,0.016386405,0.06523609,-0.051702805,0.0027709175,0.123604074,0.0943187,-0.042639907,0.015781838,-0.015574231,-0.040874325,-0.021368397,0.016742075,-0.0033622244,-0.009907152,-0.05729801,0.08336643,0.1325499,0.013372987,0.0011153036,0.0450074,-0.011710764,-0.07605076,0.10284483,0.03628611,0.014790573,0.046511333,0.011398317,-0.06815883,0.0821783,-0.04280728,-0.035835814,0.034166206,0.07432572,0.06972898,0.04987172,0.007238548,-0.02118637,0.012805626,-0.027518747,0.0069124727,0.03466306,-0.032346416,-0.06701754,-0.028774947,0.10808017,0.18132064,0.14886647,0.16753744,0.023407228,0.002011054,0.04001856,-0.04780232,-0.072793834,-0.054842472,-0.0114762625,0.07472424,0.18660022,0.058740664,-0.030376809,-0.024815984,0.02497871,0.07486377,0.018570036,-0.009256557,-0.03651876,-0.0036525535,-0.028437622,0.030125976,0.014291384,0.011578348,0.07421319,0.036502905,0.04396847,-0.011690239,0.007056359,0.017302815,-0.10290748,-0.031692453,0.049678657,-0.1069299,-0.278369,-0.04170565,-0.05865531,0.038838927,0.12348941,0.021975275,-0.043165557,-0.041800197,-0.027327277,0.023588724,0.019641187,0.015065284,0.01826907,-0.035088778,0.0077065243,-0.042509537,-0.03344583,-0.055576686,0.085648976,0.17253958,0.12769708,0.23249976,0.11277939,0.00059075764,0.28250703,0.23012166,0.3584312,0.12928525,0.0014982459,0.011597967,-0.041985024,0.0002275213,0.030076727,-1.8962193e-05,-0.03821651,-0.058801204,-0.027902018,0.0024688253,-0.021324836,0.019318756,-0.015934013,-0.026241284,-0.019910224,0.0013553391,-0.028821237,0.015339402,-0.014491412,0.027065529,0.022918345,0.01657847,0.011178083,0.056986634,0.074033506,0.26938316,0.318097,0.24302608,0.11872854,0.03628398,0.008824734,0.048987366,0.036369175,-0.034487646,0.025269605,-0.021147098,0.02275788,-0.027954124,-0.007982051,-0.012390636,-0.017024241,0.017432742,-0.015752006,-0.033270158,0.008148498,-0.025570918,0.013683299,-0.017974209,0.027951274,-0.025704276,0.012975067,0.026340898,-0.011014415,-0.02782309,-0.0046559786,-0.023013214,0.02797049,0.030490968,0.016822398,-0.03243706,0.0035926178,-0.037935518,-0.0048851273,-0.021571107,0.0043702135,0.0132942,0.020341612,-0.0011108095
2,0.054366287,0.041020956,0.0095759,0.014946094,0.00012767242,0.0050126035,0.046071213,0.012714654,0.017357467,0.027562182,-0.009491935,0.020756897,0.022574821,0.031993814,0.03998324,0.032297704,0.025528166,0.012586558,0.030193288,-0.008219156,0.0026760472,0.04340561,-0.009394331,0.026958607,-0.013307981,0.036870334,0.03631254,0.03022224,0.057624575,0.024050437,-0.0030473082,0.03785457,0.04054847,0.054106746,0.027414856,0.015935991,0.031105924,0.036328178,0.008481926,0.0076217335,-0.0401666,-0.010147569,-0.03367494,-0.0647306,-0.077290386,-0.051205322,0.011504456,0.006165375,-0.029000184,0.00048050523,0.02006577,0.05253491,0.030771464,-0.013576247,0.015015943,0.0066862465,0.010686874,0.025161985,0.019564379,0.054150198,0.02206296,0.028267305,0.009174249,0.03567009,0.03292348,-0.022802467,-0.060961783,-0.07638123,-0.07869262,0.19979407,0.036953185,-0.12524219,-0.1617496,-0.08058954,-0.030440498,0.07218895,0.010746188,0.020040886,0.024565298,-0.017816136,0.0015241688,0.007097469,0.05077422,0.037306633,0.027026992,-0.012877548,0.0056291143,-0.01811928,0.012867742,0.04264776,-0.02675895,-0.043621488,-0.11001782,-0.1494674,-0.07864117,-0.2231583,-0.25592166,0.019703833,0.099100925,0.041234627,0.051653173,0.10903948,-0.04999642,0.023829415,-0.06381772,-0.0010205196,-0.00042190042,0.009791657,0.019431284,-0.0007649261,-0.011153663,0.014903331,-0.0011581755,0.0060737017,-0.00055684557,0.013757078,0.0025727008,0.00946545,-0.08360327,-0.091285475,-0.12260159,-0.05692492,-0.086100966,-0.20494354,-0.11699929,0.033679534,0.020388432,-0.0016771639,0.020843105,0.0024981885,0.030905638,0.04396251,0.053822383,0.15381691,0.15897326,0.045474008,0.028474253,-0.013109602,0.01221433,0.03648248,0.019567389,0.033656094,-0.012447447,-0.004650223,-0.08343377,-0.081288576,-0.17550954,-0.2607636,-0.18894628,-0.08942144,-0.019848282,-0.029562216,-0.05094176,-0.07549072,-0.14769417,-0.1531456,-0.026895346,0.015523218,0.13234742,-0.03688848,-0.1130769,-0.05805903,-0.021719696,0.088678375,0.11287566,-0.058584783,-0.0070396136,0.027838495,-0.0028157756,0.020380743,0.033629667,0.028957417,0.016450314,0.019890497,-0.22339636,-0.18753101,-0.014122225,-0.05600516,-0.14065582,-0.085754365,0.07776936,-0.0066423593,-0.04201403,-0.10282837,-0.13118987,-0.0037861157,0.082225434,-0.04896952,0.15100156,0.07004174,-0.039606124,0.04804367,0.046609018,0.036294907,0.041551244,0.006731526,0.052578885,0.000840607,0.07206563,0.05848015,-0.023700617,0.033258695,-0.097612046,-0.13400368,-0.09285223,-0.017920028,-0.088026896,-0.07331637,0.11414331,0.06838847,-0.0012855236,-0.055455215,-0.06685872,0.06602163,-0.022975167,-0.035351872,0.13802013,0.06846693,0.1246927,0.16067602,0.023443554,0.05378222,0.054029174,0.04074391,-0.0042587924,0.051696923,0.028612942,-0.050634444,-0.02329586,0.10879753,-0.026644912,-0.010765893,-0.043327525,-0.09706251,0.019363075,0.04458603,0.106425725,0.082593866,0.059069715,-0.05494508,-0.027503677,-0.09252116,-0.02007322,-0.16263859,0.0772212,0.025769923,-0.07063176,0.033298675,0.09954317,0.059545062,0.007041804,0.036578644,0.0033993782,0.0039416477,0.034533247,-0.051509827,0.088811606,-0.09193638,-0.15250427,-0.08919136,-0.00034212193,0.004889632,0.0028792522,0.14445859,0.12682207,0.01355009,-0.017114842,0.016654395,-0.13233161,-0.19836776,-0.025253687,-0.16149253,-0.061069436,-0.03841544,-0.13725014,0.063356094,0.0971176,0.08032969,0.020617517,-0.010200506,0.04612818,-0.0017564604,0.117682315,-0.016329948,0.081351586,-0.057758883,-0.22297633,-0.15884139,-0.026064262,0.1011507,0.06842555,0.11879636,0.058655605,-0.16559795,-0.12309256,0.07579688,-0.027077915,-0.15432644,-0.14030375,-0.13335487,-0.23588796,-0.03965665,-0.13782142,-0.17696686,-0.02507789,0.05697859,0.032547813,0.028773341,-0.013109203,0.05006226,0.06251351,0.08723303,0.0027893598,0.03409325,0.0030943973,-0.14216584,-0.10149319,0.031558275,0.063607335,0.027096428,-0.047999654,-0.2211351,-0.14716704,-0.03288748,0.12628031,0.05444759,-0.09239474,-0.121523395,-0.2536741,-0.05288677,-0.19786125,-0.20708367,-0.1749672,-0.08791889,0.019920586,0.0012957952,-0.0013587688,0.0320143,0.07327044,0.028912531,-0.0546274,-0.20039763,-0.03245449,0.051374324,0.12647887,-0.023482077,-0.05021076,0.041494787,0.071914986,-0.113413565,-0.19119401,0.10654143,0.15857744,-0.037792847,0.09626416,-0.14910279,-0.14117095,-0.051796716,-0.1161984,-0.18739487,-0.1422034,-0.034339387,-0.012800341,0.011808119,0.012034738,0.0037094206,0.040009122,0.016388725,-0.04038965,-0.18179953,-0.06886025,0.05066267,0.11700455,0.012298899,0.066290975,-0.08359762,-0.032305196,-0.25009242,-0.16929,0.013351514,0.066091135,0.003985985,-0.01708885,-0.19578153,-0.046857942,-0.028597344,-0.18450941,-0.1574554,-0.16052704,-0.027722578,-0.01727904,-0.018214326,0.021230053,0.007939364,0.025731543,0.1029373,-0.053794157,0.011029182,-0.07725698,-0.038536083,0.12988372,0.03645457,-0.025605269,-0.019734316,-0.08175779,-0.2823071,-0.15067993,-0.09863156,0.06122683,0.020157216,-0.11471619,-0.10593274,0.09163691,-0.0063742404,-0.028926471,0.025533043,0.06507886,-0.033653945,-0.026595393,0.04977149,0.031122293,0.047420673,0.06664656,0.13346413,-0.0688548,-0.09653414,-0.07764695,0.084003806,0.10228657,0.013068618,0.032161016,0.115969054,-0.10573973,-0.24524286,-0.16900027,-0.048584096,0.13441312,0.15093252,-0.042131666,-0.14185774,0.11507326,0.10115719,0.09082056,0.09940693,0.076290295,0.0049321176,-0.019052899,0.012994694,0.04338849,0.030028306,0.04451136,0.047226507,-0.082957126,-0.092073105,-0.054934543,0.068641566,0.12929933,0.080806695,0.07102904,-0.092187226,-0.1938869,-0.29026327,-0.104700945,0.25611085,0.3406763,0.24020971,0.06748397,-0.10016338,0.078337036,-0.023105359,0.025041264,0.07570999,-0.02261656,-0.06894594,-0.11630432,-0.015290033,0.038495388,-0.0018414309,0.011827285,-0.022312174,-0.06480537,-0.11860341,0.1584904,0.13302995,0.06498754,0.1110488,0.09360761,-0.110757664,-0.31045386,-0.32615697,0.13930334,0.43628412,0.30810085,0.21222124,0.07088596,-0.17621258,-0.039661493,-0.06458839,0.1887869,0.174955,0.093951344,-0.14158784,-0.048877977,0.031951386,0.016491668,-0.005361256,0.07574805,-0.020851225,0.010379519,0.01782602,0.17309897,0.14736089,0.04980489,0.094063714,-0.11339528,-0.19106844,-0.25799915,-0.09325069,0.33229646,0.36602935,0.15828067,0.17936079,0.09254879,-0.025978338,0.10417628,0.11792106,0.13457398,0.21415792,0.015362324,-0.1546793,-0.029138558,0.0029914114,0.043433864,0.03948169,0.07757444,0.10030384,0.06343635,0.05846719,0.040106434,-0.0530307,0.08721484,0.09136039,-0.1058865,-0.164967,-0.17187513,0.038415432,0.31596377,0.32746094,0.07172934,-0.017228886,0.027273644,-0.0113419285,-0.030360248,0.02759726,-0.057423647,0.15207149,0.1268207,-0.12080516,0.00104858,0.053264383,0.010194814,0.023757942,0.06989362,0.06218956,0.13751802,0.09087515,0.06671436,-0.12477208,-0.034498032,-0.119455576,-0.25083134,-0.25644088,-0.16543266,-0.002143755,0.25715932,0.22368838,0.12061762,0.16407649,-0.0060278187,-0.0033331218,-0.12790854,-0.12206038,-0.09288105,0.010800849,0.08595452,0.0038818775,0.035835836,0.02517813,-0.0047411225,0.0014583818,0.0060755825,0.043459482,0.07241008,0.13428758,0.02621763,-0.198015,-0.05125064,-0.15753701,-0.26162443,-0.25529125,-0.029537786,0.20568162,0.2703762,0.145162,0.18149492,0.23987755,-0.07826122,-0.06663445,0.066175595,0.13258758,-0.08767672,-0.04777587,0.016107744,-0.0041134525,-0.02548144,0.05598638,0.053226586,0.003327006,0.07243954,0.0037070927,0.037319977,-0.050400563,-0.17188352,-0.18457478,-0.098992854,-0.14771245,-0.24663499,-0.2060379,-0.050636362,0.19921829,0.22125752,0.15982677,0.23176645,0.13367864,0.036747064,-0.048392154,-0.09448,-0.06447375,-0.14716205,-0.048432957,0.008412233,0.06571486,0.04720455,0.04133461,0.036959495,-0.008336106,0.043444593,-0.026797634,-0.04854787,-0.094638415,-0.07888799,-0.1989131,-0.25130793,-0.29545203,-0.30603334,-0.3450156,-0.111621164,-0.036200184,0.042073827,0.07794983,0.11611213,0.092102654,0.04674126,0.03987597,-0.13286772,-0.16185966,-0.17441007,-0.05770897,0.015751125,0.06373724,0.039318774,0.03762659,-0.0063841846,0.025870968,-0.014628973,0.032180626,-0.0438626,-0.08195873,-0.061821584,-0.19203003,-0.3486517,-0.45171586,-0.42662856,-0.22716212,-0.14597355,-0.026413817,-0.06891684,0.22046714,0.20026317,0.1669983,0.039781783,-0.057655085,-0.15946455,-0.1828383,-0.08506626,-0.04110191,0.04657905,0.016191512,0.0059959954,0.025272947,0.04359552,0.012145752,0.015771167,0.05247711,0.034012724,-0.03937645,-0.08748154,-0.15973532,-0.14307761,-0.24853441,-0.35284185,-0.08711778,-0.0849771,-0.1512006,-0.007376656,0.11466901,0.1361398,0.08599481,0.09975571,-0.061925694,-0.13543767,-0.013877482,-0.009214455,-0.0019221967,0.030523747,0.039658595,0.05537113,0.0015542444,0.015312631,-0.001747313,0.031017486,0.0079516135,0.013960367,0.019008275,0.012113353,-0.018516418,0.07485765,0.022625625,-0.08125461,-0.064664744,-0.042317607,-0.11350245,-0.03213427,0.07495212,0.0779467,-0.021535069,-0.032229345,0.07513969,0.07150334,0.075170785,0.030158697,0.031329073,0.0414241,0.049160663,0.009530913,0.008937223,-0.012537435,0.037339706,0.05521593,-0.009439629,0.04448195,-0.008194655,0.030934319,0.017706344,0.037310693,0.004855768,0.031079005,0.045202624,-0.0044819317,0.054329075,0.03740086,0.0020673638,-0.015828133,0.039755788,0.023389563,0.013682582,0.06595932,0.03674395,0.034827445,0.049729537,0.033384908,0.009024752,0.011118278,0.05130859
3,-0.01107035,0.05339353,0.005275417,0.008894308,0.031178584,0.023064815,0.0041767326,0.014171719,0.005927473,0.020999335,0.054608148,0.017695032,0.0380135,0.05002116,0.052637268,0.0053765383,-0.004033801,0.005898159,-0.0059637986,0.055110928,0.021494685,-0.008262388,0.037477884,0.04866315,-0.005995579,0.040152166,0.035672225,0.03124764,0.006987014,0.013694253,0.009929845,0.009725635,0.0063994513,-0.0147862565,0.00768802,0.008193591,0.0066235694,-0.011806893,0.033333033,0.0403095,0.051048707,0.049176086,0.01578112,0.0437997,0.078465946,0.06407625,0.024935868,0.039316088,0.047259923,-0.010303811,-0.017485483,0.050532896,-0.012967178,0.0051962007,0.045107882,0.048196394,0.026645003,-0.0137327155,-0.01495952,0.00029086135,0.034205444,0.04413719,0.04273473,-0.005889097,0.06376733,0.07331763,0.049765017,0.032257374,-0.028187057,-0.059050392,0.04253837,0.048442073,0.07059223,0.14217685,0.0708198,0.009646012,-0.0021543936,0.035579257,0.01773153,0.013052331,0.009259817,0.05386559,0.05342521,0.027671762,-0.010832255,0.0016891172,-0.0125298,0.011525224,-0.0065054405,0.0226227,0.044288307,0.054783486,0.040072683,0.025933871,0.0022822008,-0.017071918,-0.064882725,-0.12593621,-0.16906352,-0.07437413,0.04009886,0.08799422,0.18311973,0.041370645,0.0020027624,-0.013548682,0.013057329,-0.010741503,0.065256886,0.059414975,0.049010094,0.051424604,-0.0033821496,0.019393597,0.022376655,0.02194806,0.019851893,-0.07553209,-0.053820327,-0.088987984,-0.0781636,-0.12838973,-0.15335986,-0.1542457,-0.18251732,-0.2967175,-0.29121244,-0.03687419,0.020277582,-0.03377978,0.046388157,-0.052069623,-0.10486086,0.01889027,0.032385394,0.021603085,0.04675358,0.012873775,0.036102653,0.011207185,0.039793134,0.028134488,0.029597608,0.059385873,0.053720612,-0.042328563,-0.023130234,-0.11210688,-0.19443569,-0.10954323,-0.26195034,-0.34044448,-0.47125673,-0.54046494,-0.64184964,-0.4681732,-0.5033906,-0.4523582,-0.3130085,-0.12542403,-0.06393828,-0.12608832,-0.09552087,-0.032427937,-0.026693383,0.023051547,0.042143974,0.037433162,0.053317983,-0.004125892,0.024324138,0.08080137,0.098228924,-0.08404108,0.03192898,0.048915565,0.07163926,0.07979286,-0.09894212,-0.0014732688,-0.30418298,-0.10232522,-0.15987886,-0.23667173,-0.1476315,-0.009683338,-0.24299638,-0.24214628,-0.19823262,-0.026155038,-0.15194389,-0.1864857,-0.10422668,-0.014267663,-0.022968223,0.0061398637,0.049666647,0.05173431,0.043688223,0.14645265,0.12529944,-0.08489153,0.07298434,-0.020222992,0.14568903,0.03273758,-0.07464779,-0.07581146,0.092122756,0.19820563,0.009877294,0.043259956,0.019962152,0.07911863,-0.06245502,-0.1287235,0.02956936,-0.012653005,-0.09277022,-0.2995619,-0.094513714,-0.059569128,-0.006412675,0.05140664,0.015089785,0.030505387,0.04762837,0.010740295,-0.05166944,-0.20797303,-0.043535054,-0.13100646,0.004294407,-0.038198758,0.16723323,0.32816863,0.27001292,0.25244766,0.114444636,0.040717497,0.020975383,0.14109883,0.019882685,0.075973675,0.012252961,-0.05909308,-0.09151757,-0.115848035,-0.22019193,-0.19113581,0.0077709137,0.045198325,0.033435605,0.0040017366,0.046916775,0.018512158,0.012820492,-0.06274344,0.059860393,-0.14354013,-0.038483888,0.14876306,0.26800615,0.3090656,0.33156842,0.36090267,0.20511004,0.07967516,0.0100361975,0.229509,0.03041333,0.04655008,0.090613484,-0.071075894,0.04288812,-0.22850236,-0.20872386,-0.16311407,0.025587637,0.054795403,0.03894394,0.03701288,-0.010921674,0.06451879,0.06187003,0.007060102,0.18150984,-0.09012161,0.09386463,0.21014969,0.0399134,0.27394158,0.2832237,0.28521654,0.17850092,0.12980981,0.15612862,-0.02511376,-0.052490655,0.062176216,0.0332939,-0.102181025,-0.08779541,-0.13933761,-0.1105292,-0.03438396,0.0674911,0.05779709,-0.0116550345,-0.011491524,0.021251118,0.07028902,0.08684119,0.10787637,0.08266615,0.051246453,0.14734842,0.13268049,-0.04631919,0.23215811,0.049600996,0.23518452,0.27323464,0.18113989,0.055129018,-0.023928858,-0.018997243,0.22098051,0.15249102,-0.09414152,0.046080463,-0.15470397,-0.14052443,-0.020513376,-0.01926329,0.032667078,0.04559012,0.002087473,0.020137314,-0.013991607,0.12304312,0.11299048,0.097583,0.08902637,0.1436492,0.055826247,-0.17859511,-0.19642584,-0.46504,-0.08000692,0.22972772,0.13898613,0.07217293,0.04566216,0.0030144053,0.07166447,-0.04356719,-0.101919174,-0.04336355,-0.15993404,-0.13210008,0.08579178,0.102440454,0.014960888,0.022827642,0.00076651934,0.05088366,0.0124278,0.026453944,-0.027468957,-0.02535706,-0.00977262,0.042626355,-0.14977905,-0.26837283,-0.19669944,-0.08700957,0.18805693,0.09612099,-0.05085058,0.09168568,0.09849192,0.00087385,-0.17245585,-0.118638396,-0.03274072,-0.060086206,-0.16336589,-0.04843352,0.054597545,0.06579047,0.020315615,0.03380323,-0.0077977576,0.032659553,0.03511958,0.014487114,-0.27119732,-0.31208405,-0.15806803,-0.14389905,-0.19229908,-0.15748326,-0.0067517273,0.06680029,0.003767769,-0.2003434,0.0013192241,0.049445428,0.071187966,0.07472904,-0.21905549,0.035844173,0.014628004,-0.14057522,-0.04927058,0.0661747,0.03188228,0.03325864,0.009616453,-0.0005102268,0.04235206,0.025776442,-0.054614916,0.08987333,-0.048618525,-0.062557176,-0.14096515,-0.05056945,-0.11227088,0.04971119,0.04600975,-0.026069954,-0.110881194,-0.055030737,0.11347206,-0.014959551,0.11554394,0.06168388,0.028949205,0.059804462,0.13884366,0.0060545644,-0.038334925,-0.053658605,0.052450027,0.014657983,0.041496072,0.02878091,0.017929101,0.009767213,-0.06616319,0.03866302,0.14953227,0.104084566,0.068715505,0.013349782,-0.074891426,0.07217913,0.17580217,0.013933817,-0.09114993,-0.0658993,-0.009563268,-0.17442462,-0.110959776,-0.06215903,0.04267716,-0.1802087,-0.1345011,-0.07852224,-0.11012559,-0.18186504,0.11228069,0.15659183,0.039540112,0.028897595,0.04388233,-0.012430739,0.01590214,0.0022131023,0.14460963,-0.03711251,-0.08533495,-0.14836746,-0.17786045,0.035399083,0.082182385,0.17367667,0.07940118,-0.049267646,-0.01844103,-0.20109542,-0.18607567,-0.2631385,0.032444652,-0.117060654,-0.16708247,-0.13519679,-0.12199156,-0.10179007,0.12728484,0.060588904,-0.0019348199,0.047169138,0.0087309405,0.0010938608,-0.010684898,0.06503139,0.17304723,0.12656236,-0.0019792393,-0.060834512,-0.015049604,0.22175191,0.31528077,0.13709854,-0.045024548,-0.027283052,-0.09762405,-0.21715413,-0.17785065,-0.19307753,-0.01663141,-0.03650688,0.054261234,0.03969222,0.06634166,-0.0014675796,0.05057743,0.040490136,-0.001971881,0.017106766,0.025626326,0.005944936,-0.06504968,0.12141315,0.15329655,-0.115544826,-0.07574313,-0.13303559,-0.07353215,0.031766564,0.16437821,0.036130298,-0.27656886,0.050968483,-0.1149226,-0.07479576,-0.14126085,-0.021791384,0.09787416,0.011655762,0.15569046,0.16021816,0.10136421,-0.024176357,0.11487653,0.013379149,-0.006351096,0.019278575,0.026843648,0.027386088,0.026812831,0.13312334,-0.0014884591,-0.14114223,-0.2238658,-0.18721008,-0.16270012,-0.19320959,-0.21905531,-0.45563775,-0.23099713,-0.05858301,0.0302022,-0.096033335,-0.13267775,-0.0760813,-0.019206738,-0.010153645,0.21138391,0.11528137,0.13095194,0.09176662,0.1442372,-0.01196175,-0.00082238636,0.0055288672,0.05217832,0.039105628,0.034208536,0.115545325,0.11583982,0.005274087,-0.16535996,-0.25230196,-0.30637175,-0.27846882,-0.48849967,-0.5252037,-0.17262745,-0.08307535,-0.05003957,-0.14650488,-0.16696356,0.01427448,-0.042859998,-0.020167556,0.15523688,0.11714231,0.010971078,0.053937856,0.026258979,-0.0055099255,0.052646626,0.031116279,0.054097783,-0.0058380663,0.033864558,0.0488822,0.058369897,0.021423277,-0.143253,-0.16626728,-0.2663186,-0.365751,-0.51662904,-0.15943232,-0.09922318,-0.107602045,-0.12831052,-0.105818644,0.036682572,-0.017987227,-0.19197187,-0.03509583,0.04565743,0.072500914,0.037481442,0.1363863,0.07073296,-0.0074407277,0.007230751,0.048501205,0.026199535,0.020645037,0.03416701,0.032713268,0.079345584,0.11076331,0.1375945,-0.030423962,-0.21275677,-0.16823557,0.001382645,-0.07260582,0.05262415,-0.10901395,-0.04847803,-0.094213694,-0.040628858,-0.034475166,-0.16571012,-0.075374216,-0.030042186,0.04345235,0.096239686,0.15594713,0.026977582,0.01936888,-0.003172995,0.023806686,0.03275567,-0.012021115,0.053431533,0.12804589,0.1655805,0.13077977,0.02075721,-0.035998177,-0.10194672,-0.0012220617,0.008880576,-0.12883222,-0.11032144,-0.15681085,-0.0140086375,0.021827864,0.0951313,-0.02960877,0.06842593,0.15003707,0.11757573,0.046868443,0.14993441,0.03393704,0.04145215,0.032634854,0.05357327,0.04895876,0.042194117,0.0152674625,0.021819767,0.047701336,0.058993254,0.15309939,0.19047067,0.19426534,0.05048885,0.07778231,-0.052726682,0.079445615,0.0021483072,-0.038506936,0.063806675,0.38002485,0.16557805,0.04630314,0.21754056,0.22559832,0.07737953,-0.07032457,-0.008939627,0.03549129,0.033587445,-0.008255651,-0.009899921,0.028394848,-0.01034741,0.0154008055,0.042476516,0.007067329,-0.10514103,-0.04516484,0.096497424,0.09292416,0.009489648,0.20800407,0.16369794,0.24763624,0.36184666,0.5139394,0.28024805,0.18835054,0.15210743,0.20035698,0.14227803,0.18094102,0.14200537,0.049535662,0.0077024894,0.011503533,-0.011314765,-0.0039512264,0.010604583,0.015364557,0.0018849863,0.053679485,0.042593252,0.0029150136,0.040559925,0.007923607,0.055914838,0.073612474,0.0027977384,0.12913571,0.12281749,0.054659702,0.065183036,0.048248034,0.027892418,0.030011987,0.009941196,0.119123966,0.058380947,0.028698355,0.04653174,-0.024568463,0.015182559,0.00317644,0.0140377525,0.017336478,0.032307986
4,0.006339044,0.057778724,0.010351796,0.009367734,0.0029254598,0.014736107,0.03708805,0.025633156,0.022231854,0.042969614,0.034972444,0.02746661,0.05480618,0.04739777,0.062338866,0.031335287,0.036446348,0.0039154617,0.054907046,0.04574915,0.072301395,0.010995356,0.03514699,0.05589409,0.02365167,0.07255191,0.030398268,0.011138682,0.06459771,0.0030104124,0.024722658,0.036629703,0.023889244,0.063669376,0.04577893,0.0261206,0.031412154,0.05816362,0.02871678,-0.00036018674,-0.003295267,0.021789148,0.006428716,0.017368663,0.053257503,0.022248097,0.06381384,0.08799345,0.061242756,0.0701574,0.037948407,0.036274355,0.020208519,0.03637519,0.05182714,0.021159332,0.0045037516,0.0015082961,0.012261486,0.031698853,0.06531994,0.022820193,0.048485443,0.009117758,0.039397195,-0.0119824,-0.08032768,-0.07546285,-0.08592997,-0.10081471,-0.15413682,-0.11939291,-0.068999074,-0.0564245,-0.018693002,0.08221011,-0.008685165,0.007024434,0.011248703,0.0061416435,0.04301995,0.044700004,0.07196651,0.069486715,0.008445757,0.04961084,0.01033651,0.021898618,0.014735507,0.003118561,0.03345192,0.021598443,0.05149621,0.00080292346,-0.16403441,-0.16251868,-0.08398948,-0.08088775,0.1352107,0.014558969,0.024916695,0.1683871,0.23137254,-0.03138742,0.20069385,0.033884663,-0.1267905,0.0398273,0.043515634,0.06853159,0.049076024,0.04803448,0.015326571,0.051022224,-0.068647064,0.029714644,0.024315398,0.06210629,0.0210585,0.0028726559,-0.013599647,-0.16174676,-0.19227904,-0.11257452,-0.044283103,0.2153164,0.009887861,0.13204582,0.13647255,0.15436742,0.016406506,0.0648281,0.109536625,0.070465855,-0.012125584,0.06409023,0.17726009,0.10367319,0.1058339,0.037121464,0.021495659,0.05465337,0.057095863,0.041875564,0.01720526,0.071173005,-0.0039403634,-0.06647423,-0.24569471,-0.24100797,-0.10124979,-0.15555549,-0.14724456,-0.036555707,-0.02381477,0.05294477,0.17946634,0.1682175,0.043939766,0.038317133,0.12622274,0.060379643,0.1282449,0.14087103,0.07857523,0.06237715,0.1107268,0.02806904,0.061638422,0.009829076,0.031026661,-0.011722481,-0.009076694,0.051984243,0.04945711,-0.008604771,-0.0909273,-0.123428226,-0.0139146885,-0.28802735,-0.19289215,0.06543397,-0.0638408,-0.16476724,0.068789184,0.07516858,-0.009380644,0.07339711,0.14368638,0.101199776,0.1705831,0.20553564,0.2973567,0.03845664,0.034373704,5.2774027e-05,0.071549945,0.009854121,0.05034429,0.0034215343,0.010303451,-0.022981862,-0.075275585,-0.11954258,-0.06413448,-0.17231736,-0.113113105,-0.1165368,0.033745337,0.024185708,-0.023644079,-0.018893722,0.022031836,0.030157115,0.13307223,0.0022429572,0.14491133,0.04938837,0.18819131,0.26535594,0.13049334,-0.044032983,-0.040559195,0.06531773,0.038219452,0.021223444,0.008173791,0.0031670255,0.0028124857,0.0038184407,-0.10685752,-0.08105717,-0.12376485,-0.054281477,-0.041553456,0.038540047,0.068107165,-0.058187604,-0.07124661,-0.03451902,0.023978803,0.07251618,0.019909753,-0.12160864,0.09787682,0.2687825,0.2920572,0.13361606,0.15714706,0.119841106,-0.004080093,0.042410612,0.02800643,0.056980304,0.026193421,0.014355502,0.03865559,-0.03218443,-0.09230881,-0.036914624,-0.11410097,-0.025574774,0.05494698,0.08351486,-0.058612205,-0.009607008,-0.06334245,-0.086294815,-0.032141753,0.13697176,-0.12915014,-0.025119342,0.10361518,0.14095968,0.18060446,0.18952699,0.25060433,0.1855385,0.010883162,0.06365381,0.05914235,0.056925625,0.036365684,0.05234304,0.059523456,-0.086700164,-0.09941785,0.026038412,-0.115147606,0.043217827,0.10129156,-0.031819284,-0.11197266,-0.038019672,0.1432797,0.007817461,-0.037704855,-0.064334035,-0.098638184,-0.034817345,0.067345895,0.016675541,0.19168875,0.14854617,0.16448686,0.12524629,0.072102845,0.033039227,0.054052107,0.013904979,-0.025328813,0.041850865,-0.0013965202,-0.13804778,-0.0041427314,0.049575966,-0.1501634,-0.1502103,-0.121651396,-0.076602705,-0.22758119,-0.04928084,0.23211332,0.14158428,-0.019240024,0.14274769,0.09438939,-0.013793283,-0.1088286,-0.0011179963,0.071328655,0.019072467,-0.0111745745,0.069861315,0.12687172,0.030614447,0.05736556,0.04464209,0.034471884,-0.031642444,0.030802442,0.017047437,0.09889616,-0.0494313,-0.13701883,-0.12933594,-0.06955082,-0.15452051,-0.21236306,0.10317322,0.2563961,0.2534733,0.04789098,0.113411464,-0.0419328,-0.024174392,-0.034974836,-0.09756585,-0.056698356,-0.03556718,-0.016648706,0.071568035,0.04833491,0.04067535,0.026912116,0.0018621244,0.0349915,0.032604564,-0.008362333,0.07221143,0.1156552,0.10390697,0.10826845,0.049859725,0.09051907,-0.008220891,0.05766292,0.15933494,0.1498331,0.1486629,0.06365905,0.029793443,-0.102267645,-0.044717375,-0.07892132,-0.1653723,-0.17022459,-0.029694542,-0.052684896,-0.009501464,0.054424375,0.026075441,0.008657382,0.06844335,0.021409206,-0.012745968,0.010597851,0.06742026,0.21596622,0.06787805,0.110764675,0.019123666,-0.041866753,0.05435118,0.084187955,0.11198262,-0.043748684,-0.0748874,0.0028835689,0.11054546,-0.1464895,-0.2838708,-0.07498308,-0.054965604,-0.08219022,-0.083061926,-0.09155967,0.030439395,0.017620683,0.07137925,0.018603778,0.043787323,0.06782796,-0.053799666,0.099291876,0.12791353,0.23252653,0.15340003,0.065727994,-0.025287395,-0.102539934,-0.032122973,0.18103491,0.007819354,-0.07730393,-0.098843716,0.10190841,0.1257459,-0.055920087,-0.21664844,-0.13543719,-0.1452965,0.028584018,0.013377334,-0.01927964,0.012854086,0.038631167,0.022673,0.06247946,0.008021008,0.02462504,0.07578568,0.11492686,0.10933085,-0.017732985,0.042743284,-0.032877468,-0.22548276,-0.13661686,-0.19069715,-0.09541847,-0.16766085,-0.14994892,-0.035137057,0.10052941,0.18281986,-0.037557337,-0.17783798,-0.089867696,-0.23800033,-0.08843296,-0.048987996,-0.030697973,-0.00239799,0.0022778052,0.069479935,0.0106442,0.041511625,0.06741955,0.19023886,0.17882182,0.10259585,-0.059456434,0.07826749,-0.03816684,-0.1414468,-0.18930517,-0.32126057,-0.25459403,-0.1716895,-0.15777396,0.070498556,0.25509068,0.3242066,-0.041482918,-0.19937178,-0.19257018,-0.32697648,-0.20476542,-0.019195316,-0.039303925,-0.08004985,0.0027779962,0.055566035,0.05899162,0.021288816,0.087378636,0.19316414,0.24090724,0.19681099,0.14865395,0.10272919,0.064333536,-0.08359796,-0.17424743,-0.14587712,-0.14113586,-0.116449006,0.08730939,0.21266995,0.22601649,0.15457311,-0.1447758,-0.40314052,-0.5032837,-0.26276362,-0.13430935,-0.045062695,-0.04884213,-0.035843,0.024845324,0.025306895,0.04763338,0.07184489,0.071544334,0.05994314,0.17887948,0.3507917,0.24779354,0.13971463,0.05027425,-0.011489911,-0.08174922,-0.16359612,-0.1765866,-0.009236981,0.23448567,0.1123564,-0.008941181,-0.026757067,-0.14342475,-0.5126891,-0.463398,-0.25884634,-0.14947082,-0.050969172,-0.061808206,0.01844658,0.052759804,0.062464632,0.048199996,0.06006725,0.036631055,0.057281367,0.017606832,0.28892866,0.15262607,0.01695781,-0.042321246,0.10400623,0.07160438,-0.043464,-0.057702027,0.113947436,0.15296161,0.005322111,-0.19769233,-0.27974465,-0.5859564,-0.5786755,-0.3264819,-0.17889996,-0.13495865,-0.053107064,-0.040162235,0.02666084,0.004250688,0.06447995,0.035920978,0.047088698,-0.030656746,0.0077130403,-0.1518773,0.06286948,0.11982958,0.103908725,0.06750172,0.09339642,0.11474438,0.1452054,0.17076862,0.1564948,0.05326676,-0.18532872,-0.2646078,-0.4714952,-0.48396167,-0.332055,-0.19290558,-0.10690546,-0.0885361,-0.049808484,-0.038319442,0.040265445,0.017378254,0.0712936,0.02454869,0.055937,0.027102694,0.046678428,-0.031080581,-0.14242682,0.1809244,0.014218106,0.14319223,0.22456864,0.24722466,0.14673388,0.079251334,0.09047145,-0.08969261,-0.33761036,-0.5271184,-0.4330767,-0.3279168,-0.16103455,-0.08172645,-0.056740575,-0.03560737,0.0088477675,-0.03391849,0.058672354,0.067025214,0.027623337,0.056880504,0.04188203,0.054674845,0.059294704,0.0768737,-0.10919706,-0.054593466,0.022027463,0.15550457,0.04846635,0.04172438,0.02089519,-0.16879508,-0.23110615,-0.3301045,-0.4162727,-0.43003583,-0.2853625,-0.11089481,-0.066639245,-0.01870078,-0.02141988,-0.0183565,0.020793105,0.07030495,0.05011303,0.046771273,0.021931637,0.054334633,0.019280134,0.07531766,0.0785941,0.062202893,0.03174327,0.026461622,-0.18770392,-0.17239578,-0.12801163,-0.21606028,-0.2490847,-0.2989554,-0.4564884,-0.46614623,-0.17566794,-0.080362715,-0.07527523,0.012432126,-0.026004374,0.036600254,-0.03822582,0.016043328,0.039995063,0.025643215,0.03454189,0.051619932,0.021494988,0.024898034,0.031789355,0.046448052,0.029637678,0.008146071,0.041034628,-0.08186524,-0.14130762,-0.22344308,-0.19105086,-0.2891306,-0.3627086,-0.4581815,-0.22752424,-0.041020054,0.07321514,0.07324879,0.00021769162,0.015188051,0.010728176,0.07156575,0.05810034,0.06530009,0.027948264,0.0065213367,0.013309105,0.053264394,0.019443534,0.031536132,0.053717002,0.021682493,0.043801814,0.044928342,0.048718262,0.013295498,-0.055465337,-0.10966249,-0.048286676,0.020239534,0.110981,0.052758846,0.026362468,0.14919704,0.092956915,-0.0020366993,0.035843,0.0072504617,0.007145637,0.01980287,0.023902256,0.02520578,0.062973015,0.05272235,0.0705798,0.058543637,0.061518095,0.05726167,0.05441916,0.003565403,0.030932944,0.057176363,0.026026044,0.049285177,-0.00045213534,0.06840456,-0.00436024,0.038824335,0.018023545,0.013152886,0.027215222,0.013795378,0.050543234,0.032391913,0.008060803,0.06771954,0.06544469,0.027617287,0.06842128,0.036756404,0.02195489,0.024734143,0.022080678,0.06713809,0.057503574
5,0.043384325,0.02459291,0.03063936,0.031451326,0.01444717,0.05996545,0.02568143,0.0001427748,0.04723562,0.053905647,0.020759623,-0.0072262352,0.04756866,0.039355367,0.040194042,0.022454746,0.049303006,0.06129507,0.0207339,0.03376517,0.052177165,0.037049837,0.02326794,-0.0061048567,-0.0053790826,0.0031654057,0.01301651,-0.003593442,0.05875243,0.028825557,0.02153929,-0.0015221168,0.042709928,0.0009526407,0.01868407,0.04186627,0.055437446,0.0019188162,0.05200088,0.017962698,0.02856554,0.04029684,0.06338264,0.06585334,-0.0016443019,0.027187271,0.052576832,0.00974819,0.05687605,0.020991756,0.06230631,0.015646826,0.03149543,-0.008891707,0.03119623,0.04220428,0.057023246,0.03776904,0.031611435,0.043012533,-0.007542952,0.012926918,0.029122287,0.05963305,0.05661233,0.027043687,0.024581026,0.08258881,0.0022312484,-0.10115275,0.039439846,0.036687683,0.030296909,0.052409332,0.05637314,0.051849544,0.011282073,0.026318036,0.060388178,0.035329908,-0.0052119307,0.012080678,0.05728014,-0.0001483591,0.061423805,0.042847965,0.051381692,0.0044899024,-0.006315652,0.014773867,0.069970995,0.04678364,0.07767147,0.15336622,0.057445288,0.105197676,-0.05094734,-0.16517918,-0.03855018,-0.027285108,-0.077332,-0.17707151,-0.27091298,-0.0407324,-0.05089667,-0.06929747,-0.056648403,0.02456901,-0.009036463,-0.005209636,0.01582714,0.02552843,0.044736322,0.05852427,0.05766961,-0.009232651,0.040193282,0.034714635,0.061840896,0.03735931,0.13129675,0.28152242,0.226242,0.013954046,-0.031864066,-0.110280246,0.0075481683,-0.21401684,-0.025030872,-0.009380877,-0.2795158,-0.08595582,-0.05663097,-0.12289573,-0.16577083,-0.06642053,-0.038173404,0.037105735,0.008089315,0.04646319,0.006198593,0.030476784,0.017099133,0.0144779505,0.053908084,-0.058474775,-0.02403955,0.026031477,0.22434424,0.14141321,-0.08358144,-0.09127084,0.12099465,-0.0031759308,-0.0868943,-0.19418164,-0.08086259,-0.013872123,-0.054971687,0.002653815,-0.052531373,-0.018207671,-0.04578297,-0.066961825,0.04770607,0.105698764,0.09846348,0.07187197,0.058882277,0.008037162,0.012359067,0.019623335,0.10156812,0.08937283,0.009916227,0.03770471,0.12773946,0.043402445,-0.13115948,0.08282945,0.14618953,-0.042837765,-0.19965251,-0.19716674,-0.22550315,-0.04743251,-0.04605762,0.08943005,0.06882131,0.10305543,0.037497405,0.21236004,0.100014225,0.10882891,0.036953647,0.04889799,0.026164016,0.0234766,0.066329524,0.09924807,0.14001499,0.23577201,0.0013721312,0.14412189,-0.023046678,0.020330897,0.11663212,0.13153872,0.0033036543,-0.16002174,-0.3134566,-0.12998638,-0.19701888,-0.10246927,0.07202726,0.051293947,-0.056573253,0.055276737,0.068164445,0.17700712,-0.07815633,0.014054296,0.057690516,0.049675286,0.02459099,0.04296389,0.07180423,0.058020342,0.08594197,0.21087272,0.12843387,0.33870926,0.13233149,0.059808984,0.010142051,0.021018157,0.114805065,0.058281403,-0.115694016,-0.14425285,-0.18304105,-0.0620293,-0.011045694,-0.045402862,0.055899996,-0.08491975,0.05752439,0.1087514,-0.11117161,0.01019597,0.10410541,0.028518775,0.052947048,0.0015146517,0.02948779,0.016849332,-0.038267437,0.04198806,0.036157638,0.07545366,0.1373641,0.008272857,-0.0954577,-0.048360758,-0.05341833,-0.06558624,-0.058028705,-0.08301509,-0.04684019,0.054100357,0.061662238,-0.093790956,-0.025772326,-0.027231956,-0.0152426595,0.16802712,0.06441258,-0.03838404,0.02850827,-0.025199624,0.058382217,0.053784944,0.025251385,0.010185668,-0.08211741,-0.07622492,0.033259798,0.01153225,0.022325723,0.08309971,0.09380229,-0.04161233,-0.1727787,-0.15072306,-0.2375909,-0.1180514,0.04518729,0.08451325,0.00752322,-0.12518793,-0.082469314,0.080360316,0.11852802,0.12047993,0.1424225,-0.083026335,-0.020270094,-0.004892725,0.062069442,0.02209582,0.009840334,-0.0023529984,-0.027211437,-0.019706884,-0.005096124,0.10356274,0.08475072,0.20064968,0.14798936,0.065760836,-0.02774739,-0.09863099,-0.13344842,-0.03371674,-0.024006924,-0.0059928563,-0.18677339,-0.056999322,0.015972676,0.06856981,0.09710411,0.12848623,0.04429916,-0.0023614164,-0.0057287607,0.0032415204,0.05090652,0.007086077,0.0035336977,-0.006433779,-0.08144244,-0.11579837,-0.1509498,0.048619285,0.14995304,0.069041565,-0.04409987,-0.078704,0.008738745,0.03842954,-0.031515986,-0.03446511,0.019341478,-0.06760082,-0.16591124,0.0007096783,0.119792335,-0.0077279094,0.1129416,0.042877547,0.20793185,0.06450206,-0.01963248,0.052393313,0.022484347,0.049821194,0.038599025,0.030071195,-0.17571329,-0.10381677,-0.05837785,-0.12034894,0.035315108,0.1351155,0.019914687,-0.14459752,-0.16601524,0.07106205,0.053864032,0.060662273,0.017054133,-0.08424156,-0.078705035,0.16536358,0.11356892,-0.007528842,0.09679,0.11877549,0.09817421,0.04071828,0.0040525943,0.038162984,0.021915227,-0.005861366,-0.0005984986,0.085878156,-0.09101929,0.060102493,0.13641657,-0.02351141,-0.0125946095,-0.16317327,-0.16688389,-0.18306081,-0.19310562,0.09663095,0.20896439,0.09961615,-0.063087136,-0.16216777,-0.057040993,0.27297392,-0.036035318,-0.07397766,0.06052617,0.09273186,0.06379587,-0.03082691,-0.016315255,0.044594716,0.047572482,0.017862968,0.055139963,0.05799939,-0.067494795,0.052948408,0.0670585,-0.0428358,-0.10711158,-0.37422967,-0.3139846,-0.08315798,-0.13021575,0.10480219,0.20843224,0.09740222,-0.13898605,-0.042793036,0.044152062,-0.011087709,-0.03906267,-0.24483009,0.034710042,0.146942,0.1037953,0.06670027,0.039184686,0.00030766646,-0.005463917,0.0124479635,0.049183086,0.038314715,0.0134484535,-0.015182959,0.030424587,-0.18971528,-0.29043964,-0.45109895,-0.25299484,-0.14663076,0.016153272,0.10495218,0.046870492,0.052602947,0.105614,0.13416967,0.10338418,-0.034555666,-0.23672749,-0.14766172,-0.11187059,0.14017923,0.02028573,0.09025102,-0.006264353,0.0141780395,0.057849858,0.04764915,0.0024733143,0.050342243,-0.002682614,-0.07695754,0.0035982926,-0.19149868,-0.45036477,-0.40689358,-0.19846235,0.14947401,0.37350503,0.23244488,0.11923369,0.025006011,0.17621371,0.13050587,0.1408666,-0.057366617,-0.06379312,-0.011274804,0.03368703,0.0887222,0.1192069,0.062070698,0.0072617424,0.038395487,0.0018244833,0.05953527,0.0392291,0.030972375,-0.019198982,-0.0812496,-0.117939316,-0.23375031,-0.29295832,-0.2679076,0.014415047,0.28274158,0.47198373,0.34097794,0.06619496,0.022399219,-0.057666175,0.114408396,0.06831785,-0.0077522714,-0.057469018,-0.10347141,-0.12151262,-0.097289465,0.061015297,0.064734824,0.0028255163,0.058189437,-0.0030388976,0.056149874,0.016731102,0.051346235,-0.0646567,-0.26321262,-0.30402783,-0.42785206,-0.2847294,-0.23739347,0.22595455,0.33975273,0.4415316,0.24745858,0.073287055,-0.15588461,-0.111979745,0.029670913,-0.047789272,-0.09105935,-0.10313465,-0.2249522,-0.24020423,-0.16201918,-0.05041168,-0.054009777,-0.004404322,-0.007755645,0.000573115,0.060528666,0.036471866,-0.01417619,-0.18848382,-0.3277516,-0.38341302,-0.30574843,-0.14448896,-0.12170493,0.27795783,0.34191266,0.36742496,0.187358,-0.071504585,-0.0558872,-0.11291109,-0.08793109,-0.102363095,-0.03825672,-0.10820363,-0.19464341,-0.08656737,-0.13786858,-0.0029490646,-0.011099766,0.029685158,0.00025537133,0.031642262,0.0280198,0.031389486,-0.013351077,-0.14137428,-0.31945077,-0.45396212,-0.4166221,-0.05623294,0.058025878,0.017018845,0.11876061,0.14572345,0.101362355,0.021883452,-0.05453492,-0.18451814,-0.07822747,-0.10604094,0.04711724,-0.13214883,-0.08030516,0.06781006,0.04249098,0.008855344,-0.016175903,0.012389185,0.0023883474,0.055043593,0.048821643,-0.00038613996,-0.01725419,-0.10371722,-0.22243857,-0.38841155,-0.27800775,-0.1824056,0.054892946,0.09457508,0.025516134,0.13593118,0.22006756,0.059897717,-0.026032776,-0.13546349,-0.21908516,-0.13464299,-0.012752684,0.004980712,0.026796734,0.016210949,0.02618612,-0.025768891,0.014382851,-0.010008279,0.0037234486,0.034343768,0.01946334,0.06178657,-0.028261296,-0.052589588,-0.14214572,-0.17668618,-0.29081053,-0.17978495,0.16826475,0.040481307,0.08072682,0.21582541,0.2150041,0.13233484,0.012834329,0.027402032,-0.16098459,-0.08223972,-0.03419492,-0.044261456,0.10208258,0.08821883,0.032353867,0.01704743,0.042173516,0.025980756,0.028229946,0.03647278,0.007695525,0.0014389432,-0.043824084,-0.10120668,-0.09813593,-0.10906853,-0.43113026,-0.4251685,-0.1710634,-0.0913114,0.10487288,0.22489995,0.30903903,0.2623253,0.15181373,0.18128414,-0.17052665,-0.07674454,-0.05049973,-0.02537,0.0069410177,0.15033254,0.068775736,0.029579643,0.031109413,0.05609958,0.055826183,0.012799379,-0.008192652,0.04783006,0.050368845,-0.025792675,-0.08143391,0.078769304,-0.033847578,-0.36537626,-0.3844048,-0.22977543,-0.0051296717,-0.09148959,-0.06748115,0.06746951,0.14639674,0.023516167,0.10686328,0.019824293,-0.14333391,-0.022097474,0.042220555,0.045022473,0.040608563,0.05166882,0.062399466,0.048174452,0.031250246,0.059070405,0.014738342,0.061310522,0.045688264,0.0063113812,-0.05083644,-0.03741158,0.029583486,-0.0019383212,-0.07694392,-0.28978765,-0.21852364,-0.0661363,-0.041748844,-0.1934798,-0.17117868,-0.10300321,-0.052415956,-0.12231456,-0.115975395,-0.056130014,-0.013066364,0.04739617,0.05649548,0.027403006,0.004489479,0.018017124,0.03495417,0.045748133,0.044189837,0.030945428,0.035269823,0.0072603705,0.005027197,0.04553763,0.036315624,0.025797023,0.009453419,0.041153885,0.0057499525,-0.0005094063,0.040838882,0.04555518,0.055762447,0.038109016,0.046315245,-0.04041172,0.021374648,0.041634034,0.0427785,0.03212775,0.014093192,0.05409148,0.016900644,0.013869123,0.050540704
6,-0.025367834,-0.044911243,-0.017223082,-0.009587217,-0.016410133,-0.011086866,-0.035524897,-0.0016423884,-0.031769067,0.003770333,-0.030284656,-0.011668347,-0.0034930229,-0.03879439,-0.01802193,-0.035722576,-0.03189955,-0.053166866,-0.01547542,-0.019061819,-0.038153246,-0.0068350406,-0.025806583,-0.037596382,-0.010702247,-0.04717759,-0.03380152,-0.008062744,-0.040974744,-0.045351103,-0.05488655,-0.047003604,-0.008970868,-0.008843042,-0.025333613,-0.03390181,-0.033439487,-0.05340424,-0.030791275,-0.019427236,0.002207339,-0.00011198821,-0.004572339,0.0040470012,-0.011831189,-0.050807975,-0.03142262,-0.008731075,-0.020132188,-0.045295164,-0.04954438,-0.06136339,-0.025724698,-0.035198875,-0.0004086705,-0.05398745,-0.054413624,-0.044025026,-0.00730667,0.0033499955,-0.001575933,-0.009197775,-0.051809877,0.0067956694,-0.036699418,-0.039886974,-0.068942375,-0.041060474,-0.06544739,-0.073445536,-0.07884186,-0.078940526,-0.0032540997,-0.048704494,-0.025959438,0.005603964,-0.019380238,-0.044319965,-0.03946051,-0.054702885,-0.049643725,-0.06364957,-0.052988343,-0.048103742,-0.0010101283,-0.007580639,-0.011861496,-0.055994518,-0.0527413,-0.006417742,-0.019893263,-0.009838309,-0.033193205,-0.11436558,-0.117983095,-0.1244133,-0.06615029,0.1594599,0.12255871,0.14532723,0.158902,0.05791682,-0.034856413,-0.005168887,-0.025605705,-0.10499103,-0.091044515,-0.09225537,-0.052354947,-0.035478607,-0.057671875,0.00066524016,-0.043852255,-0.014939178,-0.025647055,-0.04432755,-0.013307239,-0.01406109,-0.051110804,-0.036079776,0.11333918,0.06536765,0.040768277,0.07055608,0.030469706,0.07952772,0.09460553,0.21146104,0.27090356,0.12687607,0.18927112,0.15140207,0.12287586,0.010731496,0.04027579,-0.0019723591,-0.01995889,-0.033605233,-0.061124846,-0.039323978,-0.017844912,-0.007788086,-0.039315894,-0.024944643,-0.028103646,0.02056616,0.058119293,0.20025039,0.3111472,0.15107279,0.13787627,-0.01995254,-0.07090444,-0.024025794,0.03943383,-0.2196793,-0.014377214,0.0719993,0.04975284,0.034664627,0.06612008,0.04743523,0.12090577,0.10583164,-0.008511581,-0.068695426,-0.0049348157,-0.041271053,-0.062019207,-0.04773604,-0.009472037,-0.036054343,-0.041006528,0.07965034,0.10606538,0.17402631,-0.081991434,-0.07979986,0.11290222,-0.026803477,-0.060160138,0.035166036,0.13912949,-0.0045696506,-0.12564519,-0.03239905,-0.01828819,0.0649037,-0.042310286,0.10582325,0.11833318,0.08879829,0.067754075,-0.056198012,-0.03755903,-0.05782544,-0.054590635,-0.042485513,-0.013898389,-0.06360052,-0.12198217,-0.09623126,0.12861905,0.07774252,-0.10789214,0.22739477,0.18229651,0.20801453,0.07454615,0.01472706,0.021017509,-0.018278195,0.13677645,0.0055904295,0.08420331,0.11041657,0.09301686,0.020924589,0.04079747,0.017758831,0.10363883,-0.08275808,-0.03283035,-0.013835255,-0.042114504,-0.008162499,-0.049047116,-0.084168755,-0.1954881,-0.18742362,-0.1443955,-0.018589014,-0.0073914286,0.14360438,0.22459394,0.2779367,0.27047163,0.11233034,0.0635584,0.15145648,0.09872424,0.083753124,0.14623733,0.03844881,0.04058347,0.022886094,0.18694806,-0.051234808,0.13850427,-0.045961272,0.012085831,-0.0587862,-0.054630987,-0.047581352,-0.05184837,-0.088980325,-0.07894132,-0.12074638,-0.026902216,0.021600114,0.015578353,0.16764504,0.23143193,0.23540069,0.23041643,0.07176973,-0.08505865,-0.0632424,-0.1828512,-0.2226631,-0.00029000867,-0.015217397,-0.11144154,-0.07002159,0.14728703,0.01980875,0.18492831,0.03882306,0.012957198,-0.0036040242,0.0030459522,-0.061282314,-0.049844433,0.006475039,-0.009166164,-0.13508752,-0.0789466,0.014654443,0.061009135,0.19183896,0.29829553,0.24303603,0.24997188,-0.23694022,-0.49518046,-0.30045027,-0.34289226,-0.14976051,-0.07374411,-0.04003664,-0.09268903,-0.06721796,0.0010609231,0.0609431,0.15354137,0.08951781,0.0057978528,-0.011734811,0.0017438497,0.011659882,-0.017928576,0.011164464,-0.014130764,-0.08009223,1.25636325e-05,-0.039155703,-0.021910073,0.07789854,0.23334225,0.11853181,-0.046358258,-0.4781634,-0.42860392,-0.17286596,-0.15301242,-0.0638623,-0.042886004,-0.31998584,-0.3134704,-0.24585669,-0.06257959,0.1674202,0.2585515,-0.0074968725,-0.012597835,-0.01688505,-0.048296988,-0.035657473,0.023234686,-0.04303133,-0.0397602,-0.022477245,0.18486266,0.14752425,0.15755415,0.28709656,0.20173824,-0.0061247605,-0.21515098,-0.41223913,-0.21370748,-0.14964673,-0.13025235,-0.11566011,-0.020625262,-0.42145076,-0.20038842,-0.273991,-0.15600678,0.10059742,0.10481818,-0.08357512,-0.032060787,-0.02276817,-0.05851204,0.0041971845,-0.01639449,-0.02869341,0.026174372,0.03824075,0.18551356,0.15543297,0.12726502,0.14316854,0.0866444,-0.11280012,-0.2862868,-0.14928575,-0.13589029,-0.23721902,-0.26728606,-0.10571498,-0.23583686,-0.28413534,-0.17641951,-0.10884245,-0.16738793,-0.09784572,0.09221456,-0.015541938,-0.057728406,0.0023402686,-0.021657567,-0.05222046,0.014333163,-0.01890601,0.059433207,0.11734102,0.1004496,0.10338647,-0.0048704445,-0.022938719,-0.12716068,-0.1958201,-0.37055928,-0.23156425,-0.10455055,0.006091239,-0.13670683,-0.19518046,-0.30031,-0.2581434,-0.036973067,0.0032244779,-0.06480394,0.07165211,0.081033304,-0.073106684,-0.048028022,-0.05896873,-0.039634556,0.00664537,0.016785113,0.021358894,0.04815616,0.20727971,0.021703783,0.045362707,-0.034629416,-0.062205825,0.0014554837,-0.23944527,-0.37194484,-0.16834016,-0.070408456,0.05575487,-0.12340456,-0.19959293,-0.20653765,-0.2653523,-0.11418285,0.010106354,-0.14288765,0.14620273,0.0106199095,-0.08621594,-0.04257546,-0.04448777,-0.058031224,-0.032927975,-0.004895424,-0.009333682,-0.03304288,0.13779971,0.00061411,0.039049957,-0.097598806,-0.1217654,-0.1279435,-0.34032306,-0.23153776,-0.16331802,-0.055545587,-0.11741399,-0.13859184,-0.14927801,-0.32616612,-0.2204806,-0.11050105,-0.008943107,-0.09234464,0.05744116,-0.01472498,-0.099313214,-0.07364928,-0.011646216,-0.047767088,-0.05226341,-0.0056033684,-0.01791853,-0.06389195,0.11387975,0.015032541,0.14900236,-0.15468392,-0.1279948,-0.053336736,-0.21563216,-0.12542874,-0.38157213,-0.152405,-0.27908194,-0.2618519,-0.25091052,-0.29082257,-0.028801823,-0.01491571,0.06504882,0.048271097,0.11957652,-0.04979872,-0.09149647,-0.041025493,-0.040129915,-0.03493453,-0.04009507,-0.042903535,0.0032497356,0.02009487,0.00072940683,-0.055537112,0.008111122,-0.20326737,-0.20842704,-0.3069934,-0.21326399,-0.13112918,-0.2547312,-0.21208316,-0.32861647,-0.30383494,-0.24845488,-0.10117713,0.11490305,0.18704474,0.1484067,0.0716743,0.06054243,-0.13460143,-0.101804905,-0.04559209,-0.03352931,-0.060567275,-0.015337879,0.019627169,-0.038987704,0.07133052,0.024777818,-0.15275235,-0.032608856,-0.20371631,-0.21753968,-0.34782743,-0.16228683,-0.038509443,-0.2975883,-0.23784566,-0.33435357,-0.21524231,0.00040116967,0.028140903,0.14639865,0.24808809,0.052666858,0.032461934,-0.0030933353,-0.06055472,0.011813841,-0.058437683,-0.03179824,-0.0016563731,-0.0368414,-0.04336625,0.006163477,0.010698706,0.017434157,-0.06851641,-0.014785515,-0.075722426,-0.13616161,-0.3204364,-0.15075144,-0.09308963,-0.026391037,-0.052539624,-0.19215581,0.008075485,0.14400515,0.073427275,0.17595452,0.065752804,-0.05552328,0.09019851,0.1324764,-0.013668537,-0.009653597,-0.027355414,-0.058628775,-0.001411554,-0.032321,-0.05755487,-0.06300773,0.06152117,0.06512157,0.0073387483,-0.058749508,-0.031111946,-0.124714844,0.0403275,0.142223,0.023627188,0.16984804,0.24872707,0.20281644,0.25921968,0.11189824,0.14055826,0.12461194,0.077395216,-0.014907921,0.09495333,0.14645238,0.10492504,0.07552024,-0.052158423,-0.06357428,-0.02606801,-0.053044543,-0.04113388,-0.01428924,0.053331316,0.13843311,0.10316682,-0.06304063,-0.013932854,0.01945939,0.0011530643,0.1334531,0.008156541,0.10899686,0.191719,0.23754548,0.1489588,0.10159208,0.18246643,0.10405901,0.06803633,0.15244728,0.1560372,0.09608542,-0.027066212,-0.0051662778,-0.0526822,-0.045857765,-0.000918477,-0.045675844,-0.03630922,0.013639628,0.08164794,0.047598682,0.14619513,-0.0037243469,-0.01463709,0.16479084,0.16379774,0.07822507,0.13308275,0.15682203,0.12570193,0.056719687,0.02101064,0.11478316,0.077803195,0.15724091,0.0700453,0.101321414,0.020999461,-0.07264788,-0.04211679,-0.06281942,-0.024997707,-0.0039445134,-0.012328956,-0.010290122,-0.0078104376,-0.058772672,0.0007538584,0.07410756,0.07185053,0.15590239,-0.03600306,0.055065494,0.109765075,-0.08234183,0.013972208,0.032533407,-0.046976916,0.058453973,0.020328632,0.2039031,0.24034949,0.08680307,-0.01954194,0.05932702,-0.033183955,-0.06842397,0.023081318,-0.06780773,-0.05859863,-0.029115466,-0.063411236,-0.039783612,-0.050135586,-0.050189584,-0.04694343,-0.066567,-0.01269754,0.070154905,0.15784101,0.15281963,-0.054030698,0.053202588,0.23635285,0.13202287,-0.042834353,0.0032779854,0.061916042,0.077998966,0.053029496,0.13971727,0.04828611,0.06546316,0.09876251,0.027073592,0.0125029255,-0.055286616,-0.018522307,-0.06267971,-0.021908179,-0.012861041,-0.030468915,-0.061259918,-0.053798728,-0.0030974832,-0.0381769,0.0023696292,0.061343633,-0.07156788,-0.1439698,-0.007763275,0.13666566,-0.0075322236,-0.054317705,0.1855043,0.043349534,-0.16855049,-0.06289976,0.19921432,0.08033327,-0.023239333,-0.0370392,-0.021331336,-0.007027031,-0.06245033,-0.02878369,-0.046312287,-0.04013914,-0.059245646,-0.0004254529,-0.040558092,-0.02341386,-0.055007935,-0.032109104,-0.02832204,-0.0027108672,-0.05919794,-0.041247815,-0.026314937,-0.027447892,-0.033633776,-0.06958362,-0.043926507,-0.048710495,-0.040488232,-0.093310475,-0.05545488,-0.020309553,-0.008495245,0.0110281855,-0.047065374,-0.046456173,-0.047098696,-0.032931827,-0.011682399
7,0.036802884,-0.026315572,0.037895523,0.0118270395,-0.019752687,0.010721749,0.035972517,0.026820572,0.0030509445,0.041253448,0.008764622,-0.0011155062,-0.0026167633,0.013470076,0.027828505,0.03703995,0.030253755,-0.013002393,-0.015530058,-0.01851496,0.026763232,0.020571204,0.0036686226,0.012692529,0.013220826,-0.017994436,0.038937785,0.026054611,-0.017430129,0.03750822,0.035220053,-0.024521569,0.036843512,0.0060644797,-0.0041808095,0.008967861,-0.02029547,0.018600093,0.002838007,0.0011903973,0.032364342,0.015393514,0.035727486,-0.006656012,0.00070861395,0.027452877,0.040931016,-0.023359323,0.011335774,0.04222688,-0.020723408,0.036439747,0.004691698,-0.0017013393,0.02204612,0.016908128,0.014173091,-0.011002363,-0.01213856,-0.003194149,0.028038772,0.006422712,0.042664137,-0.008621547,0.007025651,0.039868526,-0.024769058,0.024588736,-0.014288672,0.018888736,-0.020223515,-0.0078096767,0.016203314,0.027857823,0.028233016,-0.015013549,0.034207735,-0.021061664,-0.012594618,0.038824107,-0.014803545,0.01937711,0.03520603,0.042968594,0.001384291,-0.0033807443,-0.01937638,0.03779224,0.027438546,-0.01045283,0.035920158,0.022971066,0.019594463,-0.004003128,-0.002036065,0.030007789,0.007410138,0.014142474,-0.017957648,-0.007855639,0.031852014,-0.008920801,-0.020613132,0.0135780675,0.027568826,0.002315167,0.012971371,-0.025788674,0.021960007,0.03497787,-0.011645206,0.017197127,0.020369703,0.025638932,0.007217774,0.0212582,0.018551337,-0.012009699,0.017547883,0.015926057,0.041839898,-0.021378474,0.019699411,-0.0038861234,-0.03698817,0.017393855,-0.0071371906,-0.0041609737,-0.015072715,0.014686015,-0.018912045,-0.014436295,-0.014297241,-0.013315108,-0.02515753,-0.009420552,0.021721331,0.0065503805,0.027912209,0.020777581,-0.011765335,-0.0115138525,-0.0007197604,0.036400385,0.028861033,-0.019463478,0.039239965,0.01758209,-0.010245067,-0.0016919432,-0.01868105,-0.0040184604,0.00048359652,0.008253104,-0.017554091,0.026395906,0.021458302,0.021992654,0.01509067,0.031700723,-0.022131711,0.008156294,0.017153788,-0.024328424,-0.0016234647,0.0069235484,0.019934306,-0.020983508,0.010193107,-0.0029302284,0.031687327,0.012386788,-0.0016901206,-0.013935533,0.04059554,-0.013032903,-0.023816334,0.01072004,-0.018972557,0.007378393,-0.004288212,-0.029405637,-0.014201738,-0.012076215,-0.016318778,-0.019538878,-0.0072062192,-0.029459791,-0.0005655362,-0.019008286,0.013335718,0.030835383,0.019511482,-0.023769977,0.010898988,0.025761062,0.04005058,-0.02660677,-0.014742562,0.020559194,0.011045338,0.002601248,-0.009822608,0.01993093,0.041018505,0.0035836648,-0.002198523,-0.012809635,-0.016518293,0.01598347,-0.04188664,-0.021112587,0.027337896,-0.021719065,0.03088292,0.006785128,-0.009362692,0.00662409,-0.0019266548,0.03374827,0.030138629,0.015433598,-0.015186547,0.004734571,-0.025762325,0.029898657,-0.020360677,0.004460534,0.029258782,-0.0014539453,-0.0022864526,0.009429348,-0.023764795,0.011669304,0.02113346,0.02412012,-0.020615576,0.009623202,0.032008957,-0.03394422,-0.039998546,0.021091895,0.012255912,0.008399169,0.0022781373,0.027649725,0.028447445,-0.029384267,0.013171078,-0.024277097,0.040972825,-0.018184258,0.04084968,-0.0054804725,0.012129563,-0.0073282016,0.013129979,-0.02044352,0.0041213105,-0.026986105,0.021711012,-0.031646986,0.021278124,0.029005364,-0.017410338,-0.019685313,0.024443759,-0.015083807,-0.01708638,-0.02319591,-0.023604581,-0.006181255,-0.0059077838,-0.016237421,0.00798107,0.007949854,-0.0054960228,-0.021641625,0.034669142,-0.013939132,0.0061317007,-0.020702654,-0.022355774,0.01884496,-0.01767256,-0.023724819,-0.018884739,-0.027798649,-0.014479077,0.007848654,-0.0057953093,-0.018534532,-0.011622104,-0.021372328,0.037945967,0.005068563,-0.016837155,-0.014142158,-0.0011991014,-0.032046277,-0.0055070077,0.018070916,0.029294964,0.018746708,0.03284517,-0.019255435,0.01130427,-0.023831645,0.02782003,0.009306116,0.025876699,0.034662098,-0.026281679,0.0049893474,-0.019525427,0.0003465212,-0.025862105,-0.00093028275,-0.021145543,-0.023698626,-0.026647476,-0.0017081279,-0.017068157,-0.007171058,0.023241404,0.012005448,-0.015771154,0.0005731373,-0.0005791838,-0.01045242,-0.0026504977,0.009435498,0.017925613,0.02818794,0.035460006,0.021771444,-0.0005878971,0.024709715,0.018890487,0.02725201,0.04263871,0.018614521,-0.024370456,0.029328752,0.005592253,-0.02837484,0.0017341544,0.005099098,0.012764834,-0.002171351,-0.034038458,0.0062724114,-0.033446763,-0.030658964,-0.027131554,-0.026603645,-0.027921341,-0.013901865,-0.036810275,-0.0111413365,-0.017635249,0.007006369,-0.021519927,0.036327634,0.0195164,0.031870313,0.040113788,0.0055162404,0.026242582,0.022388406,0.0005032201,0.007787801,0.02157036,-0.01639278,0.018773062,-0.013487214,-0.037081968,0.021678083,0.026671067,-0.034895997,0.013017352,-0.0003607909,0.015473839,0.007974905,0.0032995567,-0.03435768,-0.015855467,-0.00090992276,0.03319445,0.024559917,-0.01720724,0.032266527,-0.013959435,0.005036963,0.004436015,0.039250337,0.023420243,0.024756057,0.004722979,0.019453906,0.027504757,-0.006115023,0.002328405,0.012878621,0.008940229,-0.029508755,0.0070701162,-0.0042008213,-0.026284227,0.007778819,0.018505238,0.00054837874,-0.025565172,-0.015935581,-0.026871772,0.00366649,0.009655467,0.0014606625,0.017709212,-0.009744001,-0.01816467,0.033390783,0.011018525,0.024421657,-0.0069494206,0.033399034,-0.034371894,-0.018556919,0.011765538,-0.012914168,0.0073380414,-0.011564724,-0.028613923,-0.014742971,-0.01980185,-0.03287322,-0.016899398,0.004672653,-0.008725143,-0.00012753299,0.017220322,-0.007906325,-0.02086145,-0.004170576,-0.02170819,6.2559266e-05,0.041442957,0.02910514,0.022187153,0.012767124,0.02777511,-0.011285082,0.00930895,-0.012427462,-0.039440624,0.015254721,0.024836559,0.013305726,0.0033946577,-0.020457815,-0.0011878249,0.007999595,-0.0054639843,0.01882832,0.034169603,-0.018467218,-0.0040685087,-0.018648213,-0.00996487,-0.013301126,-0.021786472,-0.01837537,0.0048291,-0.014598265,0.015102503,0.030106472,-0.022600135,0.0171662,0.013771038,0.038635705,0.03357941,0.026152423,-0.0048775245,-0.040997293,-0.035130758,0.006695629,0.027644156,0.0006841747,-0.025385773,0.0013798306,0.011808401,-0.019707387,-0.0032055571,-0.021387087,-0.0031027005,0.020047717,-0.02033222,0.02540609,0.040217094,0.017594093,-0.018219447,0.016555848,0.016035015,0.032660097,0.019480797,0.032321546,0.005321695,-0.014966827,0.02638855,0.007593263,-0.038280223,0.02019513,0.0007257555,0.024474433,-0.0058383862,0.0019823674,-0.025417345,0.0034688634,-0.036852725,-0.025699114,-0.021801064,-0.00027769397,0.0025221817,0.0197548,0.01748421,0.009222145,0.01838182,0.029746603,-0.019830583,-0.013995488,-0.017057644,0.030262815,-0.023976749,0.01980446,0.03696836,0.0011161262,0.044080764,-0.004099676,0.0006531437,-0.0002895732,-0.014575788,0.005477782,-0.0017472175,-0.023865521,0.0051117823,0.01383236,-0.030340305,-0.031252276,-0.04256449,-0.036520246,-0.003002651,-0.03220026,-0.013167361,0.0042587984,-0.02307292,0.0013563372,0.015315275,0.0028254127,0.040334545,0.03455619,0.001528599,0.02251157,0.016279686,0.0010041924,0.0073673045,-0.022728374,-0.0026832302,0.014761131,0.02193134,0.009329776,-0.03776592,0.031857148,-0.033326846,-0.033846084,0.010965779,0.008940577,0.024092313,-0.041159093,-0.042271342,-0.03190373,-0.01716884,-0.00057440996,0.010191457,0.03715149,-0.008531597,0.014117033,0.024776505,0.00909464,0.0238046,0.003237617,0.042507287,0.01495711,0.044280857,0.018715888,0.023922022,-0.015378886,-0.013969072,-0.024052674,-0.02135956,-0.039385997,-0.007874713,-0.023193618,0.00217373,-0.014008876,-0.041915655,-0.004726131,-0.03251326,0.035000607,-0.011743275,0.017445507,-0.0044152816,0.009265325,0.009275628,-0.007953256,-0.021935346,0.01317476,-0.011338362,-0.016869051,0.017944196,0.026869329,-0.006877696,-0.017648503,0.021200785,-0.027829047,0.02363867,-0.03210813,-0.010691168,-0.0070936373,0.0043364526,-0.035309527,-0.018758625,0.025245385,0.02710441,0.019777818,0.0018709782,0.027145382,0.025037918,0.010231079,-0.02112052,0.024943555,0.017025383,0.038396418,0.007235894,-0.02514189,0.011795581,0.0040030503,0.03530995,0.027816141,-0.00079097494,0.029879896,-0.0036709849,-0.017458256,-0.02648782,-0.004225516,0.029111868,-0.030016007,-0.023983397,-0.020349426,-0.028843265,-0.031905565,-0.008778358,0.025065105,-0.023375558,0.00878569,0.006272451,0.017273365,0.04028804,0.017096289,0.01255988,-0.012653377,-0.023336379,0.04388512,0.018731238,-0.009359126,-0.022067754,-0.0026544,-0.02534953,0.03359337,-0.012077343,0.012338171,0.012476454,0.008120902,0.017413998,0.014403153,0.0021520043,-0.022483747,-0.003248178,0.028306995,0.009600903,0.029899934,-0.009570473,0.027682813,-0.017810289,0.020281833,-0.017328503,0.039583243,0.0006515474,0.040814865,0.022084268,0.032548834,0.016405793,0.014927261,0.018336935,0.005963373,0.0060230247,-0.024791578,0.012127286,0.019062618,0.024936536,0.017883101,0.030147402,0.016077392,-0.004707945,-0.015669158,-0.0218457,-0.0008449722,0.027479043,0.010129964,-0.017282369,-0.003193212,0.031217948,0.0029509927,-0.014535869,0.034384068,-0.023228051,0.030597048,0.016221784,0.012874067,0.0059111766,-0.004955492,0.012608231,0.030148664,-0.023960093,0.015610151,-0.009965212,0.029079178,0.013662506,0.03852019,0.03687124,0.014542053,0.024350485,-0.0051698564,0.04125242,-0.015683403,-0.015466153,0.02612318,0.034389377,0.004220157,0.007919476,-0.008415746,0.013668247,0.005275165,0.02582516,-0.00980156,-0.026551256,-0.022677401,0.033163216,0.0016583583,-0.011419837,-0.0030819648,0.03973372,-0.011583471,0.035627093,-0.012311943,0.032671142,0.003428267,0.033401266,0.03072687,0.005877389,0.0054025785,0.041280635,-0.0049301945,0.003545173,0.024792472,-0.011787374,0.021588312,-0.024040217,-0.0049916506,0.041160762,-0.018714124,-0.020467067,-0.024051527,0.0026995274,0.03875094
8,-0.0027496272,0.004776352,0.024979595,-0.016590828,0.0037151196,0.02453085,0.015293595,0.024086008,0.027910354,0.02867234,-0.0007928463,0.003952166,0.039398115,-0.020288853,-0.010068419,0.043174464,-0.010576208,0.0018225766,0.036128756,0.03133292,-0.008727438,-0.00054851884,0.013331932,0.013024851,0.03821152,0.042827915,0.003172722,-0.0045496593,-0.021550018,0.003570904,-0.011172014,-0.007110213,0.024576232,0.03197501,0.04096203,-0.023127764,0.027097754,0.01590803,0.0116036115,0.011603468,0.0251884,0.013265006,-0.003130745,0.047842577,-0.006186807,0.022071192,0.010853395,0.025445562,0.016444856,0.038695857,0.0084979925,-0.020784419,0.0060372497,-0.003929572,0.021021772,0.04334108,-0.013172177,-0.020118872,-0.018799508,-0.00013168734,0.005205503,0.004698858,0.034768075,-0.005693922,-0.036249775,-0.06563398,-0.029482692,0.0036686945,-0.069526784,0.16103901,0.015274418,0.0876953,0.1163924,0.10165235,0.05840545,0.06393729,-0.009406149,-0.033980377,0.035291146,0.042089086,0.03445974,-0.024469346,0.014002667,0.0008456226,0.027414246,0.027401986,0.003218816,0.021177981,-0.014154298,0.050079376,0.053366195,0.060484964,0.0054955464,-0.04005586,-0.07366536,-0.12571047,-0.035185706,0.039818123,-0.025349926,0.30132863,0.39727134,0.2888104,0.17505011,0.09625958,0.051897794,0.072789274,0.097417116,0.0800702,0.020284891,0.014459538,0.035817266,0.018380344,0.018659351,0.029410237,0.022352718,-0.011540984,0.013923806,0.13690047,0.08454502,0.066729695,0.16668323,0.0062896213,-0.08772515,-0.2071583,-0.15498668,-0.013396079,0.10552765,0.23161142,0.4144581,0.20409988,-0.0041527436,0.028217718,-0.01076631,0.079780556,0.040234216,0.0858888,0.1329955,0.027219852,0.031085521,0.031086307,0.04078644,-0.012623964,-0.013929834,0.012787151,0.058246255,0.23918448,0.11405071,0.12123573,0.029276825,-0.1466353,-0.1717069,-0.154771,0.14780173,0.07802736,0.131157,0.12332809,0.033015203,0.05334633,0.0015558357,0.12008881,0.084867105,0.0072555398,0.016748069,0.17689364,0.1432723,0.059658334,0.0019513889,-0.020522708,0.023586348,-0.003740793,-0.009176085,0.0039908933,-0.0014122465,0.11289217,0.11688689,0.098522045,-0.07222955,-0.26163074,-0.099231236,-0.07707826,0.08769848,0.07730106,0.16774674,0.13655214,0.061641227,0.044769704,-0.0005287016,0.08543941,0.17611563,-0.075320736,-0.25658286,0.07204769,0.068035096,0.10389696,0.017719356,0.016016426,0.02936071,0.041087545,-0.029055528,-0.04583077,0.05130289,0.15202492,0.15587857,0.11398684,-0.07966161,-0.13751431,-0.0674349,0.022705493,0.010184158,-0.036980268,0.12529035,0.06962895,-0.011200412,0.013837966,-0.0646724,-0.003981672,0.0838601,-0.07879996,-0.21008481,-0.19939932,-0.036306046,0.03198376,0.037000265,0.0006938679,0.03137948,0.018518185,-0.037550498,-0.014986775,0.028970314,0.15473382,0.11754411,0.18141761,-0.06653638,-0.039523672,-0.00776391,-0.13327007,-0.14124307,-0.067112565,0.016497452,-0.010394611,-0.099548586,-0.08771235,-0.10323993,0.10825684,0.016074961,-0.0032128396,-0.14359246,-0.15711935,-0.11615945,-0.04100668,0.041594118,0.025429318,0.01141728,-0.0074144853,-0.0060317595,-0.04341713,0.04598662,0.017129872,0.14697692,0.092782535,0.02118065,-0.039401583,-0.095861875,-0.115055166,-0.1723947,-0.033071943,0.061403148,0.10668377,0.039049756,-0.054027554,0.046460565,0.12292266,-0.056808624,-0.00041736595,-0.1508607,-0.24083704,-0.15613182,-0.04471784,0.05227007,0.013502047,-0.0056734816,0.014683221,0.021314062,0.008251799,0.024015484,-0.119545504,0.027896205,-0.025945788,-0.0035136892,-0.14206722,-0.047910348,-0.107629456,-0.002420385,0.07576326,0.13677286,0.056352213,0.014721465,0.022450615,0.20756683,0.21951462,-0.077063166,-0.18048204,-0.35476136,-0.3403207,-0.24517404,-0.085463144,-0.01583688,0.017320048,-0.006107452,0.016227245,-0.03068967,0.06042859,0.09118096,-0.2030223,-0.27797037,-0.23164319,-0.084358014,-0.14621253,0.076101944,0.10824336,0.05812238,0.08031564,0.09519814,0.10976452,0.13541487,0.013545044,0.2008151,-0.028021568,-0.06757993,-0.30123368,-0.22868884,-0.30044794,-0.18403438,-0.06576533,-0.010387684,0.045413595,0.032480177,0.04383079,-0.015391417,0.00620824,0.07259566,-0.06454404,-0.17148131,-0.15571222,-0.13943854,-0.05310885,0.101961926,0.1641583,0.06409841,0.08588813,0.28254583,0.20258017,0.12559162,-0.047242187,-0.1008417,-0.14267826,-0.07301777,-0.26023024,-0.121526465,-0.20340614,-0.2277995,-0.09388422,0.027071346,-0.009778743,0.0031662856,-0.022908837,-0.011246851,0.04761434,-0.085482165,-0.08397671,-0.049390852,-0.075788826,-0.048160974,-0.08160423,-0.17241469,0.010441,0.08618459,0.13350187,0.31058136,0.20464633,0.095194355,-0.096435905,-0.25486752,-0.14155051,0.0644204,-0.053319655,-0.2343041,-0.16020973,-0.23723586,-0.021588042,0.043555863,0.041769084,0.0035562003,-0.015800536,0.0014350337,-0.06119037,-0.16754283,-0.151318,-0.0866751,-0.04479931,0.07614025,-0.008050423,-0.18003659,-0.18038131,-0.0783061,0.13332869,0.1969566,0.055617776,0.12115879,-0.06649463,-0.24198501,-0.07082692,-0.028249716,-0.012548104,-0.13926123,-0.11351505,-0.028865386,0.024308713,0.012541777,0.03129104,-0.009645137,0.027453909,0.051202454,-0.09216424,-0.13510168,-0.19689427,-0.07905932,0.07905534,0.2022899,0.02532788,-0.186461,-0.22283386,-0.23358946,0.056126963,0.17350748,0.14619818,0.23840557,-0.097515136,-0.1172762,0.06619181,0.045009904,0.08002032,0.15707241,0.15452051,0.11145779,0.14656295,-0.0052783187,-0.013027684,0.020404492,-0.015051887,0.018457763,0.05624207,-0.09676792,-0.055977475,0.050075263,0.09079113,-0.023828194,0.10676818,-0.11692462,-0.31252176,-0.31910264,-0.11699849,-0.051198468,0.019656876,0.1323441,0.028115664,0.02398642,0.10034535,0.11662301,0.18819274,0.24766618,0.24807306,0.18420164,0.10339139,-0.013463918,0.013871507,0.040741507,0.041762233,0.054584112,0.01973624,0.037614223,0.042736497,0.05395336,0.041966498,-0.157977,-0.02767915,-0.08050051,-0.17458178,-0.33200946,-0.13311571,0.015385653,0.047847982,0.10860062,0.03958326,0.003788501,0.08317842,0.14065155,0.30230486,0.23821425,0.2832894,0.116101824,-0.057044312,-0.0205496,0.020590989,-0.015290436,-0.016784478,0.06615013,0.16696575,0.12270824,0.054123465,0.10331799,0.034741495,-0.18510652,-0.1218947,-0.2134723,-0.15050763,-0.21381135,-0.009253349,-0.037750944,-0.02618568,-0.002438198,0.00670298,-0.11832815,0.05773607,0.22053212,0.13955589,0.14496109,0.24323569,0.12590207,-0.057455167,-0.017126895,0.015314581,0.035345573,0.026557088,-0.016612409,0.22958958,0.05032282,-0.025605245,0.040987983,0.0044425973,-0.119876616,-0.020505266,-0.07131946,-0.101536356,-0.23392971,-0.09081443,-0.07566203,0.016458957,0.07669245,0.19819787,0.044000376,0.094753675,0.26683733,0.19107005,0.18660259,0.29822326,0.17430797,-0.050912034,-0.010013963,0.028442373,-0.017203193,0.020121064,0.023038097,0.118082486,0.10245875,-0.12401956,0.10391593,-0.037803963,-0.182089,-0.12827061,-0.09391554,-0.11462634,-0.10190844,-0.07941815,0.028512256,0.1123179,0.12530221,0.23277736,0.11386923,0.06277244,0.17219011,0.15646943,0.11621387,0.14814016,0.094503924,-0.007641147,0.007827508,-0.0015428407,0.0031443771,-0.011180193,-0.018042166,0.037199102,0.061435338,0.10076394,0.13182671,-0.0065803113,-0.11167009,-0.01926175,-0.07325779,-0.13363063,-0.15327415,0.0006337671,0.041690126,0.01576457,-0.107806094,0.10064545,-0.047820877,-0.054119714,0.044824768,0.16300502,0.12252955,-0.010738319,-0.0280139,-0.0105278,0.02872059,0.027251072,-0.008109768,0.0033297022,-0.056287766,-0.008860048,0.04726578,0.0019399463,0.027706051,-0.014878955,-0.18294582,-0.16337597,-0.17761438,-0.088678025,-0.14248402,0.021413578,-0.015802488,-0.07601826,-0.048346996,0.025834642,0.044242863,-0.052101973,0.11224158,0.25343013,0.14721574,-0.03140403,-0.03361504,-0.048601985,0.034943316,-0.009824223,0.0014177349,0.010852218,0.037898183,0.06269342,0.0075589158,-0.024737313,-0.01527011,0.08958602,-0.10111949,-0.04676827,-0.14558348,-0.10796287,0.057308502,0.14037159,-0.040572584,0.07837666,-0.060224466,-0.07142947,0.1436843,0.25927058,0.26180497,0.115968704,0.090821356,-0.031961977,-0.01941257,-0.037015405,0.04443934,-0.0025430042,-0.005407469,0.032246076,-0.014440827,0.060287938,0.0037900675,-0.010822281,0.07546463,0.025848292,0.034837782,0.09092423,0.11625921,0.042123966,0.096493475,-0.066255145,0.051877405,-0.007766162,-0.23236032,-0.26611343,0.095720135,0.08965137,-0.04368212,-0.078667805,-0.045386393,0.01608885,0.021714931,-0.02340764,-0.0065461867,-0.004688212,0.044253338,0.010705581,-0.0062600053,-0.025840241,0.035714254,0.038623367,-0.022186436,0.04612163,0.11489989,0.19349006,0.14373,-0.10579302,0.039153647,-0.000862655,-0.06253725,-0.16288818,-0.18791579,-0.19968104,-0.10259717,-0.03993839,-0.04472461,0.04996179,0.053332143,0.08318989,0.045317974,0.035148095,0.02480501,0.0085609,-0.023067225,0.00796514,0.029052896,-0.00977178,-0.0052160188,-0.024365,-0.00023218303,-0.012912496,-0.04696515,-0.05537979,0.014519609,-0.045372084,-0.1673436,-0.15181358,-0.09431816,-0.0029957194,0.027396431,-0.027560646,-0.031327844,-0.080432765,-0.04919069,-0.014288948,-0.03923371,-0.023292514,-0.011123029,0.0034530535,0.008432871,-0.024698932,0.03854255,0.02822137,0.023316696,0.01254606,-0.002796483,0.009763747,0.01239596,0.0083760675,-0.021491347,0.039427865,-0.04869787,-0.00078261376,0.006875862,-0.012105069,-0.017963478,0.057333,-0.002435991,-0.02186232,-0.036213852,0.0070300917,-0.018340625,-0.02080968,-0.017857742,-0.005200606,0.040958893,0.018101387,0.025799247,-0.010074823
9,-0.0164035,-0.019625783,0.024104893,0.030112928,-0.019817557,-0.015543612,0.040064923,0.039434507,0.030198468,0.029969532,0.03350019,0.037571054,0.020635936,0.047085527,0.04202943,0.015520883,-0.018260855,0.02381222,-0.011056697,-0.021040212,-0.012905562,-0.0020837823,0.04201149,0.02474112,0.037686646,0.0348574,0.02919481,0.044551786,0.01846071,0.044319656,0.006236302,0.0033044042,-0.0024028015,0.017207872,0.041373625,0.02565514,0.041359827,-0.007445998,-0.002501058,-0.016674677,0.007201192,0.033525307,0.039653316,0.022038758,-0.0060736653,0.018375512,0.03415026,0.02454393,0.040145032,-0.042712823,-0.02585625,0.013254313,-0.010236133,0.007803609,0.048311908,0.011440199,-0.015658833,0.041012205,-0.02107941,0.056206778,0.0498972,-0.01811283,-0.019896973,0.003220764,-0.01019624,0.016924053,-0.024508664,-0.0026795045,0.009579701,0.035645626,0.035439525,-0.026042305,0.008724514,-0.033181734,0.009865477,-0.04301943,0.021674767,-0.034952708,-0.020866837,0.0018088489,0.02323986,0.012100865,0.0070928475,0.036006905,0.005173897,0.018372416,0.014365906,0.021654755,-0.0005596807,0.008963167,0.0045624566,-0.0054321336,-0.01248278,-0.04957552,-0.024622984,-0.026824003,-0.005605078,-0.060058776,-0.069014885,-0.019675002,0.069959655,-0.024421435,-0.039873984,-0.033546373,-0.04013293,-0.1903058,-0.17768586,-0.053075988,0.028439762,0.010174693,-0.0012979968,-0.008506675,0.02763512,0.006597484,0.023489363,-0.0025947746,0.004032358,0.0097417375,0.037019093,0.05430446,-0.066277206,-0.094048485,-0.089302555,0.17363073,0.053213138,0.10805023,0.16637114,0.21490988,0.18402539,0.22734785,0.051635813,-0.040076006,-0.1197882,-0.1236756,0.07807736,-0.038667537,-0.06640242,-0.070109814,-0.047215484,-0.0005853591,-0.0038323975,0.042105366,-0.003239273,0.04842931,-0.032883614,-0.04762857,-0.028886974,-0.13094215,-0.16277674,-0.04326147,0.07052534,0.24491991,0.18701257,0.10136932,-0.025087854,0.014564944,-0.0010928938,0.05547084,0.19489807,0.04424081,-0.11840526,-0.0798555,-0.0450574,-0.16878697,-0.25661638,-0.15198961,-0.024257192,0.024805617,0.047647264,-0.008172195,-0.013378261,-0.000763295,-0.022484167,-0.03288493,-0.07925762,-0.104524046,-0.07233046,-0.0946596,-0.044641607,0.0017692035,-0.023078518,0.13086317,0.13255547,0.035855364,-0.07342896,0.06838964,0.2599489,0.25907588,0.20732185,0.11291197,0.1531221,-0.027492335,-0.2563374,-0.14804526,-0.06427407,-0.0004923296,0.0074972184,-0.007023251,0.01670419,0.034127098,0.016239699,-0.02299545,-0.018795593,-0.04628588,0.06507909,0.033130858,0.035866722,-0.010578863,0.0102441665,-0.05678136,-0.11793079,-0.09293914,-0.07597119,0.03893229,0.15104449,0.3783541,0.35774165,0.34560794,0.12411741,0.17021267,-0.004099216,0.007933431,-0.082075566,0.0023463026,-0.012878969,0.013670546,-0.019595746,-0.003149597,0.086752094,0.05983419,0.024231676,0.067586824,0.07264739,-0.02697609,0.04342365,0.030533249,-0.17320418,-0.07093117,0.047855183,0.021999653,0.037908245,0.10696128,-0.03414386,0.040852256,0.0356673,0.19336139,0.19241658,0.23025645,0.092844866,-0.009533472,0.07855195,0.0059107714,0.017856441,0.022137221,-0.013723178,0.010694269,0.18345436,0.049804486,-0.037852082,0.061318934,-0.12266686,-0.16139264,-0.1900227,-0.27978313,-0.011612999,0.085397854,0.039200522,0.0074302754,-0.022070535,-0.175847,-0.32213315,-0.15575086,-0.06396968,0.06897409,0.17240256,0.22906412,0.075848624,0.11164879,-0.04575675,-0.07475345,0.048155222,-0.015170621,0.039874412,0.01256801,0.18987325,0.04315991,0.031216701,-0.047603466,-0.19645956,-0.12373517,-0.16150555,-0.032337375,0.20507218,0.116157845,0.1468041,0.06236771,-0.064553976,-0.154365,-0.44111794,-0.40708798,-0.108625196,0.23130782,0.4762686,0.39930806,0.17118055,-0.0019140546,-0.12979284,-0.03080418,0.03304022,0.013929309,0.010018125,0.0025034002,0.11735877,0.004325856,0.06102018,-0.015145946,-0.009606926,-0.09129806,-0.09429233,-0.0022567457,0.022057908,-0.055284902,0.10538169,-0.05859165,-0.38081443,-0.46033266,-0.32057422,-0.23288946,-0.011994748,0.27032083,0.37649506,0.33665854,0.4542618,0.29200968,0.07476222,0.049061097,-0.0043494185,0.03288674,-0.007972574,-0.07476857,0.26917887,0.2599044,0.17201352,-0.051205304,-0.13611455,0.010933814,-0.06862487,0.022093656,-0.23866476,-0.29595202,-0.10324759,-0.39990535,-0.2623308,-0.17684384,-0.15293367,-0.036713753,0.011124379,0.19042143,0.4019973,0.5881362,0.29239327,0.12472184,0.012712107,0.019142963,0.020916197,0.029000547,-0.008973329,-0.10956106,0.34860826,0.15877979,0.021836564,-0.04202084,0.011249008,0.0777782,0.1282687,0.061257873,-0.19912818,-0.11253641,-0.20063783,-0.10483082,0.09097188,0.078844704,0.037542216,0.09045094,0.21429516,0.57546353,0.7277124,0.40988752,0.095143005,0.18981612,0.063848,0.040125117,0.03465392,-0.0030510856,-0.014032813,-0.18318261,0.32142425,-0.022104435,-0.11479245,0.026470823,0.03392761,0.10905554,0.22479886,0.050436463,-0.12763552,0.032566182,0.036775637,-0.00095625396,0.07951976,0.1899681,0.13528095,0.22675942,0.39822233,0.6140162,0.5062522,0.17175217,-0.06666596,0.058371346,0.014689113,0.017901339,0.04691406,0.043145653,0.040940728,-0.17011595,0.2168806,-0.13214317,-0.000111502086,0.01372147,-0.06952122,-0.020967878,0.16732778,0.010058809,-0.0141542,0.0514596,0.09062236,0.13051684,0.2506226,-0.028124973,0.014959611,0.2581739,0.2363328,0.40135625,0.30775413,-0.03799075,-0.014021497,-0.105719574,0.008076722,0.011164449,0.015951008,-0.014080012,0.028895888,-0.10856691,-0.047512423,-0.07322646,0.15595464,0.050170217,-0.02464799,-0.050243806,0.054952394,-0.04659315,-0.12740652,-0.08754953,0.054319747,0.06252017,0.048089713,0.02502615,-0.060070764,0.040729135,0.08485311,-0.030283155,-0.0363672,-0.09563851,-0.01674387,-0.11792369,0.032285783,-0.0030348548,-0.009420779,-0.021807093,0.009293859,-0.062609725,-0.1051533,-0.22576018,0.087192506,0.26547688,0.06822984,-0.0075569497,-0.07358762,-0.12726918,-0.03231103,0.11290085,0.07337831,-0.014860386,-0.004725794,0.022897743,-0.10437183,0.03700927,-0.14755474,-0.23651408,-0.2091588,-0.12673819,0.11706277,-0.12373286,0.020410962,-0.008161791,0.037806552,0.04026267,0.021159332,-0.034533404,-0.069302924,-0.16864821,0.06324581,0.032867037,0.09694154,0.07096704,0.11291755,0.036931995,-0.013683492,-0.035763852,-0.14719039,-0.09225636,-0.14795448,0.046663787,-0.07846426,-0.2222057,-0.2804381,-0.27455112,-0.12814263,0.029180609,0.12131552,0.036376137,0.042781424,0.027542733,-0.020150423,0.03287882,-0.006653371,-0.057616483,-0.17581837,-0.003361174,-0.031592563,-0.15208869,0.04385029,-0.015238702,0.123400666,0.04833944,-0.00040701427,-0.07076707,-0.15384406,-0.07225704,-0.08960133,0.0044053113,-0.09702911,-0.056344334,-0.26407084,-0.13801035,-0.052714933,0.11560284,0.02670496,-0.015262094,0.0021947813,0.014783232,-0.006141274,-0.011931928,0.04600337,0.016026469,-0.1637798,0.060621563,-0.029263645,-0.055023864,-0.03514801,-0.07317901,-0.020139057,0.054092012,0.13440093,-0.0038150412,-0.051844038,-0.043339085,-0.09849649,-0.03890234,-0.0022504323,-0.02032315,-0.15690987,-0.07774122,0.045786127,0.09862767,0.06252009,-0.010066321,0.008380104,-0.0013682229,-0.009870111,-0.0011166075,0.055546056,0.11354091,0.02886413,-0.02742252,0.02088518,0.11002254,0.09983531,-0.004966733,0.060607284,0.1088325,0.13124725,0.23017754,0.06705674,-0.11536078,-0.22956471,-0.17919484,-0.034797546,-0.052457564,-0.052366026,-0.023712212,0.07297191,0.074082375,0.089811094,-0.06242681,0.031206042,-0.014846174,0.035008978,0.0057017333,0.024605135,0.046860836,0.09702566,0.16950528,0.10080332,-0.046171777,0.014116393,0.12535575,0.013759071,0.090837285,0.0027266284,0.0827483,0.014087652,-0.076585114,-0.10549558,-0.056521036,0.13540669,0.13361244,-0.0044299345,0.0016830956,-0.0164537,-0.006261779,0.02215845,-0.029759353,0.0132428575,0.00065157196,0.034382533,0.023385718,0.005963791,-0.005689917,0.0116039645,0.083768494,0.03970072,-0.049394857,-0.035438195,0.010909317,0.03886641,-0.0154430205,-0.035619732,0.016098803,-0.07152874,-0.08954543,0.007552809,-0.013422016,-0.0038299456,-0.11924595,-0.08755666,-0.07332418,-0.03504555,-0.06934264,0.024709644,-0.0061110654,-0.021374013,0.032359667,0.032331966,-0.009625967,0.02849451,-0.021356814,0.104788736,-0.15006119,-0.13693859,-0.20844814,0.040534835,0.06898958,0.14955795,0.08693645,0.21990286,0.04880811,-0.09074274,-0.14415838,-0.19406183,-0.2119019,-0.1065237,-0.06689207,0.0075356853,0.0066002347,-0.034326524,-0.07673386,-0.060781825,-0.016690832,0.03022523,0.014726535,0.0033505773,0.046055373,0.024633922,-0.0053266506,-0.075879164,-0.060321424,0.029018234,0.15662189,0.3134794,0.4314875,0.42621532,0.4623042,0.22504623,0.058894593,0.1280745,-0.031259164,-0.07843153,-0.060410857,-0.005956947,0.15891884,0.01944542,-0.04219861,-0.055966336,-0.062129956,-0.008992211,-0.017274136,0.04059598,0.0016930036,0.048407335,-0.013763199,0.04040078,0.031331915,0.025658704,-0.011830192,0.065590985,0.12262245,0.24593157,0.15099396,0.08191063,0.07434765,0.026257604,0.10134961,0.10424809,0.06970032,-0.06423925,-0.0018828616,0.102730334,0.14872162,0.08016975,0.0017167919,0.032325447,-0.0019147102,0.014521933,0.007102263,-0.0076426608,0.04457667,0.045280855,0.0019781191,-0.019073159,0.0026158001,0.024517216,0.027331963,-0.009696824,0.027834946,0.010412058,-0.021124305,-0.002545094,0.026207501,0.043080494,0.008932533,-0.011853147,0.023747895,0.04823037,-0.019817237,0.038784835,-0.018126309,0.04506238,-0.012782816,-0.016463585,0.0045077973,0.015384894,0.007680819,-0.0016953555,0.016489893
