,0,1,2,3,4,5,6,7,8,9,10,11,12,13,14,15,16,17,18,19,20,21,22,23,24,25,26,27,28,29,30,31,32,33,34,35,36,37,38,39,40,41,42,43,44,45,46,47,48,49,50,51,52,53,54,55,56,57,58,59,60,61,62,63,64,65,66,67,68,69,70,71,72,73,74,75,76,77,78,79,80,81,82,83,84,85,86,87,88,89,90,91,92,93,94,95,96,97,98,99,100,101,102,103,104,105,106,107,108,109,110,111,112,113,114,115,116,117,118,119,120,121,122,123,124,125,126,127
0,-0.21128744,-0.010157579,0.23498763,-0.020961413,0.043532312,0.08776229,0.19890028,-0.009526073,0.079879105,0.10845297,-0.0034977668,0.32834864,-0.10926565,0.072244264,0.076584205,0.05680859,0.08225278,-0.14930037,0.2104459,-0.13189733,-0.13639832,-0.0744252,0.1057501,0.049731206,0.0423283,-0.1833542,-0.1376493,-0.065356605,0.12269685,0.07004198,0.07982397,-0.3009019,0.07497237,0.0014572158,-0.09399112,-0.20177527,-0.044380594,0.3231591,-0.17417316,-0.14650375,-0.14670828,0.07497653,0.10701851,-0.051957626,-0.041239753,-0.049447898,-0.029192587,0.035817347,-0.182369,-0.052912045,0.18251719,-0.20297629,-0.26602432,-0.014033995,0.080578156,-0.12879911,-0.071653426,-0.016378533,0.06018907,-0.041431747,-0.07415276,-0.26092222,0.15451215,-0.09724792,0.13355367,-0.0028081723,-0.11904772,-0.023558907,-0.09927245,0.015212418,-0.02755726,-0.093174264,-0.05608679,-0.048076626,-0.15023386,0.038350962,-0.08627068,-0.042289063,0.103022315,0.02196738,0.117778234,-0.23124512,0.004879616,-0.16009891,-0.0048052445,-0.050013073,0.048942897,-0.11304592,0.12932271,0.103054464,0.006124414,-0.03387997,-0.13275842,0.113515064,-0.021477748,0.22703557,0.02806337,0.13112646,-0.09103778,0.16172194,-0.07838698,-0.04829009,0.2509626,0.11029763,-0.025908384,0.015086675,0.14246386,-0.19187064,0.20368563,0.13216752,0.28608498,-0.1619504,-0.042158503,-0.00465793,0.22217178,-0.17604317,0.009741433,-0.05128388,-0.04010819,-0.042503275,0.0025212285,-0.10957197,0.094571285,0.10099943,0.10884463,0.024498845,0.09387066,0.07127884
1,0.017214894,0.087841645,0.049256008,-0.16712467,-0.20816793,0.08054827,0.045042254,0.062401913,-0.18777269,-0.1451367,-0.04989524,0.18709245,-0.26066002,-0.018416405,0.06330529,-0.021739574,0.035631463,-0.06664831,-0.022448082,-0.13837093,0.0942191,-0.040694036,0.121860966,-0.35670233,-0.091817535,-0.10890333,0.009021016,-0.030272668,0.12287619,0.0469068,-0.09955261,0.058455206,-0.05886631,0.04050512,-0.35364234,0.012025217,0.23581521,0.032051455,-0.049232617,-0.006190788,-0.121516675,0.19742207,0.14298162,0.0570752,0.060390834,0.030165687,-0.31551215,-0.19146895,-0.093039654,0.02616796,0.022052705,-0.19300945,-0.1330262,0.022475058,0.12139031,-0.20030874,0.07500434,0.16092564,0.030166449,-0.067983255,-0.11465416,-0.1963357,0.14798905,0.09262466,-0.14815316,-0.089882,0.04466533,0.28674248,-0.06016914,-0.12826613,0.006911379,-0.07619584,-0.032724135,0.059904497,0.002579897,-0.06420977,0.06745067,-0.06141069,0.033178706,-0.0050118812,-0.016418995,-0.10821647,0.19772843,-0.13773137,0.058008652,0.012602292,0.024723269,0.11065847,0.109887175,-0.25877994,-0.30335417,-0.17609343,0.04150005,0.12681378,-0.045733713,0.11188046,-0.17692117,-0.065354034,0.10525522,0.096112296,-0.11672771,0.1358494,-0.01062543,-0.03465343,-0.09330442,0.052761506,0.27761477,-0.20480424,-0.057478804,-0.31338295,0.016850008,-0.16336441,-0.08701704,-0.036653716,0.16069745,-0.13102299,0.08674719,0.10409777,0.10631224,-0.076465294,0.054265656,0.07754337,-0.055167884,0.15222967,0.17338386,-0.038983002,0.006832661,-0.10044312
2,0.19759777,-0.152018,-0.021861093,0.0058717453,0.01161443,-0.16984609,-0.37045556,0.015527804,0.08318805,0.30486467,-0.13810666,-0.16416556,0.021042211,0.39847386,0.2914824,-0.00089463504,0.19285014,0.044046868,-0.2338564,0.31863493,-0.13851604,-0.31628036,-0.07622974,0.16633378,0.11186077,0.045344282,0.055478554,-0.1303347,-0.074272476,0.10052534,0.05720477,-0.05108823,-0.052473377,0.029756628,0.14777315,0.1448252,-0.031994842,-0.08866634,0.20196417,-0.41674742,-0.056001212,0.0109164985,0.15289496,0.06991128,-0.3139944,-0.050991308,0.12929197,0.032518137,0.13469754,0.2369615,-0.12165539,-0.12572947,-0.34653205,-0.1374921,-0.3698504,0.21580644,-0.21504247,-0.011015976,-0.16756752,-0.09859696,-0.21646504,-0.09731492,-0.06769053,0.042782195,0.07592565,-0.2668845,-0.17079931,-0.123195425,0.19852373,0.12994018,0.061542504,-0.15841748,-0.13743083,-0.19190179,0.15969643,0.12649237,-0.01373244,0.12218711,-0.08321652,-0.06155533,0.12540814,0.32063746,-0.09519055,0.1309858,0.13945925,-0.017966066,0.16187543,-0.04789332,0.123283714,0.07124669,-0.20506431,0.0055330894,-0.038023893,0.048380233,0.35201874,-0.18882836,0.049500894,-0.057342935,0.023119649,-0.038510844,0.1768789,-0.09363406,0.11327642,-0.36254132,0.04586762,0.07601334,-0.17337336,0.043581206,-0.08032883,0.026444783,-0.12772474,0.1490861,0.02365191,-0.03441098,-0.3951275,0.12946332,-0.054507267,0.04586082,0.051795103,0.035499007,-0.05975732,-0.036142025,-0.17188448,0.013961888,-0.42356554,-0.043012194,0.009858773,-0.05851192
3,-0.07423325,0.19508769,0.07330377,-0.083583176,0.22105238,-0.14439088,-0.06982489,0.022907676,-0.043785024,-0.311949,0.18297338,0.16731653,0.0831467,0.04142974,0.18825077,-0.09096726,0.015888533,-0.19837986,-0.09687922,0.022552738,0.12055479,-0.09191622,-0.0029476164,-0.031871013,-0.028326033,0.0015276825,-0.113343336,0.008705091,-0.18304788,0.005621746,-0.14197479,-0.13180675,0.028312681,0.031698197,-0.35500225,-0.114170596,-0.02830794,0.3124668,-0.14645925,-0.09494608,0.022797003,-0.08124139,0.07108127,-0.068181194,-0.00852325,-0.05958844,-0.017768504,-0.25036663,-0.1637297,-0.2127207,0.07232075,0.04738491,0.065520145,0.03623249,0.13404064,-0.16051693,-0.18517613,-0.10259187,0.035230786,-0.013083964,-0.30483115,-0.07185007,-0.14016843,0.046820458,-0.16246499,-0.18975314,-0.1318707,0.04508088,-0.31532136,0.16401935,0.20614636,-0.121519916,0.05283396,0.028225755,0.01595098,0.054369844,-0.10003676,-0.16901451,0.28592634,-0.08909204,0.13634701,0.20581214,0.045040566,0.010996851,-0.09231083,-0.42254287,-0.09668376,-0.13327503,-0.11881753,-0.025957404,0.078016676,0.16185056,-0.20387615,-0.13214701,0.10546409,-0.26262102,-0.30172452,-0.20250179,-0.26110768,0.08629935,-0.14034586,-0.034827694,0.28515926,-0.12130704,0.1027898,-0.06126152,0.13208431,0.14523302,0.02249142,-0.23351629,0.19488652,-0.36089644,-0.098859936,-0.008544472,-0.16885656,0.11031089,0.09364603,-0.08261281,0.12992567,-0.34733137,0.10535187,-0.119194984,-0.05958343,-0.008411112,-0.19371493,0.06310573,-0.03173383,0.028304968
4,0.1606236,0.031833053,0.09549116,-0.2709909,-0.22358428,0.1997496,-0.10404259,0.0017563814,0.05523143,-0.09765495,0.00289253,0.13877569,-0.014425567,0.2251702,-0.13628107,-0.0519088,-0.020927189,-0.16395666,0.07852369,-0.08358051,-0.09123567,0.07324252,-0.0065400223,-0.27562544,0.016900638,-0.09424413,-0.008915755,0.026840247,0.24609219,-0.09836258,-0.11025848,-0.09590948,-0.03972598,0.1901236,0.10168509,-0.11033217,0.026285067,0.055143286,-0.30464363,0.011392891,0.064958826,-0.10308297,0.19251083,0.13772742,0.20997877,-0.044127192,-0.0777111,-0.04481421,-0.23380452,-0.029408107,0.11910861,-0.15293655,0.027102683,0.0037170432,0.2088956,-0.111279584,0.009815847,0.14646745,0.00030426285,0.12549452,-0.073418856,-0.06294025,0.012648086,-0.0889315,-0.12395034,0.01722098,-0.09136231,0.065004356,0.030551769,0.030534236,0.14223747,-0.2322021,-0.068571754,0.02760504,0.20588173,0.028522938,0.017468436,0.051161338,-0.057807747,-0.046766475,-0.06536169,0.008673497,-0.029945238,-0.046525396,-0.033332493,0.1807818,-0.1721054,0.1723089,-0.0744441,0.09621521,0.21698503,-0.18090001,0.08588236,0.07346226,0.24171175,0.28554714,0.0525453,-0.057851948,0.22584616,-0.14655583,0.1797931,-0.07219179,-0.047350354,-0.03172672,-0.13970375,0.08017909,-0.24780159,0.066318,-0.18735828,-0.03458158,-0.15750255,-0.049810942,-0.35523176,-0.029357525,0.05936301,-0.27254614,-0.1837333,0.05941705,-0.25401232,-0.24947943,-0.13899997,0.080788665,-0.019104512,0.12381884,-0.011536491,-0.16077659,-0.13560857,0.2309556
5,-0.3122624,0.07451536,-0.1302974,0.06824794,0.20622814,-0.102886915,-0.024332931,0.030305866,0.06715307,-0.109803535,-0.02785448,-0.16289224,0.07475286,-0.05725335,0.27556008,0.15118112,-0.18415779,-0.08886801,0.028816171,0.15924309,-0.22775017,-0.008525566,-0.120890304,0.3228007,-0.107693054,0.046899527,-0.1798766,-0.024652995,-0.021781756,0.042122442,-0.033100933,0.14597973,-0.023226343,-0.22299427,-0.020675361,0.1326316,0.1981345,0.09590645,-0.086165555,-0.21001671,0.09297967,0.0514549,0.011661771,0.07935094,0.12811877,0.056682885,-0.17984521,-0.06991037,0.19858284,-0.046346307,0.06307892,0.08242807,-0.12502983,-0.009868378,-0.042009618,-0.24432522,-0.16136184,-0.045060795,-0.00060180074,0.06506429,-0.1264969,0.06667494,-0.027875869,0.100537404,-0.012858937,-0.34590298,0.09374359,-0.06611657,0.33132264,0.061241344,0.114995405,0.0066237305,-0.20755875,-0.0668479,0.08870732,0.10362628,-0.0771157,0.02949712,0.005303519,0.08811971,0.11808704,-0.05154362,-0.12585647,-0.15599865,-0.010217138,0.0898692,0.22077025,0.049976543,-0.11675485,0.06663378,-0.13722306,0.15031064,-0.11855203,-0.2748268,0.2238365,-0.017729903,-0.07912786,-0.30647045,-0.23671922,-0.09087373,0.013386447,0.006679277,-0.045994718,0.24393646,0.03456407,-0.32886007,0.14502586,-0.018145507,0.08733311,0.1381474,0.08870511,0.11829727,-0.051244207,0.044788424,-0.52638805,0.14664917,0.050747663,0.103471026,-0.010821719,0.043788668,-0.25283912,-0.10747522,-0.013552312,-0.043972593,-0.07931108,-0.121251635,0.15607023,0.11848001
6,0.10170853,-0.24176796,0.19450203,-0.18183494,-0.03752989,0.0063621905,-0.29391772,0.020543093,0.20366023,0.10508024,-0.15104015,-0.15247649,0.1302651,0.12780581,-0.13112171,-0.054816417,0.030829376,-0.089642294,-0.09458981,0.026854027,-0.070397414,0.17204274,0.08869618,-0.18706019,0.13904765,-0.012260707,0.019902155,-0.08353127,-0.061468467,-0.30314916,0.11907051,0.1686842,0.03667974,0.23681463,0.10056215,-0.05329293,-0.15205072,-0.18260571,-0.019464541,-0.09675459,-0.032078255,-0.079571344,0.12719783,0.21223344,0.14758866,-0.06305552,0.18687111,0.15847994,0.031957824,0.084351934,-0.13641779,-0.19098774,0.17653598,0.00945923,0.12090952,-0.044640787,0.08293991,0.027801087,-0.19317728,0.070540324,-0.12028989,-0.024283437,-0.47401804,0.041491102,-0.12921064,-0.055273164,0.008812806,-0.004353848,-0.01757038,0.015158363,0.03633912,-0.33730552,-0.3175606,-0.23630165,0.014830512,-0.067339756,0.13143532,-0.085753314,-0.12341388,-0.0228877,0.06719019,0.15787542,-0.0027098714,-0.024094684,-0.06778489,0.057507124,0.0083793495,-0.12832682,0.104277834,0.052566886,0.051405195,0.022162367,0.0875845,-0.12241442,0.10307102,0.16259238,0.06923898,-0.11399987,0.03589656,-0.32861242,0.061916318,0.04896101,0.049656402,0.14385848,0.11164516,0.13003737,-0.2997599,0.14116478,-0.07302387,-0.0647929,-0.093295634,0.1790913,-0.14015779,-0.019324925,-0.029036714,-0.09761725,-0.17178133,0.04825593,-0.17306183,-0.18851931,-0.02751374,-0.042863335,-0.21523951,-0.07144777,-0.27552474,-0.105076395,0.011261525,0.074608356
7,0.3236151,0.07309636,-0.022246236,0.08292132,-0.15234913,0.030742774,-0.20293453,0.005670846,0.22102028,0.028762527,0.009558,0.03854132,0.07469388,0.26792255,-0.008102582,0.10270247,-0.10019907,-0.0602846,-0.1634192,-0.4076351,-0.0033491063,0.12977938,-0.18925975,0.058377396,-0.099069335,0.094581686,-0.116959944,-0.08793671,-0.011003016,-0.052105412,0.10408256,0.26931638,-0.036206193,0.08518504,-0.013157078,0.01949246,0.07085087,-0.4855519,0.15397777,-0.11680286,-0.019212093,-0.16666162,0.05385055,-0.18432921,-0.18257347,-0.0064254706,-0.082741596,0.010649519,-0.031107374,0.16213089,0.0021204236,0.2423625,-0.056111753,0.0029817778,-0.17805241,0.09190643,-0.049580056,0.10582573,-0.2607071,-0.047284953,-0.21556318,-0.122145936,-0.12766795,0.08543094,-0.010284318,0.04269857,0.021659132,0.06909418,0.12742607,0.017291443,-0.014607347,0.1889387,0.008586406,0.00034942297,-0.14652699,0.045238327,0.168006,-0.1833906,0.2490975,-0.002326928,0.0964291,-0.17411406,0.19099875,0.017562468,-0.3026288,-0.00646797,0.052760843,0.16719608,-0.44827828,-0.063069314,0.028414536,0.09064925,-0.09061024,0.114026465,-0.0049583972,-0.11435963,-0.084231496,0.039673377,0.14265175,-0.086417,0.14496149,0.11945388,-0.21664785,-0.056679364,-0.05270366,-0.005933195,-0.033897247,0.06263604,-0.09516373,-0.12641558,-0.14555165,0.098747596,-0.13356549,-0.062133625,-0.07386534,-0.020929199,0.20487186,0.11090793,0.195144,0.24807967,0.013170254,-0.082802884,-0.3873074,-0.21098468,-0.0025889394,-0.06385323,0.028913988,0.115052015
8,0.23036356,-0.13858198,-0.20639218,0.28680667,0.06825998,0.017382007,0.14291762,0.009906054,-0.30746365,-0.29262367,-0.022415016,0.030343868,-0.13564654,-0.106388554,0.00077582855,-0.09810366,0.08597871,0.06825572,0.13335827,0.028840067,0.024953887,-0.055714324,0.24314457,-0.08337451,0.005709473,-0.20356585,0.2321153,-0.29648775,0.17228219,-0.23403077,-0.33767012,-0.24634849,0.066177905,0.05701554,-0.030921398,-0.05533118,-0.03672566,0.34551257,0.08158905,-0.1643142,-0.006578491,0.04788902,-0.16881923,0.15130997,0.012636561,-0.053858485,-0.23401968,0.025969021,0.16421773,-0.10997537,0.08992832,-0.009942485,-0.045518264,-0.21173036,-0.027565496,0.0413928,0.04799888,0.021492789,0.09402991,-0.1791299,0.0827911,0.07938556,0.27522475,-0.0050371336,-0.038802784,0.064725846,-0.07006719,0.1884845,0.12364893,0.11515861,-0.076649584,0.16560498,-0.2201528,-0.21612252,0.10069559,-0.15997878,-0.2477681,0.12576348,0.013441731,0.022943273,0.14289705,-0.2849708,-0.029385794,0.19966576,0.12237265,0.06148326,-0.08563967,0.042503603,0.09582576,-0.035293583,-0.32534415,-0.24271442,0.002192898,0.34800646,0.08069002,-0.034564197,-0.085881986,0.21125063,0.17853428,-0.0901151,0.019003596,-0.0079840515,-0.22968711,-0.026925333,-0.021697594,-0.2089683,-0.0647336,-0.1044546,0.058182146,0.04092782,-0.08438976,-0.026340064,0.11675139,-0.07704049,0.002248527,-0.056194983,0.22291173,0.14192837,-0.50931424,-0.13295522,0.11775163,0.031241233,0.02707844,-0.027003422,0.041238584,-0.14870755,-0.14791664,0.22547145
9,-0.085915625,-0.024905859,0.05060506,0.032116737,-0.091855235,0.07357203,-0.14159727,0.021414889,-0.25242504,0.0074541587,0.088886954,-0.09386538,0.0076059937,-0.15242058,0.021012546,0.1743463,-0.17500986,-0.014914106,-0.040550906,0.0819154,0.024029579,0.13996129,-0.29785937,0.024312755,0.010055613,0.010948856,-0.22936678,-0.12509675,-0.026469214,0.091623016,-0.002528251,0.030818045,0.16093098,0.18530092,0.15157983,-0.11870579,0.080447726,0.057737306,0.041669905,-0.07798665,-0.07298566,-0.0052849036,0.08543372,0.10542079,0.011086735,-0.04843293,0.09423405,-0.042739965,0.06305018,-0.33047017,0.22358005,-0.21387109,-0.16255125,0.0038135801,0.20402579,-0.045329377,-0.0019963605,0.09900173,-0.15313843,0.025041634,-0.019071095,0.016973928,0.049184877,0.015384655,0.009900351,-0.164883,-0.15504034,-0.27360588,0.19257455,-0.04410264,0.004022076,-0.021595502,0.12855048,-0.13944013,-0.00065595773,0.008030133,0.039189097,-0.058792014,-0.018625043,-0.007153784,-0.20084669,-0.1554547,-0.0028564027,-0.23430789,-0.03488607,-0.002571793,0.32009676,-0.027976708,-0.09603463,-0.020313049,-0.13914078,-0.11501126,0.087806664,0.00087972666,-0.07393941,0.026877707,0.111600146,0.14096613,-0.12277042,-0.023540884,-0.07098927,0.0393261,-0.080004685,0.0059248772,0.032617886,-0.23541744,0.02461815,0.040824704,0.15352757,-0.0033943723,0.16415349,0.20801774,0.08185394,-0.020293348,-0.19392534,0.1424185,-0.17345373,0.041227058,-0.035769455,0.10275293,-0.114465676,-0.17783263,0.0014037009,-0.06279938,-0.10327694,-0.15931574,0.051874004,-0.037455313
10,-0.07203321,-0.038336847,-0.07571561,-0.028061979,3.1228177e-05,-7.472519e-05,-0.20266654,0.04733002,-0.029400913,0.019904753,0.066213764,-0.19114894,-0.076467216,0.36856502,0.04247243,-0.044659495,0.06780976,0.09820593,-0.08448551,0.044353895,0.027323907,-0.08435948,-0.19219443,-0.07079442,0.04851437,0.17087466,-0.05400479,0.068558805,0.07692266,-0.1878752,0.11619169,-0.05408322,-0.06814315,-0.15863454,0.10436377,-0.004006427,-0.05897383,-0.019789293,-0.14333104,-0.2923143,-0.0027347407,-0.0076829023,-0.03745206,-0.076376535,0.06319516,-0.00791366,0.027408771,0.029467238,-0.18219379,0.188222,0.15094921,0.05455201,0.13096474,0.15209347,-0.3633727,-0.018735448,0.08328334,-0.16998811,-0.013064793,0.13338336,-0.24497049,0.100302026,-0.2611963,-0.19787273,-0.16339162,0.047724057,-0.04044127,0.06859586,-0.13377891,0.05362575,-0.16815189,-0.08230555,-0.1575123,0.029226422,-0.017188068,0.084682055,-0.13264474,0.12561315,-0.112784185,-0.06727324,0.03990635,-0.029925363,-0.16536844,0.15838227,0.054122355,0.11203481,-0.013943697,0.081352636,0.14051653,-0.0076069324,0.18371524,-0.18684885,-0.012670218,-0.032731142,-0.012259292,0.186826,0.23592982,-0.0916331,-0.040965606,-0.119136415,-0.06048051,-0.08916364,-0.005316427,0.11482679,0.0028313422,0.2637285,-0.039774083,0.011533969,0.10096438,0.17829996,-0.2537041,0.036101423,-0.10142019,-0.056961857,0.08913552,-0.09973461,-0.008968113,0.097763695,-0.05054696,-0.06380617,-0.08378344,-0.029913856,0.045115095,-0.23530029,0.063152395,0.12961812,0.0358985,0.03289623
11,0.026812822,-0.020424742,-0.14574008,-0.10849388,0.116745375,0.039914582,-0.208985,0.07231558,-0.085662015,-0.026385289,-0.048344996,-0.024769478,0.096283995,-0.121362664,-0.2985802,0.008025989,-0.072029136,-0.40298262,-0.28981388,-0.2065259,0.07371628,0.05136797,-0.18164279,0.057936985,0.11377881,-0.044279497,-0.12253971,0.14791688,-0.1978683,-0.010709016,0.13932621,-0.087419,-0.048648458,-0.02608358,0.3139204,0.019113217,-0.17777188,-0.18300977,0.40567806,0.23764779,-0.027734693,-0.15015613,-0.10173383,-0.12260499,0.39196563,-0.023926705,0.020591905,0.11791486,0.07341007,-0.023374861,-0.032103144,0.04903862,0.10276869,0.123699695,0.08014051,0.025371896,-0.06506595,-0.0621636,-0.49039748,-0.034614842,0.18812722,-0.079832554,-0.0427172,0.16113764,-0.14530206,0.17604308,0.018597754,-0.071155734,0.06653565,0.15194604,0.21371591,-0.033073332,0.22019866,0.1820692,0.024247514,0.14617592,-0.31274566,0.08998075,-0.02482003,0.07447067,-0.002189179,-0.026262153,0.11196361,-0.15642081,-0.18982169,-0.32940882,-0.119213015,0.17228515,-0.14369224,-0.0740192,0.13581976,-0.16000552,-0.09742368,0.13308091,0.093622044,0.2120481,-0.0013407185,-0.07105118,0.074809924,0.24909559,0.09564255,-0.24737297,0.1327964,-0.03994092,0.06581171,0.2672737,0.10190564,0.09592895,0.07975638,0.09417201,-0.14677747,-0.36443827,0.0608369,-0.03734334,-0.015741156,-0.17086712,-0.56495744,-0.020993073,-0.008601821,0.009820194,-0.031574395,-0.023645738,-0.14432292,-0.4527953,-0.27562556,0.06795304,-0.3048877,-0.14258754
12,-0.0934509,0.23322617,-0.08048169,0.10931873,0.14735124,-0.052985746,0.3307626,0.030836483,-0.08055572,-0.22297508,0.09406781,-0.16664286,-0.15512252,0.022556053,-0.54017764,-0.16074508,0.038818624,-0.03947507,0.15761134,-0.083859995,0.29314697,0.0034563479,0.12621757,0.015052867,-0.013978469,-0.061964147,0.12152308,0.12307854,-0.2313256,0.083150476,0.14826211,-0.08998008,0.22304262,-0.3300833,-0.015878787,-0.20644216,0.023561265,0.3125088,-0.19747421,0.16543572,-0.00097594026,0.29573205,-0.03200454,-0.11173367,-0.43555012,-0.0029228874,0.014407761,0.09011097,-0.07300315,-0.24205948,-0.20619847,0.2133309,0.074750066,-0.052432824,0.100891724,-0.124218464,-0.107992806,-0.14627743,0.075512856,0.00021439107,0.15621002,0.057088148,-0.24906,-0.3185561,0.2172025,0.18800649,0.14586484,-0.014686197,-0.16115488,-0.02352209,-0.151312,0.2418142,-0.04790166,0.049960993,-0.0983888,-0.39589176,0.14958659,0.055540174,-0.09499659,-0.051692918,-0.49880713,-0.2846888,-0.041680288,0.07952019,0.15927292,-0.18666764,0.0013797389,0.16873325,0.05140447,0.04664028,-0.11319263,-0.31303167,0.050133843,0.07637007,-0.22074142,0.049012877,-0.13156943,0.27076244,0.009049747,-0.031670548,0.0798245,0.08066159,0.08445364,-0.029129677,0.03256525,0.14568126,-0.06376261,0.024221266,0.1541004,-0.1742454,0.19719085,0.095031545,0.2876083,-0.07834728,0.04380149,0.06523703,0.32652786,-0.06712977,0.004578058,0.027032692,-0.07893047,0.06679462,0.039797317,-0.10849294,-0.012630347,0.13850003,-0.069213234,-0.17912872
13,-0.049570203,-0.023432277,-0.105450965,0.013993794,-0.15223856,0.24825113,-0.24271122,0.0747294,0.15882416,0.00716749,0.16059162,0.09325597,0.06793672,-0.3418523,0.008072474,-0.06729912,-0.055509683,-0.07799084,-0.10699008,-0.30033112,-0.073149614,0.10091917,-0.024361748,-0.3832941,0.033825267,0.10178677,0.08416282,0.030563988,0.11107114,-0.062342484,0.028937817,-0.024683664,-0.2624733,0.063302666,-0.021310708,-0.09348081,0.096500985,-0.16608891,-0.032952372,0.09366135,-0.11774722,-0.03329757,-0.056995764,0.13477851,0.11725494,0.03190057,-0.066457205,0.13025787,-0.061202426,0.009242887,-0.032906946,-0.054005582,0.14666556,-0.16645017,-0.049045205,-0.0140484525,-0.046339106,0.12850118,0.09602244,0.03421275,0.0890373,0.09268831,0.22526814,-0.03908104,-0.0071171722,-0.03478679,0.025540594,-0.23075117,-0.27490303,0.015471412,-0.2365347,0.0022257762,0.051978078,-0.1463903,-0.06780019,0.029145664,-0.42490408,0.12631188,-0.093708485,-0.07203101,-0.0779598,0.088256724,0.06265788,0.19121675,-0.19340077,0.10114783,-0.448559,0.087232776,-0.04455404,-0.024142047,-0.016814299,-0.06928878,0.001730588,-0.07516176,-0.063665934,0.13637802,-0.050367363,-0.076229006,-0.026075227,0.11436698,-0.20942995,-0.0967062,-0.16827038,0.15682384,-0.005312812,-0.35752207,-0.09253815,-0.065778434,0.00089043856,0.035421003,-0.083511636,-0.2905175,0.07773051,0.03963444,0.10321302,0.15523456,-0.28689957,0.11284097,-0.20198338,-0.26246667,0.1505846,0.103666864,-0.020807227,-0.16724983,0.25100657,0.04427568,-0.038120687,-0.12133456
14,0.008379657,0.07211372,0.019732364,0.010891104,-0.043447323,-0.14772148,-0.059515417,-0.030621553,-0.16550632,-0.15702924,-0.12641665,-0.074120924,-0.16033667,-0.089502975,0.04190871,-0.015714867,0.013310041,0.045086686,-0.077674374,-0.117498934,0.03489225,-0.023232114,-0.15383846,-0.0591641,-0.026511341,-0.14087234,-0.07036996,-0.08567145,-0.048811223,-0.054463476,-0.11919105,-0.04802895,-0.06749298,-0.22380288,-0.09745285,0.050693642,0.027965007,0.02326115,-0.06383152,-0.025830021,-0.06964318,-0.1671196,0.08532325,-0.012285457,-0.080178335,-0.09693012,-0.0032025499,-0.036492813,0.033599984,-0.014141974,0.026105851,-0.11553863,-0.012679485,-0.14657257,-0.10910333,-0.090278156,0.003348877,-0.069624476,0.032647878,-0.19685219,0.03199311,-0.024505176,-0.054326534,-0.0732401,-0.10759216,-0.09100034,0.04634393,-0.09200887,-0.094217636,-0.024989467,-0.038360763,-0.081114665,-0.10468063,0.07129469,-0.033472646,-0.03609452,-0.057045504,0.1697952,-0.09218307,-0.00067509565,-0.048563357,-0.071735315,-0.05764378,-0.072939724,-0.08756457,0.018953435,-0.108556405,-0.15740593,-0.14602642,-0.046192754,-0.049919862,-0.25740397,-0.008041109,0.058237273,-0.006224703,-0.047946606,-0.05523219,-0.09429761,0.0055125277,0.04860561,-0.12648247,-0.04267029,-0.006285854,-0.12621021,0.009261288,-0.01414421,-0.0916745,-0.022871157,-0.03813572,0.0070580626,-0.025175735,-0.055937894,-0.0037838952,-0.021131823,-0.10177143,-0.020681886,-0.028015997,-0.08755471,-0.14147218,-0.0027306804,-0.012726844,-0.09536405,-0.050623957,-0.023109315,-0.022327503,-0.14552581,-0.10266704,-0.03635302
15,-0.21115765,-0.12700906,0.16559741,-0.14696923,0.15838365,-0.069920406,-0.50244683,0.07256114,-0.036312632,0.21406433,0.09033664,-0.14123355,0.1496309,0.23394608,0.088676624,0.24467954,-0.045098048,0.044141192,-0.1892949,-0.1767275,0.15722232,0.16596499,-0.15769726,-0.2379111,0.048686426,0.031439394,0.18004426,0.16670716,-0.08445665,0.03756174,0.051391054,0.07879751,-0.033707377,-0.007882172,-0.08555494,0.089943506,0.038694546,-0.020554138,-0.14867918,0.12274649,-0.18973154,-0.14970112,0.03259072,-0.1031806,-0.15336256,0.014800158,0.08603012,0.12948656,0.041294698,-0.106653966,-0.050466433,0.17141135,-0.06527311,-0.24536718,-0.28884658,0.06345836,0.018340027,0.1510073,0.04711028,0.09677593,-0.07091578,0.13811846,0.14043674,0.048207477,-0.06788381,-0.27086166,-0.11903702,-0.1377394,-0.09122775,-0.10015754,-0.13515975,-0.26050842,-0.13957556,-0.28401506,-0.09095485,0.21573587,-0.06923873,0.03445364,-0.0044825035,0.05995419,-0.01721228,0.23312569,0.044156983,0.03383567,0.025018979,0.039878994,0.03421837,-0.11864534,0.045671612,0.103683345,0.04684206,0.023115445,0.029408019,-0.07695394,0.08996472,0.04886683,-0.046679713,0.043610398,-0.048040215,-0.5256883,-0.16074353,0.14012799,0.09218356,-0.44934237,0.05569883,-0.15407225,-0.3083995,-0.035475977,-0.057387166,0.063825384,-0.28538775,0.0903199,0.0019070384,-0.083171174,0.09327586,0.17679948,0.095946066,-0.051827505,0.066629164,-0.16234624,0.12623228,-0.07038679,-0.18695268,-0.10749956,-0.31230155,0.10370524,0.12160765,0.00025397306
16,0.19135503,-0.2013112,-0.1201683,0.2706461,-0.043641232,-0.110497296,-0.05100111,0.0114905285,-0.055913743,-0.010127957,-0.12556137,0.05468027,-0.17330512,0.030530963,-0.00092617504,-0.19994795,-0.26018178,-0.36617073,-0.04117864,-0.06081617,-0.14587626,0.16348583,0.07392139,0.14672844,-0.14391081,0.018746171,0.09324057,-0.15129131,0.1130569,0.08430509,-0.20412324,0.0648273,0.07131453,0.17676531,0.1021876,0.06746205,0.0858836,0.023836184,0.13278309,0.010813891,0.08736472,0.105416566,-0.5051266,-0.116422154,-0.086276025,0.08914714,-0.14743477,0.02987045,0.21555106,-0.24267042,0.09093896,0.09031691,0.13339697,-0.14491108,-0.04339559,-0.035040434,-0.015698994,0.075458184,-0.04424256,-0.023449171,0.12601337,-0.15972006,-0.05460449,0.021596372,-0.31543118,0.116929404,-0.08964305,-0.01280789,0.11160726,-0.1386757,0.27976316,0.06536146,-0.10138398,0.06397724,-0.018962476,-0.037375655,-0.09185375,-0.0594763,0.15914004,0.013516308,0.074627586,0.08562936,-0.15957847,-0.018631084,0.02649226,0.039835855,-0.04231974,0.21533357,-0.10928995,-0.22711654,-0.086903326,-0.019025082,0.11233065,0.13647725,-0.022796256,-0.17109796,-0.16855055,-0.17976107,0.13648304,-0.04250764,0.20978509,-0.034010094,-0.117034726,0.123894386,0.07208482,-0.028138086,-0.07785586,0.045172438,-0.026957477,-0.08127173,0.2039876,-0.00818735,0.1003647,-0.06986616,0.031320605,-0.08181093,0.030382609,-0.103792034,0.061976515,0.18951765,-0.05438293,0.00880411,-0.09649574,0.1792805,0.035781298,0.03982046,-0.060591225,0.0215736
17,0.0151748555,-0.09056705,-0.15887253,0.100627296,-0.1978923,-0.24224384,-0.082343,0.012361544,0.09436416,-0.27693355,-0.027616143,-0.15666567,0.04350099,0.102858976,-0.07430145,0.02465916,0.057718825,0.024456726,-0.11815631,-0.03150639,-0.2177595,0.22312903,-0.24051762,-0.016039416,0.015742755,0.117966436,0.035672456,-0.15547918,-0.03843445,-0.0643402,-0.1637423,0.030833134,0.16535127,0.06778,-0.09341296,0.094127804,-0.13006338,0.002710654,-0.1661689,-0.26976028,0.13467035,-0.051390365,0.062866814,-0.068612084,-0.04597208,-0.035186324,-0.3241937,0.07072038,0.15755624,0.05699748,-0.09828284,-0.32829067,0.0896612,-0.021026077,-0.054164972,-0.035849188,-0.08026625,0.12527764,-0.07485143,-0.12864512,-0.22074525,0.08227443,-0.04102414,-0.27668273,-0.11959018,0.10299395,-0.16314472,-0.08644063,-0.0636978,0.05942859,-0.10517375,-0.30718672,0.025519483,-0.25591096,0.13144903,-0.20858768,-0.26803955,-0.13928816,0.14451033,-0.05752969,-0.16063723,0.08157944,-0.29837388,-0.22776996,-0.16398089,-0.068691015,0.094179936,0.0691223,-0.14960703,-0.2735306,0.17378478,0.17225653,-0.01489397,-0.02339083,-0.061694603,-0.12247431,-0.21620283,-0.14326291,-0.21775822,-0.07800964,-0.12447729,0.0091927545,-0.115848824,0.09659816,-0.24738462,-0.019903919,-0.03809969,-0.21061304,-0.26530012,-0.28152063,0.21974047,0.22051422,-0.20162286,0.0020296974,0.07301799,-0.41154015,-0.11640492,-0.16857661,-0.06757726,-0.1632581,-0.21939401,-0.074385464,0.071084656,-0.07664417,-0.18756323,-0.26785043,-0.28287393,0.05512755
18,-0.08654881,0.15038171,-0.10308702,-0.3159316,-0.07448237,0.28958791,-0.25382978,-0.049741294,0.041423913,0.14043483,-0.15531166,0.0031069196,-0.03347918,-0.004595656,0.09999705,0.017185997,0.16601829,0.18441133,-0.043455817,-0.30154085,-0.22766854,-0.13282906,0.06327521,-0.4744413,0.1269836,0.17763393,0.028987292,0.064308204,0.15050167,0.064106904,-0.22852987,-0.15574175,-0.2305909,-0.06391044,-0.063390404,-0.032017477,0.036659844,-0.052010078,-0.10838945,0.10442629,-0.0009590891,-0.045300834,0.029231232,0.32315192,0.010965757,0.029864494,-0.10291758,-0.21084501,-0.14315255,0.059002433,0.16867131,-0.14947267,-0.12577136,-0.051147632,0.14410694,-0.11338733,0.079217136,0.105599105,0.026106695,-0.09091923,-0.039044768,-0.15429327,-0.031262074,-0.019283934,-0.12639259,-0.1794931,0.10212429,-0.07723368,-0.22114809,-0.07286904,-0.12919097,-0.28125462,-0.17233293,0.07164998,-0.1829703,-0.019094642,-0.0030455508,0.037877753,-0.35085133,-0.016747965,0.25929773,0.268849,0.042887878,0.017659377,-0.10074405,0.2795893,-0.16753449,0.11966571,0.08166209,-0.10761007,0.12490772,-0.09878139,-0.02037731,0.037349224,-0.030532395,-0.085148714,-0.111733325,0.0025390731,0.11433786,-0.08169485,-0.266174,0.0068741892,-0.07226011,-0.11017284,-0.08252247,0.029065164,0.055667363,0.1157233,-0.08274274,-0.22938024,0.27188757,-0.48556462,-0.11252558,-0.01162731,0.3038836,-0.07925199,-0.18908545,0.08683477,-0.038977217,-0.31957182,0.25337797,-0.09849929,-0.053480674,0.13798584,0.066024326,0.063403316,0.045407053,-0.08568538
19,-0.0468622,-0.17530538,0.041062802,0.17599867,-0.01330752,0.0036255596,-0.010327201,0.07805038,-0.026237316,0.06534454,0.010867086,-0.08443721,0.036283616,0.07625909,0.000928136,0.14008418,-0.19305968,0.18395773,-0.13813533,0.20372422,-0.101544976,-0.16353181,-0.08483238,0.3427618,0.0147978915,0.16835332,-0.013828559,-0.005282028,0.01687059,0.069546014,-0.02326626,0.20816363,-0.11549064,-0.023239579,0.2711557,0.079698965,0.09694624,-0.37427086,-0.09737553,-0.18732953,-0.19506183,-0.23903921,-0.14620548,-0.059637927,0.104743436,-0.04759042,0.30314818,0.036573257,0.17344798,0.21241684,-0.10689434,0.046247736,0.08410175,0.13865313,-0.086789526,-0.16270876,0.058027834,-0.16465583,0.0005941519,0.027965102,0.0713123,0.20107059,0.006764797,0.12208455,0.07947703,-0.3587416,-0.09641053,-0.14418335,0.2913168,-0.14862989,0.053865734,-0.08264123,0.022002582,0.0043034647,0.19850048,0.049156647,0.2485614,0.09384922,-0.06311464,-0.08094378,-0.026798083,0.009645414,-0.2313497,-0.033023138,0.10323419,0.047472987,0.17320237,-0.058785412,-0.031849895,0.030711208,-0.11119831,0.29761854,0.030559467,-0.106442265,-0.07032616,-0.0061217956,0.3071799,-0.055831786,-0.30828285,0.10225905,-0.19017085,-0.049195625,-0.11288053,0.13597506,-0.047713533,0.2280945,0.011930519,-0.04085904,0.33117792,0.24543883,-0.25335678,0.025336346,0.039219297,-0.010002765,-0.19864362,0.026908731,-0.08814142,0.15064012,0.06954002,-0.019125188,-0.16559014,-0.053328346,0.08447899,-0.030531662,0.07192597,-0.066643335,0.19639249,0.13509241
20,0.19923893,0.14258033,-0.04228684,0.082034774,-0.22899647,0.0033472346,-0.1112731,0.06129845,-0.38470912,-0.1290386,-0.08725658,-0.04509517,-0.056817815,-0.003472135,-0.10471247,0.08551024,-0.03322644,-0.09966728,-0.1666011,-0.06128111,-0.13945675,0.14982493,-0.19847453,0.30095634,0.084751464,-0.19058104,-0.16054375,-0.19433211,0.14515454,0.036366127,-0.030270588,0.11255564,0.03873415,0.13148437,0.079338275,-0.11023318,-0.04771114,-0.0047893026,0.08910194,-0.114505015,-0.06564827,-0.03511568,0.16568325,0.04506981,0.27858338,-0.025106402,-0.18074045,-0.008604198,-0.029567221,-0.09516622,0.07347624,-0.2532324,-0.10964232,0.022662187,0.0056687063,-0.09547929,0.019783843,0.059907883,-0.09027176,0.06883614,0.017411536,-0.19920088,0.10241488,0.24705915,-0.19332874,-0.20840508,0.17107575,0.08996822,0.09878798,0.1807281,0.06822984,0.06369292,-0.10859699,0.11740852,-0.10379947,0.0843585,-0.029568058,0.1091851,-0.07123111,0.053676106,-0.116101705,-0.25181952,0.26560065,1.0273156e-05,-0.41093168,-0.07528826,0.15174109,0.14682887,-0.21743189,-0.030395182,-0.030631714,-0.047054514,0.023055533,-0.08749526,-0.17334528,0.1236968,0.018376356,-0.0056442567,-0.0020873426,0.12514965,0.37947413,7.647367e-05,-0.23013468,0.027702833,-0.09775016,-0.14100005,0.2721925,0.108765386,-0.17389275,-0.030814828,-0.12650827,-0.028837632,-0.10146782,0.05663402,-0.11898959,-0.08906671,-0.3190894,0.0028872343,-0.1517145,0.1306629,0.06378043,-0.06662609,-0.077964865,-0.069060035,-0.017331455,-0.14476533,-0.055836882,0.058255933
21,-0.104779154,0.086588986,0.17319457,0.07309979,-0.2605486,-0.0048641334,-0.1698338,0.028707452,-0.1180184,0.12835483,-0.06605373,-0.27701265,0.05690085,0.14418449,-0.019239647,-0.066033795,0.0535877,0.04271966,-0.1263723,-0.098313406,0.11535836,-0.07953497,-0.23239632,-0.015826337,-0.13832895,-0.18600595,-0.12693532,-0.20690015,-0.12163398,0.12746705,-0.03582869,0.07694464,0.12712008,-0.11377474,0.024562523,-0.08673038,-0.08810367,-0.22433916,-0.21333902,-0.17107408,0.19240046,-0.1464618,0.0092855105,0.053757478,0.028033827,-0.023118498,-0.18677111,-0.17816101,-0.28506643,-0.19564222,0.15834056,-0.10349282,-0.10334954,-0.21594873,0.17145048,0.0088779265,0.037610512,0.25598988,0.039497707,-0.041167103,-0.06554153,-0.27938065,-0.080221444,-0.04817067,-0.2346185,0.07434519,-0.12359189,-0.057295624,-0.07037905,0.0021317636,-0.027432065,-0.19704002,0.012392945,0.0057565332,-0.18185991,-0.19388224,0.038469583,0.19390407,0.014718136,-0.013048413,-0.06062987,-0.052683026,0.1858406,0.14646527,-0.46480924,-0.008996137,-0.12461534,-0.057461474,-0.01875515,0.041501734,0.12605359,-0.24188595,0.03699518,-0.014676267,0.016124832,0.06689859,-0.26764128,-0.14290522,-0.10287959,0.03701509,0.054243572,-0.114967525,-0.13426325,-0.1748956,0.0057913573,-0.2784028,0.07358541,-0.041662972,-0.21556737,-0.1971123,-0.15458104,0.15535772,-0.13048296,-0.07272721,-0.30582467,0.23955917,-0.047381625,-0.12559593,-0.33045435,-0.10543819,-0.12792875,-0.35461023,-0.07716792,-0.107884005,0.07997107,-0.340463,-0.27179193,0.090308815
22,0.08382898,-0.09896815,-0.0711354,-0.009912804,-0.025856374,-0.05790113,-0.040556286,-0.043544754,-0.12886725,-0.04023905,0.01637563,-0.14101933,-0.07288587,-0.07369736,-0.047202937,-0.04484027,-0.065902404,0.02055988,-0.024149578,0.00477632,-0.005603061,-0.04302161,-0.069551095,0.0051078396,-0.035345934,-0.06493142,-0.0048539764,-0.03439351,-0.070169,0.005843978,0.022968233,-0.080571175,-0.04254913,-0.037431072,-0.04708136,-0.019100174,0.015364767,-0.021384621,-0.017048772,-0.059249066,-0.09312582,-0.066871084,-0.02941375,-0.13735758,-0.056959577,-0.053446945,-0.047738396,-0.013339503,-0.005255337,-0.04767415,-0.09463812,0.01470044,-0.11578501,0.013483454,-0.050743796,-0.1259388,0.0020859085,0.02458407,0.019016178,-0.055874474,-0.06456613,-0.008024407,0.010446092,-0.04927202,-0.023707604,-0.046534043,-0.102589756,-0.04674614,-0.053020842,0.051581446,-0.028773408,-0.07503946,-0.08544147,-0.009944186,-0.061638657,0.018333562,-0.031850252,-0.010294962,-0.06718334,-0.0094473,-0.026479319,0.009181969,-0.0018281644,-0.008353571,-0.11199514,-0.00069802726,0.049694844,0.0020635638,-0.09479241,-0.05241983,-0.04316382,0.040292554,-0.06186843,0.018178701,-0.06979787,-0.098024994,-0.114885084,-0.037150577,0.041823976,-0.05805169,-0.001165546,-0.047841217,-0.04212669,0.008274702,-0.036189117,-0.058518842,0.011998907,0.0021437113,-0.02159383,-0.08077449,-0.07039745,-0.059855677,-0.08671445,-0.019382155,0.047592722,-0.025654182,-0.031841755,0.016917985,-0.08567605,-0.09133253,-0.057065394,0.025775183,0.018819373,-0.116957754,-0.02712821,0.040652096,-0.03261739,-0.05805949
23,0.019407298,-0.17364714,-0.14953406,0.09792829,0.11287389,-0.16069868,-0.08032493,-0.07665241,0.10293262,-0.22044773,0.011298421,-0.27321175,0.05870121,-0.05018168,0.08165796,0.019716343,-0.27881747,0.13781078,-0.09008069,0.029892687,-0.40308896,0.014964255,-0.026491674,0.14479549,0.07779646,0.15590663,0.0028294937,-0.086430304,-0.21820518,-0.060211,-0.0049378835,-0.07480544,-0.050756246,-0.03233551,-0.012176466,0.18038876,-0.17566028,0.0008046131,-0.12510434,-0.13669656,-0.029404772,0.2484305,-0.1840543,-0.09523224,-0.15274678,-0.05238641,0.12002314,-0.18753456,0.066194475,0.10665816,-0.1076983,-0.22514117,0.17058913,-0.42707503,-0.060171943,-0.2096062,-0.3177029,-0.14810102,-0.13572787,-0.11467639,-0.07472279,0.21445836,-0.0006547704,0.27793935,-0.17052951,-0.08059179,-0.15605693,0.103113435,0.1692199,-0.021274813,-0.1234302,0.13030127,0.039161112,0.0034720663,0.07408934,-0.08752379,-0.07429778,-0.04068608,-0.063977495,-0.012019303,0.09815387,-0.02008656,-0.3473306,-0.09692058,0.01231394,-0.12381713,0.06882707,0.15733433,-0.108775765,0.052094575,-0.26676595,-0.05235519,-0.07861328,-0.4206115,0.24470562,0.009284831,0.08236627,-0.21437137,0.03150897,0.18545073,0.011714854,-0.27051097,-0.016605465,0.21086435,-0.20983939,-0.2479498,0.1794114,-0.16165234,0.048225895,-0.040864874,0.19182658,0.07684182,0.108495615,-0.036706947,0.13325639,-0.2937531,0.02560791,-0.28931427,0.08158415,-0.099022605,-0.16573077,-0.008218155,0.16809267,0.013447781,-0.26803163,0.21085066,-0.025811957,-0.052005954
24,0.24340843,-0.32015625,0.024658896,-0.16486871,-0.021188265,0.14032434,-0.0063439715,0.0437934,0.009220907,-0.14024001,-0.20144899,0.0087509435,0.07188396,0.2996622,0.1298668,0.103776745,0.01096383,0.07692584,-0.16503677,-0.30206832,-0.053152207,-0.22065586,-0.20576945,-0.05473861,0.103128724,-0.17882653,-0.21968736,-0.039123826,-0.36281374,0.046056356,-0.025975682,0.24012682,0.025883982,-0.16021231,0.10276622,-0.20341523,-0.009313155,-0.40446627,0.082758695,0.20841174,-0.16378245,-0.09649931,0.17619242,0.12308216,-0.05412384,-0.009563028,-0.08919566,-0.011142864,-0.027053263,0.11512684,-0.25248292,-0.019537434,-0.0056200563,0.098839216,0.00013741876,0.0641176,-0.14063871,-0.10866926,-0.18321937,0.18506846,-0.29156348,-0.25907335,-0.0013357853,0.24786952,-0.1571775,0.10949092,-0.20446143,0.15661134,0.15538593,0.08929434,0.0130894305,-0.060452897,0.20971155,0.066897415,-0.19812877,0.027515475,0.1156217,0.019116212,0.053845063,0.04450208,-0.03239206,0.016694248,-0.04332071,-0.015145238,-0.18948406,0.05379161,0.11557857,0.28282338,-0.24529342,0.0046448326,0.07524007,0.12579617,-0.057863716,-0.01740271,0.046014935,0.113362804,0.102689855,0.131901,-0.05496477,-0.21106249,-0.11644237,0.16027088,0.012820486,0.083782464,-0.013954373,0.21543528,0.20725614,0.17038897,-0.26543364,0.037960224,-0.11163282,-0.07364607,-0.15440439,0.07237274,-0.06266608,-0.30759096,-0.11184987,-0.107772626,0.21389963,-0.06290452,0.121980004,-0.12557115,-0.24671845,-0.49061337,-0.5361415,-0.0069084554,-0.17744279,0.13600127
25,0.0032550625,0.16493681,0.05174813,-0.16735674,0.13442318,0.11052302,-0.335318,-0.06990388,-0.102061816,0.2252861,0.21466841,-0.08642645,-0.072964914,-0.28924766,-0.059580408,0.16165972,-0.036182217,0.059793852,-0.19156925,-0.14874211,0.23512104,0.03133965,-0.1792967,-0.039151542,0.004595588,0.07492142,0.006129086,0.15730701,-0.13345675,0.10040325,0.034812007,0.010825005,-0.12382939,-0.036816,0.0367838,0.10198541,0.023386575,-0.06515795,0.15508884,-0.025576258,0.020755166,-0.16852897,-0.3129339,-0.09652374,-0.2044171,0.037727874,0.12094636,0.051454656,-0.034161143,-0.03817322,-0.013189834,0.016989732,-0.05579008,-0.08358205,-0.266102,0.074825786,-0.06578252,0.16284972,0.101033494,0.15150785,-0.040300243,0.19222358,0.16976641,-0.074094445,0.1826585,-0.067607224,0.117310606,-0.070315085,-0.12209132,-0.12873115,-0.0944063,0.155344,-0.10396833,-0.29117054,-0.07090605,0.09200125,0.09231816,0.04533348,0.11037215,-0.05296606,-0.07775937,0.12028951,0.17143515,-0.10184331,-0.090619646,0.1487701,0.07365375,-0.090637036,0.14526987,0.14326479,0.041552838,-0.027488794,-0.019563455,-0.24772938,0.07954175,-0.28892916,-0.023482366,-0.0076464596,0.08029312,-0.5626115,-0.10862886,0.074712016,-0.111573786,-0.30367053,0.104910105,-0.10080271,-0.40024096,0.0902291,-0.002884801,0.16830309,-0.18297869,0.0016622465,0.20756572,-0.002833488,-0.038927108,0.21372747,0.18882056,0.05583224,-0.08059844,0.14178604,0.08015384,-0.050050575,-0.14320225,-0.18509406,-0.276762,0.1163688,0.004752488,-0.041770406
26,-0.14643979,-0.03610736,-0.28174123,0.31921244,0.027686883,-0.06692726,0.16838674,0.066952705,-0.10372382,-0.27278993,-0.015384445,-0.19637182,-0.008660377,0.0032472254,-0.029291619,0.19506451,0.10914929,-0.012683018,0.018193157,0.07016327,0.11665572,-0.099057406,0.24492724,-0.12725401,-0.22387058,-0.24949576,0.006398998,-0.05714377,-0.17848872,0.036604453,0.12044613,-0.039612953,-0.06257699,0.002075992,-0.038896196,0.36911684,0.07642031,-0.0527259,0.18860207,0.029147223,0.07137032,0.1567028,-0.6040478,-0.24729152,-0.08196451,-0.03736915,-0.04876135,0.01217571,-0.11928663,-0.0969372,0.1478736,0.11166756,-0.07641431,-0.14515083,-0.0075264005,0.19604854,-0.033998337,0.042317197,-0.10472866,-0.118710235,0.0028376481,-0.15130784,0.022735275,-0.03892224,0.061797,-0.04840415,0.14473945,-0.43138704,-0.04067085,0.010112033,0.0016234628,0.055851236,0.08279126,-0.029510034,-0.12069954,0.11664676,0.18018763,-0.056971118,0.072793715,-0.079838395,-0.12987612,-0.0062887203,-0.12739952,0.2786917,0.034334704,-0.30224547,-0.21816309,-0.03978668,-0.17243195,-0.07516212,-0.2873704,0.061544858,0.042453416,-0.22948559,-0.15633073,-0.17170256,-0.15896894,-0.3232647,-0.051617246,0.07283306,0.0674864,-0.021493107,-0.016627757,0.0044794437,-0.049474396,-0.04562524,-0.32522857,0.031252123,-0.18556908,-0.098601826,-0.01199526,0.08176139,0.084541395,-0.008384771,-0.2382625,0.25179738,0.080403194,-0.09242762,0.12200054,0.1854464,0.10982834,0.028629787,0.07688201,0.016144874,-0.057746217,0.07522816,0.11702706,0.057494033
27,0.018537259,-0.057587225,-0.24918634,0.036894333,-0.13073434,-0.13075534,-0.22412324,0.03800976,-0.06821069,-0.15731157,-0.14582287,-0.08740352,-0.12065032,0.12764001,0.009430179,-0.069914505,0.06335201,0.27577358,-0.06036358,0.00015929801,0.0367546,-0.18415172,-0.25063112,-0.10244023,-0.11751276,-0.165437,-0.15416914,-0.008104469,-0.30957252,0.2936959,-0.0051275473,0.1082417,0.08642055,0.072286636,0.22542429,-0.12599008,0.046687614,-0.15372139,-0.09937548,0.02126557,0.13318186,-0.25403297,-0.030641565,-0.13483632,0.18626665,0.04043855,0.20180556,-0.18195097,-0.055039603,0.25521183,0.15163259,-0.09072796,-0.334427,0.029752087,0.019262262,0.05034053,-0.0813823,-0.024554593,-0.045296818,0.0750681,-0.028041845,-0.08994196,-0.12875995,-0.032737754,-0.1447224,0.22663239,-0.050817825,0.09766661,-0.17097427,-0.06624951,-0.23115923,-0.22044618,-0.017677268,0.17300554,-0.0072518745,-0.05880593,-0.06507916,-0.12892328,-0.27517828,0.03963366,0.032828182,0.06834673,0.077544026,-0.057885345,-0.04894596,0.13774201,-0.111670434,-0.041636262,-0.08916702,0.014469594,0.06519052,-0.01660737,0.004850838,0.26875538,0.09840597,-0.07233269,-0.11770978,0.086412914,-0.01764824,-0.048126575,0.19734587,-0.20031036,-0.16965342,-0.2675335,-0.1568136,-0.14379777,-0.085825674,-0.1428911,0.04364455,-0.09452086,0.011357985,0.15316416,-0.29293376,-0.065271504,-0.16177364,0.24856396,-0.009357096,0.066057764,-0.27229276,-0.13983805,-0.16252682,-0.20889789,-0.08074519,-0.062658675,-0.13190024,-0.13233158,-0.24454784,-0.053291265
28,0.16830286,-0.28756812,0.10104893,-0.2176226,-0.0888848,-0.025997235,-0.2830605,0.014165151,-0.2046202,-0.082316525,0.011768686,-0.20856369,-0.20871744,0.3029691,-0.033469442,0.020132156,0.049116284,0.06433185,-0.1518959,0.1738167,-0.048714187,-0.12897916,-0.05107536,0.054628775,0.050829034,-0.12883784,-0.0564634,0.12733433,-0.16594172,-0.18659899,-0.051814735,0.06504225,0.08159217,-0.121019505,0.034312215,-0.10019609,-0.1554517,-0.22911027,0.030545998,-0.33386427,-0.018717011,-0.22941485,0.12752545,0.1377148,-0.09309624,-0.07178942,0.14796503,0.10218249,-0.069761135,0.35335398,-0.28776544,-0.014096298,0.06853125,0.23291634,0.20175925,-0.13320535,0.11327402,-0.06076301,-0.18682995,-0.010417143,-0.41543427,0.03544986,-0.358301,0.010587356,-0.018855857,-0.013892465,-0.49604487,0.19407593,-0.06909564,0.12884898,0.06934246,-0.19072099,-0.32545403,-0.066943616,-0.021297446,-0.010082791,0.06504625,-0.0045095785,-0.093562074,0.067101054,0.18256527,0.14316133,-0.24058664,-0.03646917,-0.054847535,0.013231615,0.14594321,0.05037418,0.18053526,0.07953689,0.1976722,0.05680651,0.029347956,0.2292783,0.027537864,-0.05617235,0.14453837,-0.07973091,-0.14195293,-0.40160555,-0.11395013,-0.16949698,-0.08849366,-0.07096176,0.111195214,0.5502675,0.25860837,-0.036496203,-0.13886039,0.12663414,-0.24512163,0.24287222,-0.0928669,0.011093127,-0.07625411,-0.31108865,-0.06676696,0.09831475,-0.14438131,-0.2777878,-0.1548986,-0.21961232,-0.16888858,-0.47325873,-0.3200127,-0.01900165,-0.15145256,0.057128984
29,0.12114253,-0.088063724,0.023199303,0.12312954,0.018236982,0.1029919,0.4075821,0.018282712,-0.04243556,-0.13340615,0.090012446,-0.09146571,-0.12131515,0.15361187,-0.1260384,0.115868665,-0.11426531,-0.12304918,0.30294102,-0.15435894,0.032854866,0.118480004,-0.1394101,-0.14149515,0.029506879,0.1853887,-0.12132029,0.11260511,0.03001302,0.020225158,0.13126433,0.20659393,-0.14360271,-0.11275703,-0.17213243,-0.09414168,-0.12064368,0.16713919,-0.26091206,0.031958316,-0.14974725,0.31670126,0.087930635,0.13681671,0.08876904,-0.07237887,-0.19676411,-0.20738606,-0.023585664,0.26110944,-0.2417456,-0.18964799,0.00074469973,0.23602036,0.24133909,-0.42796466,0.04984256,-0.31643328,0.14081058,-0.16884853,-0.15015782,-0.035885453,-0.085582405,-0.29811555,-0.13404043,-0.2471475,-0.22986032,0.14455852,-0.045191567,0.14296806,0.0041445647,-0.06734333,-0.108196676,-0.073412016,-0.19851722,-0.11638468,0.2004127,-0.12885743,0.0075783757,-0.04082842,-0.036396377,-0.006194763,0.034793764,-0.06905749,-0.0013240945,0.19122458,0.09747204,-0.22935498,0.10672739,0.119896926,0.16488004,0.1989382,0.037026457,0.028840354,-0.18369532,-0.19438319,-0.12962292,-0.12204345,0.00369902,-0.0877729,0.015539819,-0.041145656,-0.1302549,0.28111002,-0.080009975,0.18219961,-0.17524697,-0.22306708,-0.1669191,-0.20289251,-0.054893825,0.17631564,-0.1254365,-0.09348301,0.2631801,-0.15113448,0.02801303,0.08386463,0.040018637,-0.076902166,-0.32680452,-0.06658815,0.12129281,0.14728238,0.15091078,-0.16262841,0.051566437,0.016065957
30,-0.11958427,0.17546572,0.12978701,-0.17541854,-0.01700989,0.17368264,-0.08025028,0.028759003,0.09526282,-0.11526052,0.047788303,-0.061986946,0.11716191,0.03489184,-0.21311511,0.13786095,-0.08544309,-0.043098144,-0.10583947,-0.08652584,0.18516445,0.13628969,-0.09565536,-0.19488549,-0.017909603,0.09047947,0.056464665,0.062120404,-0.08987335,0.027045049,0.118030384,0.033139672,-0.14425376,-0.21917519,0.06874348,-0.178631,0.005054141,0.05327997,-0.1327106,0.0040360587,-0.10603515,0.028218038,0.049552865,-0.03243939,-0.07617321,0.0019095091,-0.07950955,0.056448136,0.19704361,0.018388895,-0.076282,0.07009815,0.09530397,-0.01630613,-0.17641014,0.11576272,-0.0463645,0.08718294,-0.07555365,0.12308023,-0.14595,0.12465831,-0.16018789,0.04091081,-0.043634545,-0.03082712,-0.032665845,-0.0977139,0.050057616,-0.3223726,-0.2795361,0.03698734,0.18436588,-0.21616673,0.030318122,0.04487091,0.07970279,-0.16856456,-0.060045514,-0.025113914,-0.12289049,-0.124917366,-0.28304675,-0.12512724,-0.0044962885,-0.25194272,-0.048610926,0.2452475,-0.24545723,0.08751031,0.09214729,-0.009810932,0.083552904,-0.2504611,-0.039881293,0.0055165105,0.062172778,0.2119386,0.020438116,-0.10124896,-0.024854735,-0.030252282,0.107512645,-0.0015593779,-0.1305906,0.020043032,-0.14830522,0.0033969216,0.28127816,0.057316978,-0.036714356,-0.05781454,-0.04602178,-0.0286861,0.008349352,-0.14766827,0.10010799,0.08546332,-0.07948459,0.07434037,-0.07967749,-0.053404525,-0.20115408,-0.22480035,-0.2839422,-0.004028608,-0.11915631,-0.01792988
31,-0.16881235,-0.040293008,0.09836767,0.038444426,0.013151262,0.06329354,-0.30155584,-0.0025883447,0.06276594,0.082671806,0.16824973,0.026466131,0.04467903,0.15220669,0.11966581,0.14629658,0.008503528,-0.032715913,0.074062504,-0.15613621,0.12712818,0.307789,-0.17827351,-0.08864576,0.07407561,0.07713215,0.10112184,0.13545403,-0.028913658,0.17680511,-0.02506157,0.12661217,-0.16913706,0.08767702,-0.08068055,-0.029222036,0.012947759,-0.1390248,0.076059714,-0.03919495,-0.063300006,-0.13790055,-0.09628781,-0.1202985,-0.17579639,-0.036392625,0.112812005,0.099126056,0.058916666,-7.763445e-05,-0.12315129,0.077089354,-0.1817106,-0.54499924,0.049258765,-0.09593548,0.069230385,0.16632627,-0.063829444,0.012505747,-0.025921725,0.032442037,0.053650014,-0.045179904,-0.0024576902,-0.08593294,0.027000006,-0.2625666,-0.14338687,0.079423696,0.12006629,-0.1293795,-0.18333101,-0.30817384,-0.0029667497,-0.024161756,-0.076403596,0.07824573,0.13852216,-0.017431822,0.01666424,0.21576105,-0.038636543,0.01014835,0.05136721,-0.08002559,0.040116034,0.027372353,0.1104171,0.1644872,-0.025009865,-0.12625031,-0.02565158,-0.0067086085,-0.042939626,-0.045467008,-0.28934222,0.018492633,-0.11831069,-0.63057196,-0.08429311,-0.12151779,0.16230924,-0.20844999,0.0069403644,-0.23631471,-0.35431883,-0.080990456,0.042587604,0.04681827,-0.2908811,0.028746706,-0.11532854,0.032757763,0.07151218,0.13291503,0.09022374,-0.11871259,-0.17170145,-0.14347243,0.10098982,0.053644583,-0.11725424,-0.10471793,-0.15413256,-0.13031347,-0.10887741,-0.09205958
32,-0.111965105,0.047416016,0.00524842,0.08466657,0.19742927,-0.046076268,0.42261368,-0.03957845,0.026864571,-0.12220791,0.0034136935,-0.18682319,0.03239922,0.040125642,-0.014605965,0.014006297,-0.1719155,-0.0036632728,0.042434007,-0.03497326,0.078598924,-0.19981866,0.12521042,0.25933355,0.051395018,-0.105818,-0.025868911,-0.0039231554,0.04834415,-0.017094383,0.048872318,-0.20383286,-0.05361111,-0.19717135,-0.11113553,-0.03872531,0.04653202,0.19742395,-0.21395221,0.009853009,-0.24732974,0.23516887,0.07058549,-0.09347391,-0.0038473997,0.05222724,0.1441044,-0.11782416,0.02078793,0.077580534,-0.08508787,0.16001043,-0.09526455,0.0686963,0.008476863,-0.2018844,0.018031405,-0.13460411,0.11294027,-0.18000598,0.052783996,-0.04794514,-0.16088973,-0.15362899,-0.10824656,0.115198314,-0.1302795,-0.075506605,0.011298275,0.20284168,0.21734463,0.18180917,-0.06812056,0.35820323,-0.010828867,-0.36247918,0.19002329,0.016898895,0.07692303,0.082423195,0.100680485,-0.1965206,0.08491137,-0.104978755,-0.1070467,-0.1687656,0.17074676,-0.28035095,0.13727647,-0.0534496,0.073673375,-0.18326743,-0.06600179,-0.08316573,0.02383667,-0.22396746,0.04683312,-0.010082867,-0.18918043,0.37325734,0.06989696,-0.17961009,0.14398302,0.15308914,-0.17623731,-0.105792694,0.0471847,-0.26233962,-0.045161463,-0.101173766,0.23280665,0.059456874,0.058738664,-0.050245117,0.08769745,-0.09074222,0.07058797,-0.05467942,-0.09826808,-0.029794386,-0.025345808,-0.050363977,0.027372014,-0.010541784,0.14285448,-0.07482352,0.03370153,0.0022201
33,0.23239064,0.21821691,0.012433666,0.08781676,-0.41165757,-0.070254885,0.13835514,0.06874107,0.07451025,0.031574327,-0.08485864,-0.10686314,0.090414986,0.18667388,-0.027094793,0.032495596,-0.023717498,-0.17857791,-0.27481604,0.052125096,-0.13524938,-0.10872827,-0.2011876,0.12774922,0.057654664,-0.14829923,0.021239301,-0.20107944,0.16239667,0.0981901,-0.034614198,0.026884867,-0.2762819,0.07084775,-0.08462425,0.30025706,-0.0013439045,0.07903405,0.124657005,-0.09872933,-0.19091822,0.023964476,0.11040413,-0.109477274,0.54178,-0.044900287,-0.07150643,-0.14233886,0.1162202,0.004419245,0.17102559,-0.2390916,-0.039260898,-0.04574629,0.35482374,-0.1203707,-0.14748903,0.010415017,-0.10208109,0.06983586,0.08470484,-0.21319468,0.10461653,0.15744787,-0.17432259,0.0012022239,0.100015685,0.118708655,-0.035223555,-0.0012897076,0.017192254,-0.23787226,-0.21544722,-0.014893207,-0.004560805,0.08465382,-0.028895024,-0.27058047,-0.23022605,-0.014112813,0.08313416,-0.23548512,0.21981245,-0.18456571,-0.23161957,0.06272443,0.032989115,0.039644565,-0.07987547,-0.021477925,-0.07462157,-0.06903651,0.07126605,0.25164208,-0.040395815,0.23438296,-0.021894675,0.03514728,0.019694727,0.4059731,-0.033003304,0.095059246,-0.23484081,0.23664697,-0.09249469,-0.090876825,0.5121536,0.054473087,-0.091992505,0.23869552,0.12386302,-0.5071731,-0.22305033,-0.060569588,-0.14906886,0.05295131,-0.2755355,-0.017750615,-0.16336495,-0.09275987,-0.058967024,-0.02826565,-0.16911113,-0.19084677,0.41586396,-0.06657808,0.0791596,0.08109307
34,-0.2417477,0.25002804,0.18318775,-0.092163324,-0.12310862,0.1383931,0.09886779,-0.090268984,0.14107232,-0.14285633,0.21233559,0.15013784,-0.17879632,0.21842006,0.084263675,0.01226619,-0.346811,-0.22797932,0.038394287,0.013319853,0.10635749,-0.14446993,0.12831229,-0.18572222,-0.14994954,0.052874636,0.0030267036,-0.04753309,0.10977633,0.16928215,0.020827431,-0.0340664,-0.08756483,-0.2164749,-0.375608,-0.009957797,0.038875505,0.3175305,-0.3140354,-0.11851996,0.010897492,0.17115197,0.02344371,-0.03326821,0.002465691,0.070271276,-0.1296664,-0.22667743,-0.10834903,0.11716628,0.17341153,-0.06574161,0.054154117,0.09365799,0.18569179,-0.13571227,0.042321224,0.106746554,0.08164622,-0.0637327,-0.013120161,-0.39369774,0.051279712,-0.007986415,-0.29264176,-0.110692546,-0.046282183,0.13484931,0.022446934,-0.009927948,-0.04725959,-0.23186667,0.09014294,-0.0834035,-0.069598995,-0.13956207,0.1010125,-0.13708586,-0.097998,-0.08554207,-0.12788852,-0.30227405,-0.012091213,-0.41058087,0.019112166,-0.16974393,-0.04730693,0.0015551378,0.12135678,-0.21443146,-0.050853014,0.26022014,-0.09349072,-0.045286022,-0.028884573,0.22959809,-0.052736547,0.14206557,0.088277,0.07888969,0.062526904,-0.15804636,0.035408206,0.0017422887,-0.22531652,0.44902995,0.10083957,-0.21528493,0.05986838,-0.006975304,-0.024397515,-0.1335247,0.109435104,-0.034405146,-0.12892823,-0.22146173,0.12418503,0.15693665,0.12721908,0.057305362,-0.18964998,-0.08213228,-0.04881871,0.031044338,0.27011573,0.17088899,0.08521396,-0.022510625
35,0.0047238874,-0.02916127,-0.21077764,0.0454243,0.06470165,-0.22613923,0.055907868,-0.049823113,0.02020287,0.06538791,-0.14126402,-0.22392243,-0.07685704,-0.068024434,0.0073231813,-0.17324437,-0.14375584,-0.06039477,-0.20505929,-0.015283309,-0.033940732,-0.014259335,0.0132655045,0.059821334,-0.018546304,-0.11427584,-0.033246107,0.0073955776,-0.013679632,-0.047815807,-0.18777204,0.05097446,-0.17635722,-0.17326343,-0.04548813,-0.07088768,-0.07356014,-0.14465466,0.047940787,-0.035922088,-0.086316824,-0.03809887,0.088433325,0.06946143,0.049829144,0.012256196,-0.05491175,-0.21831721,-0.09710983,-0.05098895,-0.060707375,0.038750164,0.19486678,-0.13197039,-0.04617558,-0.103926755,0.23476137,-0.2300401,-0.026032934,-0.0035347145,-0.19100803,-0.09013912,-0.09939457,-0.00056734675,-0.06812555,-0.034195133,0.055898808,0.085729375,0.012699669,-0.083047874,-0.13036342,-0.05986742,-0.14489101,-0.017183473,-0.0721717,-0.051791817,-0.052214634,-0.11964134,0.023902407,-0.06914936,0.046358112,0.013364342,0.054389585,-0.039239094,-0.039701927,-0.31085616,-0.14899845,-0.15584868,-0.07171572,-0.13397512,-0.054212138,0.0067788498,0.040326975,0.039805867,0.011345372,-0.037599597,0.10347145,-0.12203626,0.012674095,-0.04057475,-0.005709898,-0.15426208,-0.051149003,-0.2319836,0.025520729,0.1670156,-0.09586926,-0.13193081,-0.09212712,-0.137637,-0.054835826,0.17097244,-0.01862623,0.028568065,-0.08270244,-0.18252242,-0.049815636,-0.26662636,-0.10133541,-0.09104932,-0.12188893,-0.13433473,-0.08515854,-0.09343656,-0.10052035,-0.111687385,-0.061677005,-0.11089414
36,0.1597461,-0.20251231,-0.2804945,0.046225697,-0.15472767,-0.16848665,-0.022825407,-0.050662532,0.005098163,0.13187334,-0.012276811,-0.024078172,0.06877663,-0.14697112,-0.15746036,-0.10305426,-0.040201433,-0.24172673,-0.112166256,-0.1821689,0.090520345,-0.032613445,-0.11966334,-0.102093734,-0.22364701,-0.17187719,-0.06273726,-0.052164704,-0.20854181,0.041361045,0.06307407,-0.20612566,-0.1449877,-0.033630535,-0.08529206,-0.1005133,0.27404895,0.020732626,-0.17126177,-0.02055053,-0.18526688,-0.08810579,-0.16978697,-0.18253827,0.08607915,-0.020018341,-0.065321304,-0.033626255,-0.12175664,0.17162322,0.027099745,-0.0760104,-0.10113559,-0.12683313,0.09475021,-0.08569058,-0.24270366,0.01294278,-0.058735184,-0.056852095,0.09460671,-0.18935096,0.018370047,0.10955308,-0.1002559,-0.007250754,-0.0909966,0.13685715,0.21581125,0.07606222,-0.1635975,0.047559526,-0.037470188,0.14473113,-0.045796353,-0.03565905,-0.073665924,0.13821322,-0.33880594,-0.07611945,-0.0039624027,-0.014727984,0.019049453,-0.23057686,0.057687573,-0.14079925,-0.27627227,-0.0315099,-0.22107808,-0.16642755,0.007858867,-0.041474067,-0.027625395,-0.0463967,-0.087206654,0.08957652,-0.059804536,-0.029219577,0.03174031,-0.024931667,-0.065535426,0.16080998,-0.054493558,0.012094171,-0.18575957,-0.21492888,-0.27203396,-0.1613881,-0.0154684,-0.0028052644,0.09374235,-0.022936692,-0.09256525,-0.022421192,-0.050880197,-0.12727523,-0.23221152,-0.11995485,-0.072158776,-0.19390485,-0.058787618,-0.239141,0.0302786,0.17440315,-0.18999198,-0.2343688,0.060057014,0.16050214
37,-0.08366563,0.22218473,0.095480405,-0.22544242,0.023805048,-0.012987186,-0.19258675,0.041114375,-0.04869864,-0.06580809,-0.0022134979,0.067061014,-0.008425789,-0.011203191,-0.2274398,0.02640904,0.03030589,0.10797727,-0.11528251,0.08039913,0.29653132,-0.025116172,-0.104040645,-0.13632248,0.047534596,0.017855914,0.014233915,0.08850833,0.048805106,0.16955633,-0.04189808,-0.15554821,0.007178734,-0.03271727,0.083536856,-0.13756734,0.0052023963,0.23277977,0.15193641,-0.020251803,-0.06989345,-0.098591596,0.042030662,0.0029314684,-0.099078916,0.015650358,0.09477828,0.13410401,0.10963952,-0.18788382,0.010908455,0.06138293,-0.009686686,-0.023482248,-0.2135185,0.099002294,0.05644081,0.16827092,-0.028153297,-0.05613724,0.15041953,0.081786975,-0.3661475,-0.20056975,0.07492846,-0.039602667,0.15301432,-0.030667804,-0.10232395,-0.18602017,-0.12959959,0.027359242,0.13505267,-0.15222669,0.1643525,-0.0050749583,-0.101662904,-0.10381282,0.018221546,0.07937589,-0.23318526,0.15999925,-0.106179565,-0.12859641,0.09911628,0.0074643223,0.10726917,-0.203458,0.16133073,0.018300446,0.00040421367,0.19010246,0.016187208,0.072243966,0.023901025,-0.07965023,-0.08303118,0.42115974,0.15433532,-0.36405432,-0.059302654,0.04805779,0.020655453,-0.20412445,0.13027906,-0.48282698,-0.36885992,0.15674894,0.26457915,0.024338108,-0.09178713,-0.012715944,0.051564075,0.056790773,0.08239053,-0.0056523895,0.115331754,-0.07963602,-0.07925,-0.059886914,0.03746574,0.05559645,-0.07340364,-0.18847689,-0.1598146,-0.030718278,0.009520049,-0.08297096
38,-0.21743934,-0.12032248,-0.085392825,0.18944894,0.0362993,-0.24133188,-0.17197712,-0.014756984,-0.013911956,0.08632426,-0.008515986,-0.23846002,-0.11787387,-0.2265771,0.19394417,-0.07010893,-0.17704634,-0.00045890495,-0.103339285,0.23253171,-0.1487473,-0.12517916,-0.000986565,0.17055508,0.11398474,-0.07193754,-0.025325084,-0.18734415,0.04782113,-0.1383067,-0.006893433,-0.2611166,0.04246843,-0.13402276,0.053107277,0.10118034,0.16631329,-0.007102095,0.0144794,-0.14277773,0.09073441,0.059076216,0.0021538634,-0.17775898,0.26355335,0.0574473,0.047672894,-0.05319592,0.1300665,-0.22033608,0.030852402,0.01735847,-0.11523099,-0.14171042,0.043236293,0.21598215,-0.003982549,-0.21698102,-0.20960107,0.109060176,0.02013196,-0.0060417023,0.19374456,0.071135685,-0.27264544,0.022959244,-0.12909487,0.009371211,0.056524202,-0.09491655,0.0537006,-0.15811567,0.081957616,0.022604825,0.0471137,0.09032911,-0.1470238,-0.14516382,-0.18806197,0.0506844,0.25768778,-0.06644157,-0.1486791,-0.095250025,0.021343248,-0.061169967,0.023702482,-0.03317473,-0.035277527,-0.18789794,-0.037956845,0.0037536419,-0.03263315,-0.23241551,0.13692416,0.007227729,0.1225746,-0.1818963,-0.010160799,0.007864899,0.06972722,0.03477713,0.034099042,0.001295875,-0.046771355,-0.38022175,0.083110504,-0.07651222,0.022527097,0.17232667,0.14177962,-0.088609174,-0.044529244,0.002824548,-0.2170847,-0.037199195,-0.23877995,0.07605446,-0.028989986,0.037525706,-0.016989907,-0.05262817,-0.072349384,0.14966147,-0.108583555,-0.20192902,-0.04196242,-0.18423128
39,-0.049349807,-0.12979369,0.14117163,-0.08534392,-0.13812906,0.10385052,0.09676759,-0.05366299,-0.084436946,-0.19254886,0.10511519,-0.07229253,0.07965634,0.5294361,-0.11748719,-0.091541365,-0.08965067,0.09626769,0.19109535,0.002711014,-0.29550695,0.010263095,-0.28930405,0.122908,0.16611205,0.04370252,-0.028949782,-0.19721162,-0.1386589,0.11808769,-0.053033162,-0.07049801,0.18724447,-0.29825035,0.015406818,-0.07043423,-0.100016266,0.20605387,0.130651,-0.07633952,-0.09882027,-0.052330006,0.32090536,0.064668335,0.09194905,0.067981035,-0.14434518,0.047310166,-0.103166215,0.11585081,-0.2712895,-0.18437728,-0.1246595,0.13809405,0.11467708,0.019654902,-0.047272347,-0.106137305,0.16546607,0.06261657,-0.14207493,-0.14795318,-0.23570316,0.15722609,0.14451842,-0.037279878,-0.25683272,-0.10874425,0.16442989,0.05563978,0.054736312,-0.094811685,0.11457064,-0.123400934,-0.19645563,-0.29844338,-0.06501961,-0.16486946,0.05530718,0.06515004,0.09863518,-0.058511935,-0.07297277,-0.055280074,0.15775795,0.07489676,0.3848278,-0.024506386,0.033653796,0.013457477,-0.08979542,-0.0053870613,-0.049084816,0.37231654,-0.1814278,-0.03610268,0.1836058,0.253352,-0.1462748,-0.08637854,-0.06323842,0.16897961,0.118301526,-0.017494388,-0.11525254,-0.021339478,0.08462309,-0.13215593,0.18249795,0.07383625,0.015782336,0.25164646,-0.048993263,-0.072549544,0.12803063,-0.23376413,-0.0114595415,0.16255665,-0.025051745,-0.28158244,0.08979289,-0.06584165,0.08906358,0.031864814,-0.04762883,-0.111180626,-0.06579955,0.11240802
40,-0.12896492,0.00022835619,0.046581432,-0.009155624,-0.10780149,0.10545732,0.09881718,0.05041887,-0.2364547,0.068450876,-0.09886952,-0.32738167,-0.092877515,-0.06742124,-0.01204945,0.11149735,-0.054726407,-0.019434012,0.059937563,0.21514086,0.13744889,-0.1897264,-0.26348662,-0.04197465,-0.035213936,-0.12354622,-0.5093819,0.024884332,0.06302948,0.093399435,-0.062407564,0.2843609,0.09163232,-0.17995113,0.064282745,-0.0918308,0.120911196,0.05357018,0.37481365,-0.27248275,-0.46435905,0.06375327,0.075317495,0.1287996,0.018149672,0.031774692,-0.19127366,-0.15578061,0.25029665,0.16345757,0.111991756,0.036525752,-0.24361935,0.26866305,0.16571899,0.065179996,-0.0013089941,-0.08904301,0.0054461216,0.13501391,-0.08265967,0.124672465,0.097362325,0.17349984,0.0570302,-0.36318228,-0.22448276,-0.14238681,0.2173367,0.039766315,0.13057385,-0.03983553,-0.013454263,0.047556948,-0.1400202,0.017811917,0.16137016,0.04526119,0.083680466,-0.070516095,-0.2735459,-0.31402448,0.09905286,-0.06744166,-0.029665276,0.041129567,0.049820185,0.13894069,-0.059024323,0.08342072,0.064250566,0.12833636,-0.07498352,-0.104303636,-0.16454414,0.025984619,0.037829608,-0.08680095,-0.09199486,-0.12206614,-0.18090163,-0.04931966,-0.10239187,-0.010688728,0.101719946,0.2547805,-0.13070811,0.0987895,0.07070714,-0.033940144,0.14812277,0.061672054,-0.07246828,-0.0014057667,-0.3312418,-0.0036196492,0.030264623,0.03117703,-0.015740681,0.06353572,-0.1700365,-0.3131912,0.041350063,-0.04149704,0.09350766,-0.2167997,0.22073135,0.13894542
41,-0.113078475,-0.05936624,0.13718954,-0.1635757,0.13198344,0.062216457,-0.10623249,-0.076432995,0.1595862,-0.057876155,0.040883373,0.024051689,-0.25293094,-0.3371096,-0.051825635,-0.18264458,0.085949905,0.014285521,0.060245544,0.060351867,-0.21049485,-0.28688487,0.11366147,-0.12568554,-0.13627636,-0.010390416,0.094056316,0.0005920639,0.3244498,-0.3102492,-0.17273377,-0.057735685,0.0768011,0.123495094,0.1931625,-0.21360959,0.22052528,-0.06539426,-0.2087475,-0.07562716,-0.061001386,-0.0010376002,0.15772009,0.03264634,-0.06846587,-0.088353135,0.015828455,0.14736022,-0.29936054,-0.11862431,0.02934083,-0.19362956,-0.044926386,0.062282,-0.17706105,0.057418387,0.11640702,0.11982453,0.006546884,-0.0613093,-0.026771612,0.12579937,-0.19276527,-0.40992415,-0.17150423,0.23394884,-0.07656969,-0.017245032,-0.12909283,0.0927352,-0.13822936,-0.2442288,-0.35090214,0.041703142,0.15282667,0.06230616,-0.28408945,0.21093723,-0.31086665,0.026990408,-0.08746567,0.02831357,-0.17447002,-0.0030808789,-0.09204422,0.17229898,-0.17763259,-0.020753317,-0.017130218,-0.11720956,0.05542223,-0.07015199,0.052392438,-0.1905555,0.102473065,0.10655236,0.0009105821,-0.13729417,0.119075224,-0.1174291,-0.29117522,-0.083759286,0.030915555,-0.19401488,0.02910706,0.24609327,-0.22755887,-0.055165928,0.024999848,0.1486765,-0.028039228,-0.07507243,-0.045799185,-0.017329719,-0.07255148,-0.1643989,-0.03002366,0.22074032,-0.26933342,-0.30110416,0.020398298,0.11301106,-0.055700693,0.05807286,-0.032618202,0.090088174,0.13349749,0.12562841
42,-0.011780017,0.14101924,-0.16883408,0.22418518,-0.040903617,-0.17061536,-0.36895615,0.010003713,-0.15887108,0.031151151,-0.02988179,-0.08338369,0.02603994,-0.15399228,-0.1185402,0.09205419,0.10985045,-0.16153817,0.016814994,-0.048455928,-0.0827257,0.04298075,0.022012519,0.13304058,-0.041076943,-0.14450465,0.09588019,-0.23946191,-0.1513055,-0.06615808,-0.037973188,-0.07570052,-0.06465362,0.06495054,-0.0014578145,0.22680798,0.15135226,-0.12184157,0.20891827,0.05284404,-0.098860405,-0.061406672,-0.022193998,-0.06457566,0.10637972,-0.08787901,0.007600282,0.035216015,-0.13434154,-0.30615366,0.07375148,-0.08373065,0.07284972,-0.17178555,0.058453787,0.0384385,-0.12699574,0.14168635,-0.0688823,0.061955784,0.22877821,-0.22238013,0.15082864,-0.06775595,-0.39647755,0.07539709,0.07523593,-0.05124797,0.12013297,-0.08723766,0.17295559,0.041660294,-0.021446127,0.1753181,-0.06473424,0.29891902,0.00614191,0.140827,0.0652362,-0.05011072,0.1644123,-0.07049185,0.26846835,0.03296742,-0.23750295,0.06880194,0.014197993,0.08487509,-0.17834118,0.01724907,0.030263115,-0.085528925,-0.09046165,0.23534128,0.18869297,0.06988782,0.010364795,-0.1789621,0.06855159,0.27397946,0.25693867,0.06973265,-0.13971947,-0.029053757,0.077977,-0.27103603,-0.031477127,-0.012325125,0.03671311,0.087367214,0.31892955,-0.20745485,0.11912338,0.061809577,-0.1476497,0.22983503,-0.24888302,0.05131462,-0.05585051,0.18383291,0.04205071,-0.0127318315,-0.11701146,0.11375096,-0.012308824,-0.06262754,0.05151193,0.066940576
43,-0.15433438,0.10348438,-0.08790602,-0.06798386,0.13131097,-0.0014191386,0.14430062,-0.061871044,-0.15308204,0.07843745,-0.12336467,-0.25696486,0.060281992,-0.2885055,-0.2790951,-0.2313185,-0.10879817,0.025939168,0.20432405,-0.18696219,0.1177927,-0.029382447,0.008655798,-0.15172577,0.071504764,-0.13503906,-0.04056585,0.15369599,-0.32592502,-0.059211697,0.119000494,-0.22138669,-0.076607704,-0.118536696,-0.10487484,0.008602746,-0.13172618,0.035650063,-0.06502855,0.17145972,0.09310501,-0.046268247,-0.24685843,0.06260244,0.108164035,0.01799729,0.06198118,-0.057262268,-0.37317243,-0.12991142,0.05742796,0.010126272,0.10088726,0.12099835,0.1603773,-0.14684622,-0.096329466,0.018492367,0.08592735,0.07854214,0.2358822,0.00889567,-0.36801234,-0.1517531,0.13862102,0.2460018,0.09199519,0.14832518,-0.13850327,-0.035569727,0.11437725,0.12802534,-0.27579808,0.17379177,-0.07187467,-0.22048748,0.055154182,-0.07345042,-0.07446622,0.07177954,-0.33785298,0.04778442,-0.02123677,0.038786672,0.12982124,0.045477882,-0.21408972,0.010598073,0.033557884,0.1299475,0.0037709698,-0.085968986,0.07396922,-0.1247046,-0.04179932,0.1518816,-0.051509127,0.2313481,0.009464254,-0.027383804,-0.01669729,0.048894588,-0.0822307,-0.023895511,-0.0034361512,0.20414059,-0.24608631,-0.0493909,0.15477404,-0.14844634,0.016533596,0.15017949,0.16472882,-0.0642842,0.18317553,-0.021746334,0.05964524,-0.04131696,-0.12229762,0.02379443,-0.07377502,0.012720408,0.12856507,0.09490842,-0.10649516,0.064071044,0.07315505,-0.1447415
44,-0.008371967,-0.11967447,-0.11702889,-0.054750517,-0.18577917,-0.011162902,0.16151386,-0.0069178306,-0.09441589,-0.025158068,0.030202746,-0.09625463,-0.04190975,0.2699764,-0.13779387,0.07179396,-0.12909235,0.115831114,0.063740574,0.01880517,-0.10065648,-0.09484556,-0.25003386,0.21853155,-0.124513984,-0.13721073,-0.0991593,0.21318337,-0.100403786,-0.15112202,0.013791964,-0.015249884,0.19276012,-0.23131232,-0.05649823,-0.17746873,-0.04993324,0.15542756,-0.121005885,-0.31534657,-0.15001151,-0.007322304,0.12714645,0.088238046,0.04166336,0.033141773,0.020860234,-0.030647943,0.058387786,0.18738444,-0.20093682,-0.15720606,-0.16269438,0.14288694,0.0026605423,-0.20878631,-0.041432004,-0.009258727,-0.028920261,-0.021980016,-0.22175236,-0.048699033,-0.35295445,-0.2962102,0.09453017,-0.024254307,-0.2980019,0.03452381,0.08477636,-0.026845206,0.12541488,0.11727796,0.030862654,-0.16791695,0.005778166,-0.24903569,-0.06257534,-0.040732615,-0.02828838,0.016057258,0.077645056,0.17134778,-0.3121899,0.027550459,0.07198242,0.14263311,0.17257465,0.1338692,-0.09316881,0.13234434,0.16063489,0.02299706,-0.10416754,0.20312874,-0.11000693,0.15800317,0.035061296,-0.021538652,-0.28863356,-0.12889655,0.003315861,-0.18307544,0.10092019,0.11570696,-0.021878881,-0.2195791,0.20083354,-0.015436019,0.058272038,0.07079797,-0.04757153,0.21406265,-0.10983239,-0.04541087,0.09038712,-0.2592078,0.038625218,0.16262706,-0.13342781,-0.13023823,0.035182457,-0.14283545,-0.028289849,-0.09669681,0.082066394,-0.07804712,-0.06556585,0.22847857
45,0.00082596426,-0.055531237,0.09221019,-0.040957715,-0.07650876,0.12872949,-0.3961075,0.009799448,-0.14028963,0.16683252,0.10761515,0.05053068,0.038935915,0.012800836,0.069892,-0.04645264,0.14117867,0.12230222,-0.14089462,0.17001046,0.028724788,0.1261151,-0.21844281,0.22214986,0.044010468,-0.23980878,-0.013732109,-0.0904017,-0.122457266,-0.19982828,-0.095729865,-0.0061575994,0.099595875,0.097648196,0.2747165,0.067011334,0.060696494,0.06863795,0.009316141,-0.36855158,0.04512354,-0.2299495,0.0023046096,0.07800986,-0.050526828,-0.010803998,0.0872305,0.15958829,-0.13168271,-0.12953389,0.06293513,-0.112837896,-0.13964929,0.041236106,-0.19528227,-0.010181289,0.030427366,0.06967852,0.10162497,-0.21733573,-0.091543205,-0.044430196,-0.04498223,-0.110574,0.14237228,-0.04685557,0.05847904,-0.30242255,0.19720073,0.10122978,-0.05114479,-0.02116985,-0.16805223,-0.21180347,0.161644,0.06996445,-0.20063308,0.23647064,-0.14895113,0.04790266,0.019102305,-0.021840034,0.12623937,0.11309542,-0.25406605,-0.1714601,-0.1374025,-0.067775406,0.14756554,0.043365583,-0.16941552,-0.0014292562,-0.02359076,-0.031602826,0.0906099,-0.2778269,0.21017718,0.09943556,-0.1304792,-0.18403658,0.0843979,0.044847265,0.024628188,-0.35422674,-0.014491436,-0.14813563,-0.4828703,-0.058545075,-0.11796162,0.12711406,-0.03380917,0.15304267,0.0075474787,0.084383115,-0.216367,0.20364359,0.045582797,0.16898878,-0.07461365,-0.08543843,0.14593107,-0.052278884,-0.13946795,-0.0049105156,-0.15534768,-0.31059977,0.015633373,0.07687371
46,0.0132247945,-0.08961629,0.06845203,-0.034160107,-0.111169234,-0.050413176,-0.020723643,0.028057147,-0.059709083,-0.11359373,0.029000362,-0.30846363,0.008314657,-0.016058616,-0.047283445,0.09496154,-0.23729788,-0.17849238,-0.006110164,-0.21118674,0.057698645,0.197464,-0.017476762,0.007049537,-0.04751738,-0.020429417,-0.35620493,0.05362925,-0.048815075,0.13483009,0.04300485,0.23959245,0.29174393,0.11182806,0.0054129623,-0.17082408,-0.17619704,0.15699153,-0.04831208,0.070858024,-0.3260354,0.06927878,0.19767459,0.11796233,0.026629131,0.055898797,-0.00730105,-0.15154548,0.15211,0.054276865,0.06293488,-0.013757084,0.051469624,0.091958866,0.015809173,-0.24238056,-0.009381505,-0.10390016,-0.164788,0.03650409,0.08157516,0.016542168,0.14957249,-0.008752349,-0.2510364,-0.21506152,-0.27757794,0.032852236,0.09002972,-0.038086247,0.23162067,-9.8045675e-05,0.062124997,-0.17069781,-0.38624823,-0.1501987,0.10469648,-0.21914962,0.16206057,-0.06459939,0.03262279,0.2055714,-0.046267487,-0.2035054,0.044734567,0.18723914,0.25171238,-0.018858796,-0.042688336,0.06166039,-0.0034339537,0.06321649,-0.111826114,0.0139320325,-0.33767414,-0.09654679,0.0002594815,0.064093575,-0.32510567,0.0023806344,0.06952215,-0.06447622,-0.17503099,-0.0058537344,0.02236541,-0.04886064,0.08476045,0.09766572,-0.09098813,-0.0013909941,0.13371734,0.3146776,-0.018354924,0.021682302,0.06768566,0.050231256,0.22136402,0.09503635,0.22239009,0.14527509,0.070382744,-0.31006438,-0.050222393,0.062877454,-0.09953902,-0.055498946,0.062543534,0.07871625
47,-0.19453365,0.1673203,-0.122720964,-0.043417875,0.15863602,-0.31825748,0.17229477,0.0045001665,0.12057644,-0.34565037,0.1105624,0.05033715,-0.22234854,-0.40652734,-0.1571282,-0.05996227,-0.05897439,0.07639442,-0.030614715,0.2973697,-0.031407673,-0.4238446,0.14822656,0.34452268,-0.058076527,0.057589695,0.030886669,0.05655436,-0.17771533,-0.08333453,0.16981499,-0.33686626,-0.18403669,-0.10043758,0.19797118,0.08873151,-0.024304308,0.12232028,0.023241859,-0.010265284,0.21725331,0.0017793787,0.040924378,0.027706757,0.0012487805,-0.05397442,0.120136335,-0.26372054,-0.16919571,0.07241392,0.35364777,0.010828096,-0.17181282,0.04604896,-0.053226985,0.117954426,0.18819241,-0.009755496,0.11409794,0.18639408,0.018444518,0.030430986,-0.054116186,-0.2926897,-0.031514928,0.01641884,0.12660716,-0.023071885,0.08708123,-0.14722349,-0.20492882,0.076611646,0.1440488,0.1641803,0.23215742,0.02224436,0.15125495,0.1273885,-0.36827588,-0.0014958344,0.002874954,0.0336515,-0.095538534,0.055229783,0.097741336,0.020682016,-0.0355857,-0.1294537,0.090915516,0.023639705,-0.02424851,-0.37783086,0.058172178,-0.36055708,0.20323998,0.14707589,0.2183798,0.0799399,0.032795228,0.05381953,0.035608664,-0.09181011,0.14277318,-0.034896046,-0.09247591,-0.114956364,0.1197255,-0.13763855,-0.06684649,-0.07247237,0.22298367,-0.15638284,0.14665058,-0.04826233,-0.33903202,-0.07040731,-0.1999707,-0.15696494,0.026834091,-0.03251941,-0.36453155,0.026483338,0.044937886,0.010461884,-0.034616113,0.2263883,0.01849325,-0.26787084
48,0.056901276,-0.14867264,-0.17936142,0.30939704,0.07530372,-0.2995433,0.022373263,-0.023179637,-0.017027903,0.15623687,-0.07483462,0.09324988,0.0015573474,0.16549213,0.28091958,0.025891192,0.04950305,-0.17947905,-0.09428993,0.051798128,-0.249059,0.11942965,0.15352425,0.101537816,0.067452006,-0.015919775,-0.032790255,-0.2488096,0.21412766,-0.0007693986,-0.109298,0.1449768,-0.07640384,0.12618054,-0.06243966,0.120946646,0.05958635,-0.12980658,0.053337246,-0.031023258,-0.1326282,0.062297463,0.07316496,-0.30972928,0.0190336,-0.080996215,-0.031133372,-0.19426152,0.09602214,0.0009255295,0.030464329,-0.0016869534,-0.07141742,-0.06471954,0.07726731,0.02008336,0.0027621905,0.124101296,-0.112761095,0.09990776,0.109515965,-0.15633184,0.28727317,0.1479485,-0.26005974,0.10348671,-0.04335083,0.0736816,0.11554537,0.12881002,0.18638195,-0.06602101,-0.15977351,0.0489517,0.0580439,0.09797603,-0.010836767,0.0732037,0.10500163,-0.0405067,0.3289312,-0.11254464,0.107585974,0.11907313,-0.1588053,0.044668686,-0.028228138,-0.012486999,-0.003962497,-0.022274178,-0.060562693,-0.16989869,0.045756377,0.23801887,0.15129367,-0.13420352,-0.10701843,-0.28953636,0.14169751,0.3566572,0.098283336,-0.025336798,0.06091595,0.257326,-0.15049154,-0.36753866,0.32734793,-0.044607066,-0.23304033,0.13167213,0.32883647,-0.30156243,-0.0073837307,-0.02374735,-0.06736738,-0.01455425,-0.1647352,-0.053458203,0.058863472,0.19517644,0.08903383,0.057868052,-0.06702849,-0.04916872,0.08394972,0.11951885,-0.12451369,-0.022228697
49,-0.07872137,-0.25178468,0.15243484,-0.10404764,-0.12525739,0.083553314,0.24010016,-0.07742984,-0.11797684,-0.124441214,0.03043926,0.1706141,0.028320353,0.071520865,0.056100957,0.042122357,-0.10932864,-0.24748838,0.11248771,-0.2561103,-0.1713157,-0.01471194,0.030899294,-0.12587982,0.03510652,-0.016002059,-0.075713076,0.018860947,0.05233306,0.07676906,0.0055496907,0.2266059,0.0044577383,-0.38596168,-0.21168797,-0.17813051,-0.10642128,0.090059735,-0.025229085,0.21168819,-0.305624,0.04090517,0.12431702,-0.010347109,0.11619116,0.08347003,-0.21012369,-0.14090613,0.057818413,-0.03927783,-0.17200895,0.16255069,-0.021021321,0.3551232,0.07882786,-0.15369867,0.0437936,-0.1914016,0.072071694,0.03007024,0.02898948,0.08644769,0.25800425,0.31560493,-0.22905056,-0.017605787,-0.060711555,0.025542121,0.14509535,0.087309,0.023341341,-0.09235614,0.2813777,0.24275652,-0.38011563,0.020173145,0.16208142,-0.17494294,0.0841217,0.05172554,0.18672022,-0.24841571,0.11311187,-0.042445187,-0.0984329,-0.05163484,0.07182899,-0.10941453,-0.050724525,-0.0040131416,0.017556818,0.11800666,-0.0038796861,-0.009304121,-0.19587083,-0.009368939,-0.07421072,0.017959852,-0.01852348,0.17545743,-0.28675085,0.1379205,-0.06281881,0.2445246,0.058596935,0.15914276,0.14582174,-0.0865111,-0.029654779,-0.062588215,-0.014189807,-0.15190911,-0.07276379,-0.03122757,-0.0132951,-0.21137962,0.025408119,-0.08310285,0.14756119,-0.091590695,-0.17772987,0.095569186,0.07600465,-0.044893328,0.09844853,-0.00811935,-0.07529753,-0.030105043
50,0.13407214,0.20794737,0.15900044,-0.29352197,-0.2508898,-0.028975792,-0.22610047,0.06274099,0.18687582,-0.07453038,0.0039281915,0.37331748,-0.093770795,0.30150288,0.1782511,0.0454897,0.031215005,0.079370625,-0.05885502,-0.08275606,0.13477603,-0.24000318,0.21360432,-0.2353088,-0.04935763,0.095179714,-0.029603764,0.055724442,0.16583282,0.12818435,-0.0170051,0.15083948,0.02988477,0.0057158093,0.033869997,-0.23137088,-0.08271398,-0.31244096,-0.02946241,0.23036051,-0.07931158,-0.25122547,0.13457382,0.15106767,-0.28710672,-0.007831002,-0.086183466,0.02909371,0.024639737,0.31194103,-0.1637845,-0.12032014,-0.07758458,0.21552832,0.029982926,0.2870539,0.18211877,0.0038933258,0.029219724,0.02227874,-0.12937367,0.10287216,-0.13713871,0.010570003,-0.120655596,0.19482109,0.024565862,-0.15163668,0.052573435,0.055868007,-0.046563346,-0.18723701,0.08098492,-0.21321526,0.013247521,-0.024939783,0.098264076,0.0048233704,-0.08068768,-0.0019141275,0.12594132,0.15847266,0.030274313,-0.19401194,-0.066619344,0.09483807,-0.25091797,0.13045813,-0.030777024,-0.009408519,0.13853365,0.17133039,0.0065830885,0.06803758,-0.07911354,0.15889397,0.026355509,0.17992805,0.15976053,-0.1309218,-0.17849395,-0.13027002,-0.037994746,0.07089952,0.008410939,0.19703865,-0.099079974,-0.10579253,-0.035517607,-0.05492804,-0.3986346,-0.113931485,-0.222413,-0.06908612,0.2005089,-0.3278803,-0.05517206,-0.051651318,-0.15087546,-0.06476413,-0.045392893,0.099070735,-0.2994297,-0.28319877,-0.011291433,0.04620048,-0.14235821,0.04434965
51,-0.33784342,-0.023114543,-0.1196105,-0.24702594,-0.01248371,0.29517078,-0.23195928,0.0068050725,-0.0024119157,-0.14206417,-0.033175312,0.113332614,0.039916165,0.005899979,-0.3077557,-0.07248033,0.039716586,0.18252435,0.012294851,0.026872313,0.24902312,-0.25910386,0.046565704,0.022878505,-0.12519965,0.17791162,0.03554279,0.24986702,0.072230615,0.032579537,-0.0077336277,-0.31581813,0.0845261,-0.33403754,-0.0069314125,-0.039006412,-0.008456217,0.29285148,-0.00083335413,0.24037212,-0.0656374,-0.09234675,-0.09299374,-0.22702517,0.098072365,-0.033444982,0.08755601,-0.12305421,0.05483598,0.013965226,0.0023970867,0.12927532,-0.052712545,0.22698697,-0.1240076,0.025540965,-0.07000277,0.16248369,-0.22033042,0.1655056,0.07410603,-0.044044174,-0.21311411,-0.18177216,-0.06629416,0.05244945,0.16255093,0.0056071198,-0.32804254,-0.041089963,-0.07018227,0.0318375,0.22181855,-0.0071712914,-0.05285547,0.04406154,-0.09637177,-0.042624548,-0.03379215,0.034498036,-0.23653527,-0.047620527,-0.011175962,-0.061804075,0.12600927,0.013203271,-0.1448363,0.09456012,-0.008376547,-0.07099853,0.14502104,0.062465277,0.021302845,-0.12607986,-0.17886077,-0.03141419,-0.107584134,0.3459799,-0.036101792,-0.21230705,0.016439097,-0.014205941,0.1931845,-0.19316477,-0.08823439,0.29381314,-0.17983359,0.15698305,0.3538838,-0.04411939,0.104338,-0.16256988,0.11853828,0.059264157,0.18091671,-0.13317235,0.27772933,-0.08424775,0.036191553,0.15871152,0.25624076,0.03520169,-0.043098174,-0.2605903,-0.18398535,0.25156745,0.04535597,-0.027524512
52,-0.014059403,-0.086362064,-0.18257515,-0.31887972,-0.038717635,0.18890804,-0.09265752,0.007133126,-0.060921855,0.054439213,0.1334279,-0.014643114,0.11557039,-0.42884234,-0.053598866,0.016766261,-0.020574044,0.04942366,-0.05404635,-0.45347562,0.12060141,0.23790982,-0.04047147,-0.25708658,0.08515623,-0.007877398,0.17717287,-0.054224245,-0.15466537,0.0021716247,0.12409194,0.014475871,-0.10351592,-0.13992754,-0.14851108,-0.20459504,-0.11400444,-0.039663546,0.15326062,0.048992194,0.05136109,-0.024118794,-0.31398183,-0.05925107,-0.12672092,0.008293268,0.020165822,0.0048988853,-0.0034592852,0.05193643,-0.14709742,0.09334169,0.030618457,-0.07125506,0.055519708,-0.009102196,0.04244623,0.05117121,0.17677945,0.0731999,0.05219767,0.033085432,-0.045780525,0.033883713,-0.08071116,0.110472776,0.07648785,0.07439169,-0.36251277,-0.036589686,0.024714783,0.1585728,-0.0061852844,0.015841082,-0.06301072,0.067100845,-0.06449066,-0.0035362316,0.15509887,0.055472627,-0.08685949,0.14746298,0.13028328,-0.04792151,-0.14989175,-0.049364354,0.028250683,0.0717231,0.3068103,-0.045700014,0.022583365,0.07213188,0.09486957,-0.09023285,0.13898374,-0.06088411,-0.104265,-0.184993,0.10285591,-0.36199552,-0.18013297,-0.03549259,-0.16669141,0.009522554,0.07074772,0.04928312,-0.104586124,-0.03280367,-0.0022808108,-0.19211441,-0.10305459,-0.031277325,0.12268272,-0.022063509,0.1704567,0.2346166,0.09095591,0.086748704,-0.22466508,-0.012614317,0.09140049,0.000138033,0.049015615,-0.103303045,-0.037524767,-0.051125266,-0.07445005,-0.30620196
53,0.018132407,0.104937956,-0.24951601,0.12381487,0.21708773,-0.022019908,-0.34435952,0.08678604,0.15945551,0.3518547,-0.055710312,0.02394154,0.07403012,-0.076120526,-0.06290367,0.071359806,-0.08653522,0.13346182,0.03485087,-0.04265677,-0.0037439317,0.101872884,-0.061685443,0.124564715,-0.019221157,0.08131105,-0.0702931,-0.054586537,0.060931176,-0.024442498,-0.09862813,0.19935265,-0.115331255,0.23504594,0.15789655,0.22832873,0.1545573,-0.20580082,0.026958087,0.008190576,-0.039683063,-0.22411542,-0.16409226,-0.25153872,0.020595944,0.085554644,0.0890577,0.08105727,-0.01454893,-0.44215292,0.13954626,-0.263218,0.030983992,-0.22782242,-0.1909894,-0.04205487,-0.07666874,0.1597835,-0.04006056,0.13177225,-0.04943099,-0.14784001,-0.045109272,-0.15838316,-0.014651997,-0.08380589,0.27262133,-0.23917519,0.108111374,-0.062051535,-0.119066656,-0.19978245,-0.4058843,-0.33780408,0.19028465,0.12695158,0.10371842,0.03026685,0.09687104,0.072458394,-0.10699562,0.15448628,-0.21765138,0.23663095,0.016216058,0.09785107,0.10514764,0.024535649,-0.044541053,-0.08167004,-0.082405314,0.0021525526,0.055107083,-0.24350935,-0.10209868,-0.057058804,0.10417018,-0.0942881,0.016254645,0.068272635,-0.22209643,-0.06383717,-0.10280764,-0.028586306,-0.08256901,-0.28746462,-0.053094182,0.08016314,0.09540889,0.09969645,-0.05050688,0.14589262,0.05572997,0.05334762,-0.17916445,0.17202297,0.06976279,0.058803502,-0.2010671,0.13077362,-0.084577784,-0.06700842,0.0500168,-0.36796284,0.14283557,0.037677225,0.001876961,0.13739073
54,0.08063576,-0.15753058,-0.3891661,0.12420715,0.2402429,0.02774756,-0.43764496,-0.012863821,-0.16899177,-0.1553228,-0.060323253,-0.012685595,0.032477092,-0.15065038,-0.12520996,-0.27313268,-0.045125384,0.10070999,-0.05416635,0.0326127,-0.24816589,-0.10304883,-0.014839744,0.16340758,0.05962964,-0.114151485,-0.08190484,-0.18118185,-0.13525528,0.098554574,-0.074258715,-0.1513956,-0.039485887,-0.04002162,0.007729215,0.16229992,-0.05523608,-0.108154155,0.056682356,-0.13426572,-0.099848054,0.054045565,-0.4335607,-0.25103447,0.21615404,-0.061479397,0.00941791,0.095105916,-0.09377309,0.1542631,0.18249653,-0.2642148,0.087682866,-0.07935003,0.044317152,0.01529462,-0.26112428,0.06551277,-0.027516725,0.014719722,0.028686069,0.01731254,0.027272582,0.21840113,-0.09733494,0.20742305,0.0016962251,0.11318881,0.115019634,-0.11621146,-0.03618014,0.03676123,0.08245161,0.043979,0.03754619,0.109193705,-0.42699328,0.13338073,-0.02215216,-0.0500297,-0.05490331,-0.027250651,-0.36021593,0.117557585,0.17522198,-0.07545752,-0.08154342,0.22718598,-0.1515424,-0.12586746,-0.09161813,-0.29211327,-0.08595442,-0.20481709,-0.084767036,0.19657676,-0.096074685,-0.043742295,0.17334788,0.43451467,-0.043534275,0.22083516,-0.04596646,0.16377144,-0.0035787004,-0.23177998,0.3448138,0.08470741,0.299313,0.01607747,0.12827575,-0.25747424,0.039670948,0.01388219,-0.05177047,-0.06004979,-0.09157621,-0.14720383,0.109211534,0.08966491,0.005339261,-0.12904352,-0.085015185,-0.22360834,0.14021142,0.15276708,-0.083352104,0.034724653
55,0.2003736,0.28025553,0.1754685,0.065590866,0.1289044,-0.05993291,0.030511769,-0.070371486,0.049713977,-0.4369058,-0.038708314,0.1489062,-0.11490147,0.32497096,-0.10194212,-0.28527698,-0.092950255,0.07505542,0.0769953,0.108028874,-0.060077094,-0.36318198,-0.07043537,0.15197061,-0.03158891,0.025990533,0.04883997,0.14199057,-0.045511838,0.12901,-0.02493979,-0.54467,-0.04004053,-0.2807345,0.10248404,0.18748935,-0.010247046,0.1851977,-0.2109708,0.2192543,0.12691309,-0.056504965,-0.003034237,0.08423311,0.11157075,-0.020843366,-0.08807941,0.12695993,-0.037672047,-0.16330756,-0.062273886,0.2762386,0.09059629,-0.11486442,-0.03028987,-0.1681806,0.08720388,0.080610245,-0.02935653,0.16119845,0.17047603,0.1535983,-0.326837,-0.16538838,0.29822204,-0.0712737,0.11224956,0.19811866,0.1305275,-0.17546454,-0.18670753,0.22381413,-0.11653119,0.13883613,0.12599316,-0.36818197,-0.25885788,-0.03173173,-0.17465739,-0.0072026034,-0.13432872,0.04091394,-0.26613268,0.07377283,0.16049485,0.11264627,0.021364724,0.118639685,0.014159616,0.13703083,-0.016066894,-0.19936424,0.07377732,0.032872546,0.096053876,0.2681221,-0.033862356,0.27164397,0.07083004,0.13307007,-0.08049399,-0.06328249,0.0064818845,0.048040602,0.003966889,0.15564042,0.12470109,-0.0026373067,0.14878643,0.10139952,-0.045744475,0.10717124,-0.08740334,-0.04674507,-0.1190015,-0.11665532,0.25579676,0.030992737,-0.1971837,-0.26341176,-0.15281166,-0.011847976,-0.03962819,-0.16597572,0.16991976,0.05602524,-0.06308551,0.18198639
56,0.0052753533,-0.056551076,-0.027009748,0.20577951,-0.2898669,0.11773424,0.15485409,-0.00011450936,-0.0038362315,-0.012903289,-0.09584917,0.23508035,-0.09995102,0.28476197,0.19983172,-0.107389845,0.07037951,-0.19370463,0.0312867,-0.2869148,0.23566884,-0.017616972,0.03431916,-0.41965383,0.07616781,0.03119771,0.18574198,-0.32223937,0.13549766,0.25614133,-0.503694,0.17704651,-0.18586628,-0.05348516,-0.58298665,-0.31687135,0.045199692,-0.021192273,-0.0866961,0.05556073,0.047556955,-0.1123614,0.06939667,-0.121358134,0.014508763,-0.095282845,0.04075214,-0.055875428,0.12364465,0.10761765,-0.009866115,-0.1137896,0.008017611,-0.2568301,0.1500576,0.19904879,-0.14482975,-0.024481902,0.11719803,-0.13240796,-0.07868916,-0.42668974,0.12666202,0.2716234,-0.0973854,0.11923058,0.07132906,-0.061366215,-0.20479855,-0.26503772,0.0015306226,-0.13671774,0.05355577,0.009258306,-0.1590636,-0.108118966,-0.106470756,-0.35837114,-0.073274344,-0.030758474,0.19930334,0.07873806,-0.04644162,-0.16873367,-0.16619879,0.14639454,-0.113932796,-0.017069237,-0.12307492,-0.5305551,-0.047009125,-0.2405496,-0.15168849,0.30047145,-0.025238024,-0.045073297,-0.16985157,-0.14239606,0.17372869,0.13507749,-0.18047078,0.011431667,0.15461998,-0.008430597,-0.11682741,0.11974913,0.3669529,-0.18794525,-0.12667589,-0.11645639,-0.1392958,-0.28628626,-0.11323783,0.021019807,0.17833613,0.09067364,-0.08727187,-0.10275462,0.08248778,0.011620307,0.16243114,0.16191049,-0.09245045,0.07671147,0.16831155,0.046617996,-0.16600034,-0.3055856
57,-0.12403035,-0.06349885,0.03565879,-0.062291317,-0.0202486,0.14564627,-0.26373398,-0.05680234,-0.027852131,0.066094674,0.20825212,-0.033444688,-0.050512597,-0.087612286,-0.0060620727,0.04486376,-0.11135287,0.123284385,-0.07515082,0.0028875254,-0.002655667,-0.26910076,-0.035884578,-0.005841972,-0.21720554,0.0299616,-0.00040101743,-0.032016806,0.0023428493,-0.3174426,0.033211455,-0.15979123,-0.0646941,0.019277448,0.0046640984,0.07243582,0.16191314,-0.23800653,-0.30478263,-0.14049126,0.018402943,0.0945722,-0.27862403,-0.2762283,-0.03474018,-0.009173787,-0.049667012,-0.13451217,-0.04017318,-0.021968652,-0.23639154,-0.23126152,0.04640064,-0.10989775,-0.22700788,-0.015511745,0.1537097,-0.0459209,-0.009584511,0.016220288,-0.060226638,0.1250083,0.1168881,0.047669474,-0.0073889825,-0.13219655,-0.20412286,-0.04595122,-0.007967263,-0.26411203,-0.28620547,-0.039326522,-0.09630375,-0.09979333,0.09392801,-0.056954306,0.16722813,0.267814,-0.095876046,-0.0146769285,0.023240551,0.029538583,-0.21518256,0.109678954,-0.063728705,-0.13818233,-0.32560804,-0.046877827,0.18775153,0.08689639,0.028257946,-0.055843607,0.0010724518,-0.23392919,-0.13981919,-0.095379986,0.18624978,-0.14520703,0.043956563,0.04777521,-0.043897703,0.033015147,-0.18807487,0.21997966,0.21020173,-0.12218421,-0.1313848,0.063199505,-0.07852906,0.08798272,-0.008775359,-0.24588421,0.16131024,-0.070992164,-0.26854214,0.08414963,-0.16992195,0.117237866,0.06778563,-0.032509614,0.08015238,0.15901697,0.13748322,0.047144137,0.15363298,0.18113005,0.08876682,0.1620717
58,-0.3375374,-0.029123068,0.00015479265,0.01414336,-0.054546606,-0.012065352,0.026852775,0.06175095,-0.08262501,-0.34085923,-0.22443065,0.11114285,0.10323941,0.115136154,-0.030347547,0.15290539,-0.3061694,0.22971344,0.05915793,-0.076460786,-0.32015985,-0.26092058,0.12490058,0.097743645,-0.08908995,0.05433992,-0.031696986,-0.101208426,-0.02425843,0.15347579,-0.11930651,0.025160596,-0.17374097,-0.017532397,0.15321504,-0.077649966,0.01624408,0.1744085,-0.12597178,-0.016509775,-0.3160772,-0.22739445,-0.055298597,-0.028419998,0.13492218,0.039728943,0.104263775,-0.31922576,0.1146018,-0.005249416,0.004261981,-0.031372152,-0.32638526,0.13689667,0.09550553,-0.26902413,-0.18292463,-0.24195668,-0.086068355,0.07166114,0.07312923,0.18435794,-0.114716254,0.21205156,-0.15636042,-0.26966956,0.015109265,-0.10318377,0.13155495,-0.10916124,0.07298641,-0.62437004,0.07424132,-0.0034832936,-0.2280836,0.13090585,0.13222058,0.009945931,-0.025697747,-0.020122826,-0.16848649,-0.08665596,-0.0077251815,-0.15839732,0.06968598,0.11216111,0.12745962,-0.09371007,-0.009293221,0.061806172,-0.17422314,0.28252515,0.019353041,-0.035451252,-0.10292271,0.22460878,-0.086061694,0.28940296,-0.16472022,0.22802143,-0.15890115,0.02453058,0.0124731315,0.04048314,-0.12654097,0.15783301,0.030784583,-0.027222654,-0.016910357,0.18975684,0.038202006,0.044077758,-0.17814808,0.011486461,-0.13448498,-0.21337934,-0.12546147,0.031759217,0.037520092,0.030438313,-0.072686575,0.09839435,-0.08460379,0.012150718,0.12811936,-0.16906945,0.1694601,0.15520681
59,-0.06819515,0.22926937,-0.09390759,0.17116418,0.19799785,0.17164534,-0.036724385,-0.092219606,-0.11952188,0.10719939,-0.16681285,0.10099841,0.10303116,0.13324831,-0.13343206,-0.1921877,-0.04718253,0.18994625,0.11481077,0.34971175,0.05357159,-0.260848,0.04308282,0.4057396,0.06892784,-0.0050611105,0.0661432,0.12988573,0.063506104,-0.30344278,-0.13905564,-0.166993,-0.037239462,-0.14589605,0.22920455,0.123005785,-0.031688605,0.13489379,0.1747308,-0.023784112,0.08103785,-0.019156093,0.087564275,0.17204867,0.06867957,0.054023467,0.037395842,-0.14198998,-0.020403752,-0.4479253,0.05231646,-0.062427483,-0.06737361,-0.07884326,-0.22906573,-0.07713052,0.0776373,-0.06320795,0.09352005,-0.01632093,-0.03266052,-0.19269083,-0.002583254,-0.18435146,0.09408362,-0.13618651,0.09722189,-0.14466639,0.28992826,-0.076552525,-0.03170791,0.09207263,-0.076818064,-0.02191593,0.36756274,-0.20264211,0.03310119,0.021816092,-0.2081209,0.030314762,0.043479897,0.33443043,-0.081989706,0.046340626,0.20700444,0.18095893,0.116045296,-0.14848296,0.13026483,-0.06644226,0.010366411,-0.082779594,-0.0020748666,0.056181516,-0.0038118835,-0.013836521,0.25023082,0.13651839,-0.13835862,-0.07133112,-0.0981218,0.054125782,0.035316464,-0.14234228,0.014914296,-0.6392929,-0.46963862,0.07455158,0.17689121,0.039432235,0.1881832,0.05765298,-0.08070012,0.07882314,-0.14911611,-0.024835149,0.08407025,0.10194572,-0.09020268,-0.006515694,0.19478399,0.11178542,0.10053298,-0.0028046404,0.07806742,0.016557768,-0.019454254,0.12328626
60,-0.11445052,0.02397811,-0.16019695,-0.13573357,0.1853856,-0.1632013,-0.093458936,-0.03903755,0.012566016,-0.05981532,-0.2417998,0.12515731,0.078061104,-0.10732246,-0.09671825,-0.13500236,-0.12156575,0.15488906,0.0648302,0.19217183,0.018089375,-0.13701142,-0.14051534,0.2248602,-0.17651881,-0.049742673,-0.11712509,0.11077203,0.034381334,-0.15998276,0.108719975,-0.18471386,-0.037012685,0.08839939,-0.055239383,0.2319095,-0.039385084,-0.08252189,-0.27945197,0.0014125801,0.04400983,0.037910074,-0.042571444,0.01230393,-0.032026146,-0.030047491,0.15041874,0.079501264,0.005522835,-0.35654116,0.08890413,-0.07821109,0.15123087,0.037501637,-0.114360936,-0.09349201,-0.23594166,0.09297093,0.06633615,-0.20933002,0.17763089,0.033081055,-0.3215474,-0.20266832,0.006193233,-0.023883428,0.08608623,-0.1439006,0.0085295,-0.0772864,0.05540158,0.11539911,-0.22805233,0.16548859,0.13500969,-0.07839392,-0.048826665,0.06540259,-0.21070068,0.045532256,-0.03356141,0.2323967,-0.048669897,-0.072188266,0.0885879,0.0048422394,-0.23047991,0.09933567,-0.07972459,0.11212059,0.18604366,0.09075636,-0.08023613,-0.076877825,0.02340296,0.11320602,0.017880347,-0.0925907,-0.20553127,0.04317638,0.11205456,-0.085786335,0.1474855,0.019358618,-0.2709019,-0.20782477,-0.328603,-0.030596314,-0.10104882,0.16643478,-0.18465061,8.477606e-05,0.0147332,0.013518345,-0.007672669,0.073998176,-0.12907949,-0.00637066,-0.11316006,0.007237876,-0.02999793,0.18655066,0.23297496,-0.0006801834,0.036686826,0.030711262,0.1495829,-0.040314414
61,0.06783431,0.13209544,0.25166297,-0.07917167,0.060272392,-0.08218529,0.040662136,0.0069539254,0.07456216,0.09775124,0.06320095,-0.068517484,-0.15718451,0.1646875,0.14681262,-0.0064368076,0.027915692,0.08367927,0.13764967,-0.14335419,-0.09542863,-0.012537654,0.13244423,-0.043712676,-0.044221032,-0.009895754,-0.1727502,-0.08402153,0.07156467,0.30989894,-0.18397059,0.09354512,0.035752233,0.1256257,-0.11604392,0.12111565,0.039900884,-0.07111411,0.024763295,0.06642047,-0.03778531,-0.09614604,-0.08609994,0.0042725964,-0.094727576,-0.071583785,0.008567021,0.10158991,0.007597272,-0.1608643,0.07581255,0.29855862,-0.15084781,-0.207478,0.07259765,-0.2269,-0.04397926,0.13379389,0.17095824,-0.07266272,0.25470182,0.0039120913,-0.11599638,-0.09297186,0.29802796,-0.5191723,0.13689186,-0.10121766,0.09431596,0.06947616,-0.04171581,0.12839761,-0.020382693,-0.03168568,0.020346241,0.14081998,0.10444296,0.05542231,0.10245371,0.0629098,0.056763064,-0.062248737,-0.08488066,-0.007509369,-0.20358114,-0.037050933,0.27124274,-0.09424186,0.060088977,-0.007733728,-0.4612331,0.10164926,0.03012168,0.027371824,-0.12546293,0.10407392,0.041230816,0.39042652,-0.0633022,0.052958887,-0.15419556,0.092784226,-0.14393738,0.0758734,0.11108614,0.06356896,0.168858,0.014879086,0.137812,-0.047550663,-0.3305141,0.068090826,-0.23567873,-0.06641923,-0.09625687,-0.005911902,0.2080735,0.10309796,0.05679634,-0.27584717,-0.03828474,-0.20036264,0.020904545,-0.08126549,0.20012493,-0.116579615,0.1125542,0.009634728
62,-0.1697182,0.03467369,0.035017416,0.16175067,-0.031284302,-0.10664169,-0.19238542,0.0055367155,-0.16499496,0.017331291,0.1581937,-0.24522573,-0.087466024,-0.29013363,0.00095128827,-0.023197714,-0.12070276,0.012036833,-0.089204706,0.1211301,0.03187783,0.040818725,-0.11933521,0.09804658,0.11806749,-0.094372846,-0.25792298,-0.26993784,0.07682522,0.02460027,-0.03292814,-0.15922168,0.09379056,0.012756919,-0.017520588,-0.08015008,0.04745616,0.019414693,0.14871404,-0.109688126,-0.17099434,0.12120869,0.15620545,0.102854066,0.044119123,0.06756228,-0.15393469,0.011104337,0.062174916,-0.3003581,0.017245602,-0.07613804,-0.0698903,-0.19738387,0.13732216,0.12529102,0.03250654,-0.074931696,-0.024425125,-0.10342037,0.06550731,-0.14294207,0.32621107,0.14318492,-0.08653286,-0.037334204,-0.1047159,-0.1738399,0.11629401,0.1291026,0.12556657,-0.12816542,-0.035687666,0.037092134,0.10341694,0.04190747,-0.06895285,0.076115556,0.016437458,0.0647292,0.117239244,-0.22707951,0.21837552,0.027080813,-0.34119052,0.011657981,0.11056138,-0.09364166,-0.12222773,0.00064393284,-0.15270054,0.012460494,-0.028086169,0.11128058,0.04893787,0.08335853,0.09684032,-0.043552123,-0.018698186,0.2173175,0.094618395,-0.045528837,-0.041004732,0.026206207,0.018266153,-0.10439903,0.22696391,0.0035754382,0.047801316,-0.06157884,0.20368955,0.10896796,-0.015499409,0.05378577,-0.060055207,0.10458118,0.11225869,-0.06967236,0.13651216,0.15565288,-0.063117705,-0.27981126,0.035334736,0.0044186683,-0.06027297,-0.011625632,-0.07281589,-0.1127515
63,0.015303078,0.13883778,-0.0990336,0.04276878,0.050902806,0.15492631,0.027988004,-0.03432931,0.04891641,-0.09614743,0.063894555,-0.030767977,-0.08404303,-0.17705125,-0.063733466,-0.12926847,0.063702606,-0.21241847,-0.0017591601,-0.21171921,0.13282815,-0.07887403,-0.09728869,-0.32745922,0.1711241,0.18144307,0.22952436,0.017850732,-0.010744704,0.10039171,0.12578817,-0.048769847,-0.23702808,-0.06837663,0.011884543,-0.12219667,-0.24751262,0.16304474,0.23550045,-0.041834537,0.14299056,-0.059680756,0.042508863,0.1303347,0.21507998,0.03877814,-0.1169204,-0.09748177,-0.023929637,0.06603194,-0.14406526,0.17686756,0.12018694,0.2114959,-0.12394007,0.05324451,0.22493054,0.029367708,-0.2612415,0.1833374,-0.18597521,0.04404546,0.11776025,-0.017911592,-0.0018752847,0.039883953,-0.03387754,0.13108629,-0.15382455,0.015797185,-0.122969225,0.31953052,0.018471846,0.2071666,-0.0063004205,-0.033273924,-0.12964576,-0.046405584,-0.03763444,-0.009084351,-0.10366533,0.11510729,-0.048844397,0.23273616,-0.095364176,0.06393832,-0.14429869,0.07364594,0.062102217,-0.0040778667,0.12788795,-0.3832889,-0.02075728,0.36377394,-0.072104864,-0.106475525,-0.32971492,-0.13069701,0.17026468,0.14870429,0.07231437,-0.101476416,0.00097212906,0.083555706,-0.00070889795,0.12428114,0.39403245,0.094033726,0.10827745,-0.14777458,-0.1331245,-0.24639276,-0.018350631,-0.037808154,0.05363428,0.032602035,0.0243289,-0.023088973,0.025408065,-0.032968856,-0.087699845,0.07871443,-0.08640489,-0.22744074,0.11688076,-0.0018544921,-0.30088228,-0.22216721
64,0.21981996,0.20233324,0.049125846,0.10356274,0.030777084,-0.23510562,0.31553257,-0.07959637,0.075906396,-0.237852,0.0066911858,0.015240808,-0.083743334,-0.06650662,-0.08010842,-0.49313197,-0.02414177,-0.016549835,0.12604576,0.17881887,0.033733074,-0.3962455,0.010264718,0.17381439,0.11900562,-0.07935519,-0.04140723,0.095587686,-0.065526046,-0.046205573,0.045744527,-0.5614339,-0.21843648,-0.19131923,-0.023914473,0.07858502,0.054135516,0.1425962,-0.22954987,0.034701683,0.0072148377,0.19329987,0.0070875515,0.05073463,-0.20794751,-0.055797696,0.121018104,-0.051096443,-0.14076439,-0.13012138,-0.04689562,0.2819904,-0.14951278,-0.057064127,0.15117383,0.08757796,0.19243269,0.043793313,0.01536629,-0.11821076,0.18223096,0.09777639,-0.33188522,-0.2903627,0.07609279,-0.06460104,-0.022463558,0.18293089,0.11498626,0.06652324,-0.09843709,0.031085363,0.04293698,0.14834541,0.10273028,-0.49207553,-0.28076074,0.07111215,-0.11069847,-0.025184229,0.166836,-0.10170072,-0.14068542,0.10309969,0.07274716,-0.10586073,0.18844175,-0.004947463,0.0672677,0.039763406,-0.06827603,-0.22324745,0.1416284,-0.27123964,0.14761092,0.03627398,0.017266305,-0.04517743,0.15178043,0.19685826,0.054086864,-0.18274422,-0.007118731,-0.0208264,-0.10686713,-0.05311557,0.03596252,-0.11360328,0.028627086,-0.039290186,0.06664991,0.12600781,0.12410297,0.040538836,-0.032708544,-0.007126587,0.059130292,-0.13759938,-0.27545646,-0.13626231,-0.08868205,-0.07914278,0.027329303,0.059571035,-0.046724502,-0.02468683,-0.13063821,0.12572277
